<?xml version="1.0"?>
<opencv_storage>
<SVMmodelH_-_2 type_id="opencv-object-detector-hog">
  <winSize>
    56 40</winSize>
  <blockSize>
    16 16</blockSize>
  <blockStride>
    4 4</blockStride>
  <cellSize>
    8 8</cellSize>
  <nbins>9</nbins>
  <derivAperture>1</derivAperture>
  <winSigma>4.</winSigma>
  <histogramNormType>0</histogramNormType>
  <L2HysThreshold>2.0000000000000001e-01</L2HysThreshold>
  <gammaCorrection>0</gammaCorrection>
  <nlevels>64</nlevels>
  <signedGradient>0</signedGradient>
  <SVMDetector>
    1.77753717e-03 -4.02246527e-02 1.31222866e-02 -3.28665823e-02
    -1.22439936e-02 -1.70017686e-02 -4.31007752e-03 5.01372404e-02
    6.25569895e-02 4.81565343e-03 3.72875966e-02 -1.54534522e-02
    -4.91073215e-03 4.16540466e-02 1.03391292e-04 3.35359238e-02
    -1.98337603e-02 -3.97513136e-02 1.58503298e-02 -1.37227559e-02
    3.92052461e-04 4.05634083e-02 -4.89962325e-02 -2.32640244e-02
    -7.65854353e-03 -8.01086240e-03 1.06114894e-02 5.98600991e-02
    5.63819855e-02 -1.16646662e-02 7.11314455e-02 3.68339829e-02
    5.57375886e-02 5.65082242e-04 6.78468309e-03 5.56659652e-03
    2.92402897e-02 2.41736462e-03 3.89086339e-03 -1.33417919e-02
    -1.73658039e-02 -3.27973105e-02 1.23421173e-03 -2.00881576e-03
    -4.08203006e-02 -2.43774354e-02 -4.02182806e-03 2.11007074e-02
    1.25020444e-02 1.23225874e-03 2.16144472e-02 -5.45618795e-02
    -2.54880916e-03 4.77244183e-02 -2.96626166e-02 -4.86293249e-02
    1.13004176e-02 -3.30581218e-02 -1.09029161e-02 -6.06635259e-03
    -9.55224317e-03 -2.87738023e-03 -1.33366846e-02 3.90190259e-02
    -1.51746841e-02 1.57138295e-02 4.14721072e-02 -1.50078749e-02
    8.08367226e-03 3.27349529e-02 6.91922009e-03 -1.28061092e-02
    -3.35520529e-03 -2.03045905e-02 2.31840238e-02 -2.83571575e-02
    -3.61831812e-03 9.38007026e-04 -1.34216985e-02 -4.75379312e-03
    6.10833131e-02 1.64697357e-02 1.98235679e-02 1.92346219e-02
    -1.12106418e-03 2.89082937e-02 6.85148966e-03 2.02611983e-02
    5.17234318e-02 1.38558466e-02 -1.55120343e-02 -2.52317376e-02
    -6.74095005e-03 -6.68233726e-03 -4.94315028e-02 -6.91332528e-03
    -1.93231814e-02 3.07024810e-02 -4.31962833e-02 -4.88625932e-03
    1.20475227e-02 5.54972030e-02 1.95133407e-02 -6.66867895e-03
    -2.50621904e-02 9.35624074e-03 2.55015329e-05 -5.68133825e-03
    -1.56167354e-02 1.65245868e-02 -1.01742391e-02 7.41435355e-03
    3.87472101e-02 -4.41865735e-02 -1.63285213e-03 6.79623755e-03
    1.53352730e-02 1.67629775e-02 2.89194810e-04 -9.60391760e-03
    3.10114995e-02 1.42676812e-02 9.39347409e-03 2.33998857e-02
    9.21371356e-02 2.43065017e-03 -1.49946157e-02 2.12474242e-02
    4.48879302e-02 -2.16145888e-02 -2.62450222e-02 -1.08331712e-02
    1.97586883e-02 -2.64363922e-02 5.11759780e-02 1.84198301e-02
    -4.94805276e-02 2.91081388e-02 5.28370179e-02 -1.07692340e-02
    3.08677088e-02 8.64502322e-03 1.24138892e-02 2.06661057e-02
    7.60769006e-03 3.86176072e-02 -4.92942613e-03 3.91761260e-03
    2.83972770e-02 -2.63502151e-02 5.21636242e-03 9.78538860e-03
    1.39324171e-02 5.53935841e-02 3.54778096e-02 1.67558584e-02
    -1.38055701e-02 -2.53196253e-04 8.51586345e-04 2.94363238e-02
    -2.17901152e-02 5.50984740e-02 -9.63848259e-04 -6.49996148e-03
    1.16267465e-02 1.71682201e-02 -3.91052105e-02 -1.39010772e-02
    2.97335163e-02 -1.91634204e-02 6.39550574e-03 3.18944268e-02
    -1.73269436e-02 5.41906208e-02 -1.54086351e-02 -7.93127692e-04
    5.53288274e-02 -1.47005180e-02 1.04506547e-03 2.84758247e-02
    -2.81162269e-04 1.11327032e-02 -8.60942248e-03 1.93322096e-02
    2.60133538e-02 -5.02558891e-03 -9.29403584e-03 -6.15421012e-02
    2.73631625e-02 2.33761314e-02 5.13105420e-03 -7.54125649e-04
    4.08012867e-02 1.81228034e-02 -2.20083892e-02 1.99850332e-02
    -1.40843624e-02 3.85722220e-02 1.13790412e-03 4.26687077e-02
    5.89743182e-02 2.98489463e-02 -1.72585919e-02 1.81021523e-02
    -9.65668540e-03 3.49256322e-02 -1.52722923e-02 3.28779854e-02
    2.47252192e-02 8.92927777e-03 5.42352274e-02 -1.38689810e-02
    -8.52213334e-03 -1.07363798e-03 1.53856166e-02 3.01568992e-02
    1.11458302e-02 -5.10701723e-02 -7.09567741e-02 2.18148939e-02
    -9.16065834e-03 1.48569085e-02 -2.52130139e-03 -1.62865072e-02
    5.13903499e-02 -1.24800773e-02 7.49291182e-02 6.94652367e-03
    3.08956690e-02 1.43537577e-02 1.15782898e-02 3.20448242e-02
    4.84475903e-02 -2.66288538e-02 -9.91111249e-03 -8.77031125e-03
    -2.48676352e-02 2.02587955e-02 2.75979433e-02 -1.51894661e-02
    1.55836968e-02 3.45866792e-02 -1.94016527e-02 9.77653265e-02
    -1.79332327e-02 7.68890651e-03 2.97443941e-02 1.43775819e-02
    3.32438126e-02 -1.12862727e-02 1.82548277e-02 -3.38543952e-02
    -1.75246056e-02 1.08445864e-02 1.42415883e-02 1.53772188e-02
    -5.14928112e-03 2.39506294e-03 -2.72734370e-02 -2.25860626e-02
    3.88738737e-02 -3.36791724e-02 3.00921518e-02 -1.30609088e-02
    3.85486335e-02 2.92039402e-02 7.85920322e-02 -4.75951694e-02
    -3.65838744e-02 2.69801053e-03 2.16332693e-02 -2.28004460e-03
    -1.33319581e-02 -4.96105328e-02 -7.77278980e-03 4.35326323e-02
    1.19800856e-02 3.10829990e-02 -7.27202231e-03 3.62440161e-02
    5.68599701e-02 2.62517016e-02 5.21455286e-03 -2.14678422e-02
    -5.94640675e-04 3.89895588e-03 -2.31008474e-02 2.42147297e-02
    -1.53669883e-02 2.14970652e-02 2.04599444e-02 3.45196351e-02
    -2.65439437e-03 3.52048650e-02 1.29031250e-04 -1.37794362e-02
    1.86791960e-02 -2.60929298e-02 -2.31029633e-02 -1.74771342e-02
    -5.75349815e-02 1.00855855e-02 -1.41320121e-03 7.12525565e-03
    -7.17669679e-03 -5.33235110e-02 -7.10463105e-03 -1.26994895e-02
    -9.23146680e-03 -1.15584070e-02 -2.28052326e-02 -3.60778905e-02
    4.14317660e-02 -2.18544174e-02 2.03206856e-02 2.54889540e-02
    -2.40657781e-03 -1.02500413e-02 -1.02287140e-02 -2.19170563e-02
    -1.38384709e-02 -1.28468461e-02 -2.90959496e-02 7.44038681e-03
    -4.88573797e-02 -1.09365908e-03 1.26770195e-02 -5.74295595e-02
    -3.62062193e-02 -9.82108153e-03 -2.50280425e-02 -1.69939213e-02
    -5.09900935e-02 -3.39282234e-03 4.92932368e-03 -7.07093161e-03
    -4.88995239e-02 3.51419188e-02 -1.57866161e-02 2.05995925e-02
    2.13597845e-02 -4.01497819e-02 -3.36811575e-03 -4.21239948e-03
    4.31550015e-03 3.87624986e-02 2.08377484e-02 1.03753561e-03
    2.14417260e-02 -6.03777170e-03 1.49703547e-02 -5.32277972e-02
    -3.00022326e-02 4.66171950e-02 4.78668958e-02 2.61475407e-02
    -2.46502575e-04 1.66725973e-03 -4.26931567e-02 3.85842659e-03
    -2.34201178e-02 7.57400971e-03 7.49869319e-03 -3.51138646e-03
    5.29107824e-02 -1.66499186e-02 2.15443894e-02 -1.16128027e-02
    -1.58921294e-02 2.20837966e-02 2.84629185e-02 -1.92330766e-03
    1.83217619e-02 -6.80065062e-03 -8.14440846e-03 4.79598716e-03
    -7.60015100e-03 2.85957251e-02 -1.12535339e-02 -3.50203887e-02
    7.25486800e-02 1.43612204e-02 1.65855400e-02 2.28851568e-02
    -1.06896050e-02 -5.72987571e-02 1.78797077e-02 -5.40341623e-02
    3.76328616e-03 2.00311840e-02 -4.26371247e-02 3.34402286e-02
    1.45375067e-02 3.34329344e-02 3.55711393e-02 1.27943614e-02
    -2.77206907e-03 1.14665432e-02 -1.40472893e-02 3.82769294e-02
    -3.30815800e-02 1.11671891e-02 8.53201840e-03 -2.80829687e-02
    -4.66317460e-02 -3.30399047e-03 1.16714966e-02 -2.96007725e-03
    -7.05700601e-03 -2.45839600e-02 2.33965237e-02 -1.43178999e-02
    2.03047246e-02 3.17221582e-02 -3.63090523e-02 1.76315680e-02
    2.32349820e-02 -1.02447290e-02 -2.22657938e-02 7.89775327e-03
    -2.01555640e-02 1.43822404e-02 -3.90981138e-02 2.88925059e-02
    -2.39840373e-02 -3.14411707e-02 -3.83629166e-02 1.46249430e-02
    2.93933172e-02 -2.06629839e-02 5.20064309e-03 -9.17559490e-03
    -4.49109590e-03 -3.54748592e-02 -2.41058762e-03 4.30303365e-02
    -5.31613640e-03 3.51920538e-02 6.61160564e-03 2.86861360e-02
    -1.48369260e-02 -2.67248545e-02 -6.34280441e-04 -2.26033721e-02
    1.32236676e-03 2.59966664e-02 -3.02823540e-02 3.08009740e-02
    4.45825383e-02 -6.04102900e-03 9.66169871e-03 8.17364827e-03
    -2.42766477e-02 9.15483665e-03 -3.14460620e-02 -1.46915056e-02
    -6.84199855e-02 3.30039896e-02 -5.35281235e-03 8.44262168e-03
    1.37260156e-02 3.76054347e-02 3.28855473e-03 8.63601733e-03
    1.19131180e-02 1.08434353e-02 -2.94122212e-02 -9.80953965e-03
    -1.41620152e-02 -1.21306591e-02 -2.76115797e-02 3.53324180e-03
    -5.48397005e-02 -3.69492024e-02 4.30679917e-02 3.03961877e-02
    4.22172155e-03 3.45938653e-02 2.05985736e-02 1.90238990e-02
    5.11487247e-03 1.65639557e-02 2.60509495e-02 -1.69641487e-02
    8.83548986e-03 -2.57892944e-02 8.53903666e-02 6.51323125e-02
    1.78812891e-02 3.35304788e-03 -4.40435112e-03 3.86881665e-03
    7.44730234e-02 -2.07024137e-03 7.24949781e-03 -2.59230919e-02
    -4.88086529e-02 -3.20279878e-03 -3.98151167e-02 -4.69350442e-02
    4.77150045e-02 -2.27792356e-02 2.75434256e-02 -4.90421727e-02
    -9.89995617e-03 2.32927431e-03 3.03465649e-02 -4.93264906e-02
    2.81372108e-02 4.00242284e-02 1.84743628e-02 -1.20817209e-02
    1.71374734e-02 -2.15303176e-03 2.23972239e-02 -1.25399465e-02
    -5.85023733e-03 -3.93811986e-02 3.62860854e-03 -7.97023904e-03
    -1.64381210e-02 -9.56735387e-03 6.96420968e-02 -1.16235055e-02
    -1.96467247e-02 2.97825988e-02 5.89838531e-03 -1.32759092e-02
    -5.25625329e-03 3.59866507e-02 2.67748386e-02 -1.58906896e-02
    1.95248108e-02 2.73392443e-03 5.75948022e-02 2.30185408e-02
    6.68019950e-02 1.18497340e-02 2.42170854e-03 2.36692149e-02
    -3.95302325e-02 -1.79255083e-02 3.26437578e-02 1.10503640e-02
    -3.53913419e-02 -2.01493409e-03 -1.23951025e-02 -2.64262408e-02
    -2.98156124e-02 2.14727148e-02 1.61681194e-02 -2.62328014e-02
    3.50934407e-03 -1.83897372e-02 2.89474893e-02 1.54305315e-02
    -2.06124224e-02 -3.50839086e-02 -8.87740031e-03 3.14625050e-03
    -7.76955578e-03 7.56266937e-02 2.93812063e-02 1.17050838e-02
    1.97008718e-02 -2.72827111e-02 1.99633893e-02 -3.59770656e-02
    -2.31455211e-02 1.37063011e-03 -2.55124141e-02 2.15324927e-02
    -6.07349502e-04 2.23520212e-02 -1.58943906e-02 -3.02369501e-02
    -2.15657800e-02 -1.09998202e-02 1.02923140e-02 4.73812260e-02
    1.57159716e-02 4.45966376e-03 5.15339430e-03 -6.99751778e-03
    -5.55899628e-02 -1.75212268e-02 -1.89436483e-03 1.05255423e-02
    1.98602211e-02 3.80782150e-02 -1.92198716e-03 5.32398466e-03
    -6.84872596e-03 7.42629031e-03 -2.69713178e-02 3.67575511e-03
    2.65594069e-02 1.57086849e-02 1.75013747e-02 -2.71634664e-03
    -1.12222414e-02 1.08172381e-02 -7.44767394e-03 3.30100171e-02
    -5.41117303e-02 4.99739870e-02 -2.77894381e-02 2.24124026e-02
    4.79113534e-02 5.63438535e-02 -4.07246947e-02 3.18183936e-02
    8.49918742e-03 -1.41409710e-02 1.35803828e-02 1.54681299e-02
    6.06628731e-02 8.05761572e-03 -1.30383196e-04 -2.51555862e-03
    -3.26237790e-02 -3.67251374e-02 1.87451411e-02 -1.41244428e-02
    3.10209440e-03 3.54662053e-02 -4.74741776e-03 1.65024698e-02
    2.78796665e-02 5.38218617e-02 3.74327251e-03 -1.80894174e-02
    7.60586485e-02 1.90748293e-02 2.59761345e-02 1.43251354e-02
    -1.36052594e-02 -3.80746759e-02 -1.12572517e-02 6.44849613e-03
    1.18620563e-02 1.64970327e-02 3.32748820e-03 4.40248884e-02
    4.59710322e-03 7.06344377e-03 1.55941220e-02 -3.81195955e-02
    -4.95490991e-02 -3.23795388e-03 1.75567959e-02 1.17527498e-02
    2.00584298e-03 1.50216082e-02 -3.10926996e-02 2.77279578e-02
    1.59517508e-02 1.44879823e-03 4.11717250e-04 7.57194357e-03
    -1.31190624e-02 3.76672074e-02 1.35859642e-02 -3.30498740e-02
    -1.13713518e-02 1.45074073e-02 1.88103653e-02 4.42644730e-02
    3.39498296e-02 7.64480233e-03 1.53745273e-02 3.42439837e-03
    -1.23006627e-02 -4.82119992e-02 -3.42722400e-03 -2.52159983e-02
    -5.83413094e-02 -7.01185241e-02 8.16525146e-03 2.38024760e-02
    -1.42002227e-02 4.87370603e-02 2.00643595e-02 -6.41454980e-02
    -9.42894816e-03 -8.74778349e-03 1.24429921e-02 -2.57574003e-02
    -2.62418110e-02 -1.48447817e-02 -2.95647234e-02 -1.18886735e-02
    2.31929589e-02 2.03344002e-02 1.11142418e-03 -3.37394550e-02
    -2.92870160e-02 5.17933331e-02 2.84264889e-02 -1.48568936e-02
    -4.07284349e-02 -3.99453230e-02 -2.40815748e-02 7.19910208e-03
    5.60481241e-03 2.38621328e-02 -3.66573855e-02 -1.17735518e-02
    -3.56722623e-02 2.78217196e-02 -1.12695098e-02 -3.56949754e-02
    4.08454519e-03 2.52525825e-02 1.05073778e-02 1.25044677e-02
    -3.98237221e-02 1.07224397e-02 1.99411195e-02 2.03857291e-02
    5.24006858e-02 4.61217687e-02 3.57930698e-02 9.73246340e-03
    9.52175912e-03 -2.23720986e-02 1.92802399e-02 -6.78410847e-03
    1.73496187e-03 -1.88695136e-02 -2.87128817e-02 -3.07152234e-02
    -2.29598042e-02 -1.98602099e-02 2.05858760e-02 1.74369905e-02
    4.42804359e-02 -5.20106591e-02 5.35841584e-02 4.70116511e-02
    1.44096669e-02 2.00788267e-02 3.76278209e-03 -6.65805116e-02
    3.11747883e-02 -5.47967665e-03 5.92667162e-02 -3.50286737e-02
    4.26811799e-02 1.36411088e-02 1.85036939e-02 -4.22949642e-02
    6.16675802e-03 2.68202387e-02 4.20587957e-02 -2.97875386e-02
    2.62182560e-02 -2.37414241e-02 -1.54363383e-02 1.59556922e-02
    4.48165610e-02 1.16051175e-02 3.24976002e-03 -3.17740068e-02
    -1.81558821e-02 3.11514419e-02 7.20449537e-02 8.41225684e-03
    5.90451472e-02 2.60172295e-03 4.44937833e-02 -3.77205340e-03
    5.19719720e-02 2.70518176e-02 5.34901535e-03 -5.02214115e-03
    3.69435474e-02 8.43442455e-02 2.57905554e-02 -1.08942501e-02
    1.03238756e-02 -3.23998146e-02 -5.42009575e-03 6.19859770e-02
    -1.71566363e-02 1.74278729e-02 4.97273281e-02 1.49930390e-02
    4.34173271e-02 -3.70873921e-02 8.34706984e-03 -1.81531478e-02
    -5.69513254e-02 1.49984751e-02 2.36653034e-02 5.19357510e-02
    -9.22467466e-03 -2.94858161e-02 -3.58193088e-03 -3.52069847e-02
    -5.77789918e-02 -1.71630364e-02 1.26948562e-02 -1.29336091e-02
    -3.03221941e-02 -1.59238875e-02 1.87840443e-02 9.85367503e-03
    3.39075103e-02 2.94292849e-02 -3.48246656e-03 -6.44834638e-02
    3.74620780e-03 -7.57896807e-03 1.53477266e-02 -4.97100130e-03
    2.43833270e-02 -2.13697515e-02 -3.34084332e-02 2.19677761e-02
    -2.66192877e-03 6.05494566e-02 2.03415211e-02 2.50528418e-02
    3.34264226e-02 -2.08861735e-02 -1.47724459e-02 3.28477193e-03
    -6.79388419e-02 3.72722410e-02 1.32965893e-02 -8.04088823e-03
    -1.55050615e-02 -2.22767945e-02 7.07872491e-03 2.15157922e-02
    -9.53609851e-05 2.74517909e-02 3.52453291e-02 7.93483574e-03
    1.39261354e-02 2.21025497e-02 8.83375295e-03 7.51474313e-03
    1.44596584e-02 -2.29518618e-02 4.36937483e-03 1.21789277e-02
    -1.15919346e-02 2.57909484e-02 9.96855926e-03 -5.68146678e-03
    7.01365992e-03 3.09163257e-02 1.90700758e-02 4.32561990e-03
    -3.46670882e-03 1.84988920e-02 1.56089636e-02 2.40260642e-02
    -2.11208370e-02 1.78332012e-02 -2.21121367e-02 -1.70176793e-02
    -1.82483171e-03 3.94716747e-02 -1.54799791e-02 -6.55896822e-03
    2.15798225e-02 -3.35713383e-03 -4.80876528e-02 6.19779490e-02
    -1.51994973e-02 -2.03112196e-02 2.57450547e-02 1.48480227e-02
    -7.34425848e-03 2.13490892e-02 2.86414498e-03 3.04107857e-03
    6.34588674e-02 8.20512325e-03 2.65650172e-03 2.77267899e-02
    -2.87662093e-02 4.24363539e-02 -5.62679907e-03 7.30598764e-03
    -2.52604634e-02 -4.98639001e-03 -9.33996309e-03 -1.00199664e-02
    -1.95941934e-03 4.59808782e-02 3.26460078e-02 1.59074683e-02
    3.10444348e-02 -2.07523350e-02 2.42014211e-02 1.58671606e-02
    -4.15783143e-03 3.13991196e-02 1.45427948e-02 5.71512152e-03
    -3.10007809e-03 -4.19882452e-03 -6.38710111e-02 1.19598992e-02
    1.74702853e-02 -6.11859374e-02 -2.33690981e-02 -2.07757931e-02
    1.80388484e-02 3.13318372e-02 -2.16413420e-02 1.97866745e-02
    -2.22416949e-02 -4.34357263e-02 1.78071931e-02 2.39599217e-02
    8.55599530e-03 5.10632060e-02 4.62589189e-02 -2.07110331e-03
    -4.56357077e-02 3.50001641e-02 2.20007934e-02 -3.23197097e-02
    -5.74094336e-03 2.23616231e-03 2.32024100e-02 -4.61102417e-03
    2.37484612e-02 -2.19830312e-03 -4.93422113e-02 -4.89513949e-02
    -5.13054729e-02 1.73950661e-02 -2.08337009e-02 1.69601813e-02
    -5.46900369e-03 -2.07007285e-02 4.84732306e-03 -1.99579727e-03
    -3.50826122e-02 -2.44093090e-02 -1.14898831e-02 1.04095240e-03
    1.09211039e-02 -1.94549188e-02 -1.17670670e-02 -7.93802273e-03
    1.05480645e-02 3.02876923e-02 1.02626858e-02 1.01280045e-02
    1.46427779e-02 1.87407602e-02 -1.31040514e-02 1.21978065e-02
    1.88865140e-02 -4.51398753e-02 1.87536201e-03 -3.84611748e-02
    2.61415094e-02 2.22963169e-02 -3.68227484e-03 5.52882329e-02
    2.47609857e-02 4.88418713e-03 1.18686887e-03 -3.54189798e-02
    -2.28304528e-02 2.93088946e-02 -8.19367077e-03 5.30966464e-03
    -4.38921247e-03 -5.99296056e-02 1.65836066e-02 1.51866497e-02
    3.09564210e-02 -1.25064924e-02 3.55354361e-02 -4.82296757e-02
    3.48562747e-02 -3.66010293e-02 1.97890997e-02 -1.91262905e-02
    -1.61486361e-02 -7.69930407e-02 -7.01625179e-03 3.66633050e-02
    2.51605380e-02 6.50658412e-03 1.78307910e-02 -2.29856782e-02
    -3.66422124e-02 -1.76823046e-02 3.71584967e-02 -1.88249946e-02
    3.85748371e-02 2.40893010e-02 -5.64885838e-03 2.51635369e-02
    8.35066848e-03 -1.55618005e-02 -2.35196692e-03 2.47625839e-02
    2.35541072e-02 -2.02919375e-02 1.84371825e-02 -6.16209395e-03
    1.35158719e-02 -2.90958025e-02 1.44884028e-02 9.49169137e-03
    -9.88508575e-03 3.17407362e-02 6.14420557e-03 2.10837498e-02
    -1.81629974e-02 -4.12197842e-04 -1.04861138e-02 -1.98283978e-02
    5.50497212e-02 3.20954211e-02 -1.68970451e-02 2.28873938e-02
    3.63153778e-02 -1.42514845e-02 3.05089783e-02 3.15782465e-02
    7.21795335e-02 -1.24101648e-02 5.03743030e-02 -3.13641056e-02
    -1.10594798e-02 3.70111279e-02 -4.34555695e-04 5.76786250e-02
    -2.25101225e-02 7.26188533e-03 -2.03555785e-02 2.01120507e-02
    -3.66650335e-02 -3.54083404e-02 -2.00890563e-02 -2.95070875e-02
    -2.40336508e-02 -3.79184783e-02 -4.60549109e-02 2.29375307e-02
    -3.07298861e-02 -2.76832632e-03 -2.41192300e-02 1.07657025e-02
    -2.82082334e-02 -8.08826555e-03 4.70029265e-02 -2.02087034e-02
    3.18851471e-02 5.82118705e-02 -1.02217942e-01 -1.51218977e-02
    -2.22250503e-02 9.71736666e-03 -1.41063309e-03 4.56192791e-02
    -4.28031338e-03 -5.95177524e-03 -4.95654643e-02 5.79727329e-02
    3.44627462e-02 -9.90546681e-03 -1.16153685e-02 -1.76256127e-03
    6.34188727e-02 -8.45397240e-04 -1.35907000e-02 -7.62697309e-02
    -1.94387529e-02 -4.07338515e-02 -9.66213718e-02 -4.36730608e-02
    -1.56956315e-02 2.11302359e-02 -6.45903917e-03 -8.51994206e-04
    2.72027962e-02 1.77179314e-02 -1.50685413e-02 -2.03149840e-02
    -3.50592323e-02 2.39626821e-02 -1.11994594e-02 -2.49403138e-02
    -5.90770692e-03 5.13740256e-03 4.20595743e-02 3.20848338e-02
    1.61546115e-02 3.84800769e-02 3.24242637e-02 4.23475653e-02
    1.85207501e-02 3.19921970e-02 -4.16708291e-02 -3.84541005e-02
    -1.18456259e-02 -1.90887600e-02 5.58418445e-02 4.86876369e-02
    3.36684100e-02 2.26318799e-02 -6.07024739e-03 -3.99142392e-02
    3.95618416e-02 -4.09451174e-03 -3.14883105e-02 1.69480243e-03
    -4.78323083e-04 -2.36570854e-02 -7.79391453e-02 -6.29959954e-03
    4.98424517e-03 3.39688398e-02 -3.59434192e-03 1.67824998e-02
    4.71063750e-03 -3.44562232e-02 1.19150188e-02 -3.88958082e-02
    6.74953237e-02 1.15406851e-03 1.30413100e-02 -2.46900711e-02
    -4.34395671e-02 6.94467798e-02 -9.17236693e-03 4.70780469e-02
    -4.00884514e-04 3.77338082e-02 -2.57630460e-03 -9.31563322e-03
    1.46883801e-02 -1.66740594e-03 -3.08309775e-02 4.16551391e-03
    -2.39991536e-03 1.08407838e-02 -8.24411679e-03 -2.35515665e-02
    4.49063927e-02 -1.06632488e-03 -1.81009211e-02 -8.52929149e-03
    -1.90343335e-02 4.82253497e-03 -6.32258058e-02 4.38278690e-02
    1.63269620e-02 -1.70158446e-02 -8.85456428e-03 6.11165632e-03
    1.24027571e-02 3.60910664e-03 2.93369889e-02 -1.37777010e-04
    -1.51232118e-02 -1.88973229e-02 -3.06497831e-02 2.03915406e-02
    -1.82143878e-03 1.25944437e-02 -2.74610613e-02 -5.59783494e-03
    -8.90304800e-03 -2.62002880e-03 -2.32427511e-02 2.28578597e-02
    -9.41796415e-03 1.79702863e-02 -9.67961829e-03 6.53024837e-02
    -6.06576330e-04 2.52953116e-02 3.15363407e-02 -2.95626707e-02
    -1.26791289e-02 -8.36797059e-03 -1.63483049e-03 7.74035323e-03
    -1.34289572e-02 5.44083863e-02 4.39505675e-04 -1.63622312e-02
    -4.00850899e-04 1.04254968e-02 -6.63518393e-03 -3.10493410e-02
    4.21091989e-02 2.60659438e-02 4.55121920e-02 2.53902767e-02
    -5.67291677e-03 -2.80885380e-02 1.26701239e-02 1.83709003e-02
    1.84582397e-02 -1.98751874e-02 3.71664651e-02 -1.55193675e-02
    -1.04227923e-02 -1.44463722e-02 -2.91041750e-02 7.75193283e-03
    -2.60995012e-02 2.52327565e-02 2.11607125e-02 1.41502805e-02
    -3.26023698e-02 -2.69894227e-02 5.54577708e-02 -3.34518179e-02
    2.37080716e-02 2.96578966e-02 -2.45375670e-02 1.81021709e-02
    -3.07798218e-02 -6.34483714e-03 7.27850432e-03 -3.89628969e-02
    2.82252710e-02 -6.12061657e-02 -1.00987526e-02 1.34619400e-02
    3.16092186e-03 3.34693082e-02 2.13169083e-02 -1.88976768e-02
    -2.88249156e-03 -3.19583602e-02 -9.79933888e-03 -1.04537385e-03
    1.07033830e-02 5.17892651e-03 1.17721816e-03 -2.91105676e-02
    1.82975903e-02 5.73376194e-02 -2.43208650e-02 -3.17291841e-02
    2.98757479e-02 -6.57863589e-03 -4.87195663e-02 -1.06394002e-02
    1.57825910e-02 -2.18857378e-02 3.70768122e-02 -1.85903031e-02
    2.50098407e-02 6.86627300e-03 1.00644808e-02 -5.46179004e-02
    2.15284042e-02 6.87949266e-03 5.97222149e-02 9.66075901e-03
    3.67831178e-02 -4.01449651e-02 1.52479149e-02 -2.45703496e-02
    -5.01931412e-04 3.96818370e-02 -4.45145406e-02 -1.54639836e-02
    6.92689717e-02 2.41908655e-02 -8.87480378e-03 9.62190243e-05
    1.42588392e-02 -4.69520167e-02 3.01228538e-02 -2.66548526e-02
    -2.05117818e-02 -3.29873785e-02 -3.08088250e-02 3.27977315e-02
    2.27742996e-02 -4.93544247e-03 -1.32880937e-02 3.59272584e-02
    4.21565212e-02 -2.29494628e-02 -1.22022340e-02 8.20064265e-03
    -6.89173043e-02 -8.93877074e-03 -1.55013753e-02 4.44345921e-02
    -2.07768325e-02 -4.14739316e-03 -3.49222086e-02 2.60911901e-02
    -2.15188395e-02 2.18905695e-02 3.22098993e-02 -7.57125299e-03
    -7.50085281e-04 -1.37903532e-02 4.55544069e-02 -1.07109519e-02
    2.68075094e-02 2.15410274e-02 -1.43526178e-02 -1.55915879e-02
    4.07184027e-02 1.50428992e-02 -1.71665717e-02 7.87178520e-03
    -2.52247285e-02 -6.62773177e-02 -3.93803678e-02 -1.02312677e-02
    1.23927752e-02 1.86697021e-02 -5.00488048e-03 2.14134865e-02
    -2.68919580e-02 2.80463286e-02 -4.62299353e-03 -2.54571065e-02
    2.05524750e-02 3.14759240e-02 -9.23522934e-03 1.32000335e-02
    -2.48617232e-02 -7.64221710e-04 -4.32411581e-02 -4.30483092e-03
    3.05480678e-02 -1.61167085e-02 1.08204149e-02 -5.46590425e-03
    3.01071778e-02 4.11272841e-03 2.72186622e-02 3.00754979e-02
    -1.39545323e-02 8.54028855e-03 -4.77552675e-02 -1.01271225e-02
    1.86024569e-02 2.25556605e-02 -2.51817666e-02 1.42993173e-02
    -3.78906056e-02 -1.92548707e-02 -1.84514057e-02 4.06590626e-02
    -8.22965428e-03 1.03728455e-02 -3.04830424e-03 7.82451965e-03
    4.12406251e-02 -2.40291120e-03 -5.35246581e-02 -3.52531206e-03
    2.96104867e-02 1.44803794e-02 -3.12742405e-02 2.39989907e-02
    -2.81954017e-02 2.18053535e-03 2.98300851e-03 -3.81576158e-02
    7.93179218e-03 -2.08057370e-02 -4.41966169e-02 2.45110374e-02
    -1.94465090e-02 -9.44510661e-03 -1.64641012e-02 -8.97085108e-03
    -5.55827655e-03 -6.31629452e-02 1.23916389e-02 -5.28029203e-02
    -7.23004807e-03 -1.79039240e-02 -5.92326932e-03 -9.25603043e-03
    -2.44971830e-02 -1.31446142e-02 -1.03460904e-02 -3.16411592e-02
    2.77336203e-02 2.61276141e-02 2.36061271e-02 1.41996844e-02
    -1.04852440e-03 -2.40952093e-02 -1.57207064e-02 2.94941408e-03
    1.34932548e-02 -1.17993290e-02 9.70855169e-03 4.82554060e-05
    -3.39002758e-02 -6.02400303e-03 -1.51932677e-02 1.03687253e-02
    -4.09471169e-02 -1.39206443e-02 -5.40110357e-02 2.05161108e-04
    8.95594480e-04 7.30058469e-04 -1.12259565e-02 5.13532534e-02
    -5.06816320e-02 -2.47003958e-02 -1.06071504e-02 8.00754409e-03
    1.31871961e-02 7.31094694e-03 -1.31550999e-02 -1.79159176e-03
    1.81242563e-02 5.63823292e-03 2.49450412e-02 1.21037653e-02
    -5.73933497e-02 3.49153988e-02 -6.58795284e-03 2.24062856e-02
    -1.52884517e-02 -4.45332704e-03 9.72648617e-03 2.73131989e-02
    -1.04078818e-02 5.02832409e-04 2.28591519e-03 -4.24316525e-02
    -3.21380608e-02 -2.69836630e-03 2.48194556e-03 -5.92988953e-02
    -1.74053572e-02 1.27276694e-02 5.74574014e-03 -6.05495460e-03
    -1.27111701e-03 3.80435809e-02 1.65287778e-02 -1.63002517e-02
    2.47476448e-04 -4.69856486e-02 1.35903917e-02 -3.47860418e-02
    2.57626064e-02 -6.46021031e-03 4.57563065e-03 1.13773607e-02
    2.78375559e-02 -1.96585488e-02 4.09126980e-03 -1.67332534e-02
    2.12301090e-02 5.48922904e-02 -1.75129669e-03 1.61195789e-02
    -1.76288784e-02 -1.64744479e-03 3.67869139e-02 -1.77128464e-02
    2.41075177e-02 4.25700024e-02 -1.60885379e-02 -2.49897372e-02
    -4.43406729e-03 -2.12011859e-02 4.02933173e-02 3.77333760e-02
    1.86276389e-03 2.03968138e-02 -2.75751650e-02 2.79213656e-02
    -1.07048536e-02 1.68737136e-02 3.76228318e-02 1.04627945e-02
    3.70989321e-03 5.13724200e-02 -1.00364052e-02 -7.56109273e-03
    4.13386896e-02 1.23810500e-03 -3.76639627e-02 1.19687635e-02
    4.00619507e-02 -3.32609266e-02 -2.93110665e-02 4.91661988e-02
    1.39987404e-02 1.96777340e-02 4.75441478e-02 7.03125149e-02
    -4.32016747e-03 -1.02758165e-02 -4.12162719e-03 -7.52221569e-02
    1.47403795e-02 -1.41528584e-02 -2.58926698e-03 -6.03867956e-02
    4.63864431e-02 -1.30400034e-02 8.59463681e-03 -1.91427898e-02
    -4.57188338e-02 4.80085574e-02 1.30988378e-03 -1.93090849e-02
    -2.74789782e-04 2.67231511e-03 1.32308323e-02 2.32536923e-02
    -2.90528331e-02 8.70774686e-03 2.08587758e-02 -5.37134707e-02
    -1.19474335e-02 3.68084870e-02 2.20353417e-02 -1.88491940e-02
    -5.66292442e-02 5.20753954e-03 3.95400748e-02 3.66545329e-03
    2.17480659e-02 -9.14857257e-03 -1.85089950e-02 2.06451062e-02
    -4.78531606e-02 -5.72875980e-03 5.63066080e-02 6.40904531e-02
    -5.81706269e-03 7.90644810e-03 1.51218520e-02 1.23268664e-02
    -1.55407805e-02 3.68119497e-03 6.03793515e-03 -4.81383763e-02
    -6.20111870e-03 -4.95265611e-03 -1.69389453e-02 5.76547580e-03
    2.56876945e-02 -4.20052512e-03 -5.67250028e-02 3.94448154e-02
    -1.01410272e-02 -1.21132322e-02 -4.14460246e-03 8.23169854e-03
    2.25246362e-02 1.16912182e-02 1.60706900e-02 -4.95467242e-03
    -8.18323344e-03 3.55055253e-03 -2.91963089e-02 2.80014127e-02
    1.41916908e-02 8.26379843e-03 3.69945704e-03 -7.44884554e-03
    -2.79042311e-02 -1.52509129e-02 5.17144389e-02 1.93384793e-02
    -3.96319628e-02 -3.31437739e-04 6.21695910e-03 -9.18838568e-03
    -5.70153408e-02 -2.01212727e-02 -3.10582742e-02 -1.64740346e-02
    7.96253234e-03 -1.00312727e-02 1.89390443e-02 3.50193679e-02
    3.84703465e-02 -2.47341930e-03 2.64091743e-03 -1.89760886e-02
    -2.20666807e-02 1.31451255e-02 2.44398993e-02 -3.54145393e-02
    2.25481391e-03 5.97379589e-03 5.30267460e-03 1.62992440e-03
    -2.48082262e-02 1.93516295e-02 1.33931404e-02 -5.13249962e-03
    6.64579570e-02 1.95968747e-02 3.49106863e-02 -2.43341201e-03
    2.15043593e-02 4.55894880e-03 -2.64093280e-02 3.52728856e-03
    -2.19843257e-02 -2.09507742e-03 -1.60420593e-02 -1.96122956e-02
    -3.75037156e-02 -3.23678516e-02 -2.13984754e-02 -1.04539543e-02
    1.07873334e-02 -3.88825871e-02 -1.70845389e-02 2.84373555e-02
    1.97729506e-02 2.74139866e-02 -8.28739163e-03 -1.26954112e-02
    1.27217220e-02 -3.49973738e-02 -5.41260950e-02 2.07531243e-03
    1.78851802e-02 3.51135582e-02 -1.80701446e-02 -4.33167219e-02
    -4.43453081e-02 -3.91619932e-03 5.45929791e-03 2.12372523e-02
    1.06168054e-02 2.44852416e-02 -8.64514266e-04 -1.73175484e-02
    1.16476519e-02 -2.13475078e-02 -1.80578157e-02 -1.56681500e-02
    -3.34051587e-02 -3.41212237e-03 3.05472699e-04 -2.39784364e-03
    1.27973687e-02 1.54630998e-02 1.97003018e-02 2.48785969e-03
    3.16604041e-03 -2.82888208e-02 -8.48981217e-02 -3.47349755e-02
    2.11944636e-02 3.14190313e-02 -3.80746163e-02 3.19392160e-02
    -5.29624335e-03 1.47178471e-02 -1.28296521e-02 -2.21876837e-02
    -2.27034595e-02 -3.02954596e-02 1.92329902e-02 -2.67772786e-02
    3.12710879e-03 -7.85866193e-03 1.10600796e-02 4.43051942e-03
    -1.45221697e-02 -1.62362009e-02 1.70281939e-02 2.72307210e-02
    4.12607528e-02 -1.39896860e-02 6.98646903e-02 -1.87278856e-02
    -6.04604371e-02 -1.96007937e-02 -4.09266129e-02 -6.64400449e-03
    -1.41121668e-03 -1.15451152e-02 -4.46263235e-03 -2.94837859e-02
    3.71958688e-02 -8.11794251e-02 1.51985846e-02 -1.66427158e-02
    1.08921167e-03 -4.99899918e-03 1.24885514e-02 3.77829885e-04
    -3.84425968e-02 -5.69070727e-02 3.16542126e-02 5.01058856e-03
    -2.61359047e-02 2.53068786e-02 -2.83739548e-02 2.56415196e-02
    6.97587803e-03 1.47518108e-03 -2.20502317e-02 -3.50875109e-02
    1.11214165e-02 -5.27445413e-03 -8.10954198e-02 4.02686298e-02
    -6.05952274e-03 -2.37163678e-02 2.97248028e-02 1.25011997e-02
    -2.12600641e-02 2.65809521e-02 -2.48412415e-02 2.56754216e-02
    -2.05616765e-02 2.25337893e-02 2.63936166e-02 -2.81910431e-02
    2.27641128e-02 -5.87003538e-03 -1.47294151e-02 -4.32314165e-02
    9.88359004e-03 5.16442619e-02 4.21334198e-03 -2.30134670e-02
    -8.98592100e-02 -3.97314243e-02 -1.68240555e-02 2.78081093e-02
    5.94568811e-02 1.30898748e-02 -2.13024169e-02 5.43963276e-02
    -1.31941400e-02 1.98970232e-02 -1.65266283e-02 -2.31150817e-03
    1.79772787e-02 -2.97175013e-02 1.24835940e-02 4.94618416e-02
    -9.35660116e-03 2.59236060e-02 -2.01339982e-02 6.58624768e-02
    2.07450725e-02 -2.94658989e-02 -7.31049711e-03 1.82203073e-02
    -3.35872173e-02 -1.69529188e-02 -9.22380853e-03 -3.83777060e-02
    1.12532900e-04 2.54010758e-03 9.24717076e-03 9.82214697e-03
    1.13075934e-02 -5.28691597e-02 -1.67116299e-02 -1.71924254e-03
    -5.15061431e-03 5.24614751e-02 3.23968790e-02 -4.34156507e-02
    -5.33328168e-02 -1.06336977e-02 1.12928348e-02 7.84250349e-03
    -7.61278861e-05 -2.36009322e-02 3.70387360e-02 6.00267085e-04
    -1.84221976e-02 1.72412191e-02 -7.74838356e-03 6.07112832e-02
    -1.71712600e-02 3.06290425e-02 -2.84697339e-02 8.50806851e-03
    -4.11123410e-02 4.47541922e-02 4.36048433e-02 1.24202212e-02
    -5.06110452e-02 5.41337114e-03 1.20017342e-02 -2.28849277e-02
    -4.78188284e-02 -1.87022518e-02 1.26541276e-02 -9.92091466e-03
    1.15465531e-02 -1.43261105e-02 -9.93588008e-03 1.56857129e-02
    -1.13732123e-03 3.83498967e-02 2.30201539e-02 -1.48488756e-03
    2.84770709e-02 8.75592418e-03 7.64311031e-02 -1.17033282e-02
    -2.39867363e-02 1.13093993e-02 -3.18682119e-02 4.81314771e-02
    3.04698050e-02 -3.29728276e-02 4.67666537e-02 -5.79271913e-02
    3.57330963e-02 -4.32596589e-03 -2.39126524e-03 2.38283421e-03
    -6.72399849e-02 -2.88899355e-02 -2.60318816e-02 -2.72296946e-02
    -4.38388400e-02 1.31987175e-02 -5.24872355e-03 1.78859942e-02
    -4.04497422e-03 4.25958000e-02 -2.15464295e-03 6.41879335e-04
    3.89191695e-02 -4.08740491e-02 3.22273150e-02 -4.68199886e-03
    -1.30874030e-02 6.21333136e-04 -1.77102070e-02 5.12092467e-03
    -8.93944409e-03 7.61027355e-03 3.27593200e-02 -2.84183281e-03
    -1.30916182e-02 -2.00563786e-03 -1.14008440e-02 -4.13429138e-04
    1.89968813e-02 5.09118102e-02 -2.24241782e-02 2.39108945e-03
    -9.73215327e-03 1.07548060e-02 -3.97563688e-02 3.08588315e-02
    -2.03932747e-02 -5.59755713e-02 3.08586229e-02 1.75272487e-02
    -5.46938693e-03 2.55456520e-03 1.58092584e-02 -3.05539109e-02
    1.14216562e-02 1.17174042e-02 -4.10037190e-02 -8.20030458e-03
    2.39973934e-03 -5.49325859e-03 2.38707289e-03 -1.92803447e-03
    -2.39840355e-02 -1.90341603e-02 -1.99578870e-02 -3.27308960e-02
    5.41446432e-02 2.50490233e-02 -2.05524941e-03 -1.21122822e-02
    1.48201529e-02 -2.68658455e-02 6.16478827e-03 1.97363254e-02
    2.31181141e-02 2.40101498e-02 2.37602293e-02 -1.37241706e-02
    2.20432356e-02 -1.78425424e-02 -2.57905088e-02 2.05353508e-03
    1.24123991e-02 -2.02909298e-03 -1.12424453e-03 8.28943215e-03
    5.04732616e-02 1.18773850e-03 1.28540853e-02 1.16810687e-02
    3.25739495e-02 -5.79497255e-02 6.66982913e-03 -2.43929345e-02
    3.40056829e-02 1.57170631e-02 2.57713138e-03 -3.04000103e-03
    2.43943203e-02 1.15848808e-02 -8.87925830e-03 2.06247605e-02
    1.12405624e-02 9.26988199e-03 1.59532186e-02 -2.52938922e-02
    4.97820508e-03 2.00489573e-02 1.04132453e-02 -2.14540940e-02
    -1.53313531e-02 -2.19985307e-03 1.26014473e-02 -1.23978709e-03
    5.57924900e-03 -4.39978577e-03 4.25704103e-03 -5.79334609e-02
    -1.46221574e-02 1.05391368e-02 -7.32322037e-03 2.22489219e-02
    -4.35736030e-02 8.18959158e-03 -7.46787293e-03 -3.39754894e-02
    -2.17068987e-03 -3.05256564e-02 1.92631688e-02 2.16341559e-02
    -3.72885205e-02 2.73124035e-02 -4.87218704e-03 -9.83378384e-03
    -2.26104795e-03 4.32964303e-02 -3.94514240e-02 -9.77061316e-03
    1.72091890e-02 2.63711177e-02 -2.01118197e-02 2.66836081e-02
    1.08649312e-02 -4.41215150e-02 -4.55389880e-02 -4.43931408e-02
    2.55329683e-02 -5.33858798e-02 3.26536186e-02 -6.99608075e-03
    -7.75158312e-03 -4.22586724e-02 -3.95529118e-04 -1.42337885e-02
    -1.78170893e-02 5.42512760e-02 3.80346179e-02 -1.55815482e-02
    -3.22535448e-02 1.62174776e-02 -2.02150233e-02 -3.16053666e-02
    2.18095165e-02 -4.12158519e-02 -2.13922095e-02 -4.21669744e-02
    3.33821238e-03 6.63339570e-02 -1.72713604e-02 -7.93523062e-03
    -1.82257313e-02 -3.67319956e-02 -3.22539434e-02 3.36537100e-02
    4.47251089e-02 5.09460419e-02 2.37790309e-02 3.22779678e-02
    -1.51709775e-02 -5.12723252e-03 3.08178943e-02 -7.12013468e-02
    4.49069999e-02 -3.02719027e-02 4.14201356e-02 -1.01187276e-02
    3.06219631e-03 5.34371473e-02 2.43894872e-03 -2.20170785e-02
    -3.18640424e-03 -3.24942470e-02 -2.91042347e-02 2.60920320e-02
    9.11589153e-03 6.09638654e-02 7.31969252e-03 -1.33654196e-02
    -9.21801385e-03 -9.66889132e-03 -2.91429739e-02 9.29671526e-03
    6.20389543e-03 -9.36427526e-03 -3.90464887e-02 1.66490413e-02
    -1.63624994e-02 6.72913417e-02 -1.13635901e-02 1.84638205e-03
    -1.47597771e-02 -1.07810562e-02 9.71627794e-03 2.03016261e-03
    -3.82259092e-03 -1.85935609e-02 -7.18770456e-03 -1.29235853e-02
    3.18168327e-02 2.22694688e-02 -2.15194514e-03 6.79324940e-02
    3.74361463e-02 2.00842749e-02 2.01190859e-02 -1.12652415e-02
    -9.86748748e-03 -1.93905532e-02 3.87788750e-02 -9.45521146e-03
    2.02715471e-02 1.65745635e-02 1.40686063e-02 1.73518658e-02
    -3.81929725e-02 2.20655352e-02 1.31664202e-02 -1.95742808e-02
    1.38127124e-02 -3.13292332e-02 -8.46731570e-03 2.10069306e-02
    -2.80600321e-02 2.22552773e-02 -8.31398834e-03 -1.70167850e-03
    3.71475257e-02 7.81979598e-03 -6.82797888e-03 2.54098065e-02
    -2.14272365e-02 1.74926668e-02 -2.29561403e-02 1.83153953e-02
    -6.66537182e-03 -4.88033146e-02 -1.23380767e-02 6.50877692e-03
    2.51937881e-02 -5.36020147e-03 5.58775105e-02 -4.10239100e-02
    -1.51303569e-02 -4.12264504e-02 1.07767526e-02 -1.09419730e-02
    -3.12049724e-02 -3.51768993e-02 -1.72913410e-02 -3.46284844e-02
    -6.74911588e-03 2.48383768e-02 1.69606935e-02 -9.51130595e-03
    -2.77691465e-02 1.86822303e-02 -9.59946029e-03 1.59299485e-02
    -6.07047006e-02 3.87122780e-02 2.16642283e-02 1.87651832e-02
    -3.55857313e-02 3.43174636e-02 2.42660474e-02 -2.78598089e-02
    1.04404604e-02 -7.81203853e-04 3.86996269e-02 -9.69042350e-03
    -1.04784556e-02 1.27876205e-02 -2.35816929e-02 -5.80372512e-02
    -4.61688489e-02 -4.51656384e-03 -3.83448228e-03 -3.04334871e-02
    -4.87188883e-02 1.03144124e-02 3.38123776e-02 1.99935399e-02
    1.76134687e-02 -1.65758692e-02 1.93949863e-02 -2.03963872e-02
    9.59248189e-03 1.61598679e-02 -3.56091512e-03 -3.45061049e-02
    -7.62573211e-03 -9.07022227e-03 -9.57839936e-03 -2.14373954e-02
    -3.70878950e-02 -9.08966176e-03 -2.22897026e-04 -2.00318489e-02
    5.01531363e-02 7.48523697e-03 -2.26827096e-02 1.06680701e-02
    -3.93903442e-03 -1.69643983e-02 2.03046128e-02 -4.01244909e-02
    3.18421647e-02 1.28034381e-02 2.61310637e-02 -3.54431979e-02
    1.92349758e-02 1.23877414e-02 -5.69666270e-03 7.44177308e-03
    -1.34108709e-02 -4.83855838e-03 -3.93196428e-03 4.29531150e-02
    1.47075048e-02 -3.37161347e-02 1.13764463e-03 1.30299842e-02
    2.89670881e-02 1.38640134e-02 -2.49452852e-02 1.40072610e-02
    2.36654393e-02 -4.93898336e-03 -7.26744765e-03 6.57415297e-03
    -1.27612380e-02 -2.68762577e-02 -2.26355046e-02 2.18312703e-02
    2.62846996e-04 1.24564515e-02 1.72388833e-03 5.44800609e-02
    2.21092422e-02 -2.53821742e-02 2.76267044e-02 -1.24704477e-03
    3.93701084e-02 -6.04699813e-02 1.07218269e-02 3.07688154e-02
    1.81520097e-02 -3.13037261e-03 3.16332094e-02 1.63513273e-02
    -1.08769964e-02 -3.26959193e-02 3.15750651e-02 5.78357326e-03
    1.95125844e-02 5.64781995e-03 -2.19242834e-02 -4.20075357e-02
    -1.77117530e-03 2.79725250e-02 2.72101294e-02 -1.84604842e-02
    4.65119183e-02 1.15138637e-02 -9.53373685e-03 -1.67611334e-02
    -3.95118305e-03 -1.61315147e-02 -4.33168039e-02 -7.18188239e-03
    -1.64908431e-02 3.90128754e-02 4.86487783e-02 2.07669521e-03
    -1.45617938e-02 1.14135299e-04 2.72479337e-02 -1.20526357e-02
    -2.31489688e-02 -4.56478484e-02 -9.51405440e-04 4.39275540e-02
    2.69761086e-02 2.46736147e-02 1.16889300e-02 -1.89687572e-02
    2.80746762e-02 -9.27849382e-04 6.11930527e-03 2.06595426e-03
    2.46573221e-02 -3.65071930e-02 -1.33759035e-02 -3.91341187e-02
    -5.89384651e-03 -6.65298328e-02 -6.71186950e-03 -1.72300022e-02
    4.42527309e-02 -2.64863297e-02 1.48650706e-02 6.01574965e-02
    2.62846313e-02 -8.79209954e-03 -7.48813339e-03 -1.12684546e-02
    4.65787621e-03 -4.15396597e-03 9.61581767e-02 1.95676629e-02
    1.61248352e-02 -1.65457856e-02 -2.67123561e-02 -2.74094790e-02
    3.73458080e-02 -4.97817714e-03 3.09691019e-02 2.53999401e-02
    4.12751734e-03 -4.11645547e-02 5.99041535e-03 8.55130050e-03
    6.93694968e-03 2.76927254e-03 6.68705534e-03 5.04983473e-04
    -1.26894414e-02 7.93584716e-03 -6.24223612e-05 3.56020941e-03
    -1.68583076e-02 -2.23623626e-02 -1.42086099e-03 1.86602790e-02
    -2.42956132e-02 -3.02372407e-02 -3.80911939e-02 2.28562281e-02
    -3.59518547e-03 1.35899009e-02 -2.77954116e-02 -1.75671875e-02
    -1.38276415e-02 1.37916589e-02 4.06388231e-02 3.00993910e-03
    5.50838783e-02 -9.79519077e-03 5.13839768e-03 -9.81821865e-03
    -3.30690891e-02 -1.61359203e-03 3.04208845e-02 -6.88314717e-03
    -1.57295843e-03 -1.46084353e-02 -1.14565803e-04 7.17982301e-04
    -3.91283445e-02 -2.86316033e-02 7.35499412e-02 -2.32619904e-02
    -3.76937427e-02 3.83961052e-02 9.40079894e-03 3.37182134e-02
    -2.13894770e-02 1.14302915e-02 -2.76592989e-02 -5.08098863e-02
    -1.17001757e-02 -1.17151886e-02 -2.72278357e-02 -3.04780006e-02
    6.94382563e-02 8.63848254e-03 -3.81612591e-02 -1.94421876e-02
    -1.08055938e-02 -2.93231811e-02 1.00867227e-02 -7.96591118e-03
    -4.54220697e-02 -1.36039713e-02 -5.94734913e-03 -2.18494106e-02
    3.40589993e-02 2.39692330e-02 -5.70970646e-04 -2.70658382e-03
    1.34088136e-02 1.21081686e-02 5.92426993e-02 -1.07576521e-02
    -2.48890333e-02 -3.33638117e-02 -1.36401635e-02 1.68361096e-03
    -2.50308719e-02 -1.31635042e-02 6.65534288e-02 -6.74396614e-03
    -8.01646989e-03 2.02731825e-02 6.30362518e-03 2.27341037e-02
    -2.62958780e-02 -1.90354921e-02 -2.28957105e-02 2.39090342e-02
    -3.13570835e-02 -3.28088962e-02 -4.69709896e-02 2.03833785e-02
    2.78471895e-02 1.50748249e-02 -5.61948447e-03 -4.94842604e-03
    -7.89422914e-02 -1.45508461e-02 -2.23197769e-02 -4.29373570e-02
    -3.88936959e-02 -6.54380471e-02 1.96991675e-02 4.94390493e-03
    -3.08892000e-02 -7.27235153e-02 3.24600898e-02 2.73648575e-02
    -9.62852128e-03 3.95037886e-03 8.46035779e-02 4.70684608e-03
    1.15472041e-02 5.02538448e-03 2.67262151e-03 7.84090348e-03
    -3.68494634e-03 -1.30234156e-02 -2.93348357e-03 1.05882343e-02
    1.02939224e-02 -2.07025632e-02 8.78481381e-03 -5.59229851e-02
    3.46395210e-03 -4.22345623e-02 -5.12591898e-02 1.67817324e-02
    -9.10716876e-03 1.82026941e-02 3.52384560e-02 -1.19678611e-02
    -4.65913080e-02 -2.21378133e-02 -4.25225794e-02 -2.46760026e-02
    2.08625570e-03 9.89199616e-03 -2.33532372e-03 -1.86508913e-02
    1.04485154e-02 -3.86380181e-02 -4.28273976e-02 3.80156711e-02
    2.43681427e-02 1.04502337e-02 3.41842063e-02 -1.02477670e-02
    -1.98173267e-03 5.75365052e-02 -2.91247014e-02 3.78101692e-02
    1.58422161e-02 -2.67662238e-02 2.71073170e-03 1.58601720e-02
    4.10111137e-02 -2.56547555e-02 -1.98093764e-02 -3.16585898e-02
    1.46348262e-02 1.29207792e-02 -2.18030624e-02 3.54639627e-02
    3.60089466e-02 8.48637801e-03 -5.26716374e-03 3.03038172e-02
    2.34319288e-02 -2.92069148e-02 1.84735935e-02 -7.32635614e-04
    3.36133130e-02 2.21892484e-02 -1.66370056e-03 1.69252884e-02
    -2.05623601e-02 1.03093619e-02 1.29289804e-02 -1.24669848e-02
    3.23845120e-03 -1.84145719e-02 3.87563966e-02 2.33979523e-02
    -1.87908616e-02 -2.39010956e-02 -6.09291941e-02 -2.61409325e-03
    1.72996633e-02 -4.83787851e-03 2.59659234e-02 1.47067476e-02
    1.42752929e-02 1.67474579e-02 -3.63005645e-04 -2.72282436e-02
    2.45745853e-02 6.55154989e-04 -3.45092490e-02 2.46700719e-02
    2.99113095e-02 2.85104159e-02 6.45505935e-02 -3.71598895e-03
    3.54605429e-02 -7.70755485e-03 -1.48891117e-02 7.33966799e-03
    1.78975407e-02 3.64424363e-02 2.18843985e-02 1.25053953e-02
    3.81219350e-02 -1.36221247e-02 -4.59943600e-02 -1.10469328e-03
    -1.58914495e-02 -1.25480630e-02 -2.59815715e-02 -3.60753760e-02
    4.06908570e-03 -2.40347963e-02 -2.26557832e-02 -3.20422091e-02
    -9.57925245e-03 -8.54596272e-02 2.16682311e-02 -3.56137333e-03
    -4.77068452e-03 -2.23255139e-02 7.09394400e-04 -6.62959367e-02
    -3.29251494e-03 -1.38568968e-04 -6.26661070e-03 -3.13099585e-02
    2.16272119e-02 5.77445002e-03 1.38370125e-02 4.02864255e-02
    5.17029762e-02 -4.25059572e-02 -5.63650532e-03 2.25346652e-03
    4.30441089e-02 3.07995528e-02 3.32046635e-02 1.03369041e-03
    4.81018871e-02 -1.02573633e-02 -3.79292667e-02 3.91605981e-02
    -1.97244231e-02 3.11489813e-02 4.04253714e-02 8.54330789e-03
    3.02133616e-03 -5.21361455e-03 5.37867099e-02 2.74964124e-02
    1.94305200e-02 6.59789843e-03 -6.55194968e-02 1.93077512e-02
    -2.37416811e-02 -3.92832905e-02 -7.12730065e-02 2.98136286e-02
    -4.66894619e-02 2.42850594e-02 4.01988924e-02 1.55434720e-02
    -2.59924284e-03 -1.77039634e-02 3.99255306e-02 -1.08640585e-02
    -5.33297881e-02 -1.49317076e-02 -2.27177851e-02 2.63338722e-02
    3.39089446e-02 -3.12372320e-03 -1.01567442e-02 -9.81206261e-03
    2.93719433e-02 7.65351057e-02 -8.04868191e-02 -8.08225572e-02
    -2.56462255e-03 -1.34636052e-02 -8.89883656e-03 -2.31924411e-02
    1.21283613e-03 1.73221361e-02 1.33361164e-02 9.91448481e-03
    1.91440396e-02 4.40094136e-02 2.74371891e-03 -1.35217439e-02
    -3.80234676e-03 -1.91301424e-02 -1.89242009e-02 3.46473604e-02
    5.96561935e-03 3.81954797e-02 3.80984060e-02 6.68552518e-02
    1.61879766e-03 -2.00865418e-02 2.97139063e-02 1.86233632e-02
    2.08076295e-02 1.46029890e-02 -4.45010476e-02 -2.87319580e-03
    3.84103730e-02 -4.47439216e-03 -1.33342100e-02 6.83853924e-02
    6.08890392e-02 2.00118627e-02 1.53397629e-02 2.50495356e-02
    -2.61197314e-02 -1.26291288e-03 -1.05192140e-02 -2.14254837e-02
    -4.84944740e-03 2.97478400e-02 -7.34840333e-03 2.95234658e-02
    1.01562748e-02 7.22538400e-03 5.66680310e-03 -6.35432154e-02
    1.24915401e-02 -2.18406059e-02 2.38210987e-02 1.73050221e-02
    2.13840343e-02 -1.49862748e-02 9.74809751e-03 2.69985050e-02
    1.97479483e-02 1.04172127e-02 4.20714878e-02 1.31011959e-02
    -1.68693122e-02 1.49715105e-02 -8.87426175e-03 -1.01216007e-02
    2.64527313e-02 -3.25987004e-02 -1.70737575e-03 -3.77556980e-02
    -3.95310558e-02 1.76898539e-02 5.78104630e-02 4.35481146e-02
    -7.07222149e-03 1.69660635e-02 2.66564749e-02 -3.85715836e-03
    8.41231551e-03 1.20156761e-02 2.03786474e-02 4.06896360e-02
    -4.76715825e-02 3.09365354e-02 1.82912610e-02 3.57374214e-02
    2.28138492e-02 -3.40989865e-02 2.53262538e-02 4.01551574e-02
    -8.44618864e-03 -2.33172905e-02 1.34255663e-02 1.67099815e-02
    -1.19397119e-02 7.96609907e-04 -1.82620808e-02 -4.89469655e-02
    5.59806637e-03 7.46668223e-03 -4.11211746e-03 -8.82574823e-03
    -3.52816731e-02 -2.91543361e-02 -3.57853191e-04 -3.68776768e-02
    -2.05638148e-02 -3.41336802e-02 -5.12067927e-03 2.24819072e-02
    5.72616281e-03 1.84457842e-02 3.33434809e-03 -3.89231555e-02
    -4.70821075e-02 7.36216158e-02 4.19028774e-02 2.40085740e-02
    -3.76023129e-02 4.32665460e-02 3.87997329e-02 2.10764222e-02
    1.48983367e-04 8.07366055e-03 -1.94436498e-03 8.34560301e-03
    5.76142129e-03 -1.95266809e-02 -1.97387207e-02 -2.17025261e-02
    -9.67293861e-04 1.63711961e-02 -2.53190268e-02 2.50779791e-03
    -9.79096442e-03 7.10750185e-03 4.64338288e-02 -2.55336352e-02
    -7.45415762e-02 1.21655613e-02 -2.98245363e-02 -2.07334012e-02
    1.34274969e-02 6.31388053e-02 4.33849841e-02 -4.74722637e-03
    1.08345458e-02 1.97643153e-02 -9.82447434e-03 -3.33004892e-02
    -2.06637587e-02 -5.13210259e-02 -8.13959632e-03 4.63818274e-02
    -2.53854655e-02 -7.05777109e-03 2.22712494e-02 1.05873486e-02
    -4.79339436e-03 -3.72386947e-02 2.38332469e-02 -4.79497164e-02
    4.62272875e-02 -3.49397101e-02 -2.68307682e-02 -4.60835397e-02
    1.25018153e-02 -1.03588663e-02 4.17164564e-02 -1.62557606e-02
    2.69045494e-02 1.68162603e-02 1.30728055e-02 -3.07802670e-02
    1.24647338e-02 4.49011140e-02 2.74809059e-02 -5.54654486e-02
    4.77599591e-04 1.28691634e-02 3.89831923e-02 1.13442063e-03
    -2.00782530e-02 -1.23352213e-02 -5.19928671e-02 -3.53320166e-02
    -3.79536524e-02 -2.44051497e-02 -7.20410934e-03 2.97022182e-02
    -4.28287126e-03 -4.90401266e-03 9.52892238e-04 1.82741079e-02
    -1.85175929e-02 -4.50319052e-02 1.19359661e-02 -3.49379964e-02
    -5.38336262e-02 -5.98333701e-02 3.18316370e-02 1.33507848e-02
    -7.66637735e-03 -2.75455490e-02 -4.55860980e-02 2.67570335e-02
    1.58484094e-02 2.81804353e-02 4.59372215e-02 -7.91794900e-03
    -5.39158247e-02 -4.27185483e-02 4.57297415e-02 -3.67386243e-03
    -6.30606636e-02 6.28451109e-02 -8.63849372e-03 -1.28182094e-03
    -3.73331577e-01</SVMDetector></SVMmodelH_-_2>
</opencv_storage>
