<?xml version="1.0"?>
<opencv_storage>
<SVMmodelH_-_3 type_id="opencv-object-detector-hog">
  <winSize>
    112 72</winSize>
  <blockSize>
    16 16</blockSize>
  <blockStride>
    4 4</blockStride>
  <cellSize>
    8 8</cellSize>
  <nbins>9</nbins>
  <derivAperture>1</derivAperture>
  <winSigma>4.</winSigma>
  <histogramNormType>0</histogramNormType>
  <L2HysThreshold>2.0000000000000001e-01</L2HysThreshold>
  <gammaCorrection>0</gammaCorrection>
  <nlevels>64</nlevels>
  <signedGradient>0</signedGradient>
  <SVMDetector>
    9.28476360e-03 1.00236088e-02 -3.70810134e-03 1.18722180e-02
    -1.52891874e-02 1.58229526e-02 -3.29588726e-03 -1.86722968e-02
    -2.25106403e-02 -6.00585015e-03 -2.00673454e-02 -5.48135117e-03
    -1.43500166e-02 1.71068625e-03 1.82358213e-02 7.99239520e-03
    7.91225675e-03 1.16701843e-02 2.14871645e-04 1.79787690e-04
    -9.33590624e-03 3.00899893e-02 -2.73623504e-03 3.71927419e-03
    5.38077950e-03 1.03755482e-02 7.23862462e-03 -2.03307369e-03
    1.25548579e-02 3.19042685e-03 3.09217405e-02 2.33095810e-02
    1.52595695e-02 5.70512656e-03 1.99090820e-02 8.95830803e-03
    4.13608365e-03 -1.60619989e-02 -8.70168861e-03 -1.09516447e-02
    -1.21354740e-02 7.29164341e-03 7.36593129e-03 5.59275271e-03
    1.17427902e-02 1.23149641e-02 -6.09350577e-03 7.75893312e-03
    -7.06776557e-03 -2.48810742e-03 1.52321029e-02 2.69036042e-03
    2.14813985e-02 1.11859627e-02 1.09537710e-02 6.86596939e-03
    -1.40376552e-03 2.21036300e-02 1.50477444e-03 -2.18069628e-02
    -6.40556775e-03 4.39359667e-03 1.55528961e-02 -2.82354558e-05
    2.67816894e-02 6.61839079e-03 4.10572253e-02 6.45274017e-03
    -6.60396973e-03 1.75022834e-03 1.00286957e-03 -1.07807079e-02
    1.31963715e-02 -9.83497687e-03 2.18399637e-03 -1.28236394e-02
    -1.88867301e-02 5.76656638e-03 8.95237923e-03 1.23662110e-02
    1.88101958e-02 3.62642785e-03 8.11797380e-03 -8.31847358e-03
    -2.23496184e-02 -6.25153305e-04 6.66885450e-03 -1.95339918e-02
    -7.60936784e-03 -2.96367123e-03 3.51378066e-03 1.40064955e-02
    -6.24014437e-03 1.20487260e-02 -8.89641524e-04 -9.95257683e-03
    1.15142688e-02 -1.08712399e-03 -9.77155194e-03 -2.40688473e-02
    -5.43004228e-03 1.78054105e-02 1.33564016e-02 -2.75789085e-03
    1.04386955e-02 -9.47195757e-03 7.27408938e-03 7.21179554e-03
    3.15654394e-03 -9.80298501e-03 -3.59359826e-03 -1.76491775e-02
    4.16468969e-03 -1.07582158e-03 -8.88695847e-03 -7.56504829e-04
    5.78143401e-03 1.17832003e-02 7.92267453e-03 -3.85712534e-02
    -1.06750811e-02 6.90227316e-04 3.56262084e-03 -1.61629468e-02
    -8.46448913e-03 6.24337746e-03 -9.83248092e-03 5.76087739e-03
    5.93129406e-03 7.94857554e-03 3.45591595e-03 -5.64052677e-03
    -6.17294479e-03 1.03912223e-03 3.01194331e-03 -6.97384530e-04
    6.06901571e-03 4.91476804e-03 6.62558898e-03 2.30489131e-02
    1.36926286e-02 3.01407883e-03 1.41896699e-02 1.17896292e-02
    1.90852303e-02 4.20906348e-03 -1.83902662e-02 -1.43970959e-02
    -3.86308064e-03 -1.65299769e-03 -1.33260693e-02 -1.24453558e-02
    1.08974576e-02 1.97607521e-02 2.55547967e-02 -1.94728635e-02
    -1.69319306e-02 2.11213971e-03 5.25945891e-03 6.82055485e-03
    -1.21466030e-04 1.34097608e-02 -4.57835663e-03 4.83450945e-03
    -8.10785871e-03 -2.55548558e-03 4.27837763e-03 2.03299429e-02
    -1.93169829e-03 8.39646254e-03 2.77818035e-04 1.15854135e-02
    2.08525844e-02 -1.11216344e-02 2.44885851e-02 -1.55052375e-02
    -2.64162431e-03 -1.08470181e-02 1.26908710e-02 1.37721272e-02
    1.09295687e-02 1.95721518e-02 -2.49341018e-02 7.47601176e-03
    2.90929787e-02 -1.38222484e-03 -1.33607592e-02 -1.78688243e-02
    7.80481892e-03 4.09518974e-03 -3.11037269e-03 -1.68256294e-02
    -1.14262411e-02 8.37153196e-03 -1.79169793e-02 1.35055287e-02
    9.87035409e-03 -3.02573596e-03 -9.82253533e-03 6.38360064e-03
    -1.34311439e-02 1.55959968e-02 3.09258420e-03 -1.67518761e-02
    -1.99778210e-02 -1.95361511e-03 -8.74399301e-03 1.88533198e-02
    -8.76189116e-03 1.61740109e-02 -2.92262947e-03 9.50629264e-03
    -1.30203459e-02 -1.76572427e-02 -1.29717225e-02 -2.04458982e-02
    4.07131109e-03 -3.28157167e-03 -2.09575463e-02 -6.29427284e-03
    2.12821458e-02 -6.46866672e-03 1.37732457e-02 2.45079002e-03
    2.99170963e-03 -7.78266753e-04 -1.74184644e-03 1.63074711e-03
    -2.41463538e-02 8.86248518e-03 -8.60568229e-03 -3.80102824e-03
    -1.23443697e-02 -1.01509728e-02 1.47584071e-02 -9.96058155e-03
    -3.85020673e-03 -7.81400688e-03 9.22957901e-03 -4.39663231e-03
    4.66404669e-03 -6.07140083e-03 -2.75002792e-02 1.28954817e-02
    7.58033386e-03 8.40111263e-03 3.61581077e-03 3.08414567e-02
    6.19068509e-04 -4.98324540e-03 -6.48450898e-03 -9.46527906e-03
    4.92754253e-03 2.26502866e-03 -1.94468722e-02 -1.47195244e-02
    1.70049276e-02 -7.20470864e-03 4.00086259e-03 -9.25851148e-03
    -1.38001209e-02 -1.49618182e-02 -7.65549112e-03 1.02920858e-02
    2.57656677e-03 -2.01884145e-03 -2.31096637e-03 -1.14967776e-02
    -1.38287032e-02 -5.31898951e-03 4.41000331e-03 -4.63993195e-03
    5.73295215e-03 2.09728815e-02 3.01887095e-02 3.23315733e-03
    8.21720902e-03 8.47604126e-03 -2.13568652e-04 3.55611672e-04
    1.29599478e-02 4.02443763e-03 1.51214451e-02 1.67075126e-03
    -1.10971380e-03 1.16793124e-03 1.49800535e-02 1.35308802e-02
    6.04400970e-03 5.77527937e-03 -3.60328518e-03 4.33861790e-03
    1.16763646e-02 -1.29730320e-02 -1.53620578e-02 -1.70760844e-02
    4.70150169e-03 8.11106432e-03 -2.16992688e-03 5.90936095e-03
    6.44507445e-03 6.32628845e-03 2.17860099e-02 9.88003518e-03
    1.75624657e-02 1.26189599e-02 1.02728875e-02 9.23131686e-03
    -6.33406872e-03 -2.20353948e-03 -6.12150086e-03 -1.72580238e-02
    1.03275934e-02 9.98054817e-03 2.67973971e-02 1.60433585e-03
    1.65570583e-02 2.25795750e-02 1.02161318e-02 1.09909195e-02
    1.84703637e-02 2.54437439e-02 1.78267341e-02 1.72142796e-02
    1.68537069e-02 7.25478865e-04 -1.35899254e-03 -2.55865837e-03
    -3.74555145e-03 1.56760383e-02 3.11753061e-03 1.26029914e-02
    7.39499507e-03 1.04925465e-02 -1.74509827e-03 -1.24418281e-03
    1.39172142e-02 2.61078589e-02 1.06216753e-02 -1.51182422e-02
    7.49166822e-03 -6.54610898e-03 2.66990555e-03 4.66116844e-03
    -1.24705338e-03 -8.88455287e-03 2.38747941e-03 1.84788718e-03
    1.62209775e-02 2.24884450e-02 1.20652923e-02 7.94928055e-03
    1.87482778e-02 1.04862228e-02 -2.55124713e-03 7.20621133e-03
    5.74095733e-03 7.73052173e-03 -2.64278683e-03 1.02331992e-02
    1.78951453e-02 -1.50419269e-02 2.32153083e-03 1.19725764e-02
    1.45252487e-02 1.83270685e-02 -6.27385313e-03 1.36941159e-02
    8.31239484e-03 2.26619747e-02 -7.33453594e-03 -2.25034468e-02
    1.70022827e-02 1.33588761e-02 1.45135308e-02 -2.04943307e-02
    -5.86243987e-04 2.15810519e-02 2.23969342e-03 8.02638568e-03
    -8.00620206e-03 6.40217587e-03 -5.09091420e-03 -3.49698612e-03
    -3.79128614e-03 1.00257238e-02 1.17923832e-02 6.00215187e-03
    -5.90060931e-03 -9.42274276e-03 9.34545591e-04 -2.57357256e-03
    9.17373877e-03 -2.41383119e-03 2.97815260e-03 5.82212023e-03
    3.16236354e-02 -5.80755761e-03 -1.99077968e-02 1.21364677e-02
    7.79880164e-03 6.96152681e-03 -1.00041665e-02 3.50267999e-03
    3.39924283e-02 1.28353108e-02 -6.39279082e-04 -5.90540655e-03
    -1.68032795e-02 7.17184227e-03 5.13424026e-03 -5.48473652e-03
    -1.30874449e-02 1.32098682e-02 8.02170672e-03 -4.75563202e-03
    -1.69911180e-02 1.00822570e-02 -2.18498986e-03 -7.28759356e-03
    -3.19094490e-03 -4.28510644e-03 -2.76825717e-03 -2.84112548e-03
    2.55859224e-03 1.51240844e-02 -1.37112932e-02 -8.22870806e-03
    6.87064463e-03 1.04942415e-02 -9.23281442e-03 -1.46998325e-04
    2.36995611e-03 -1.50129767e-02 -6.17460487e-03 -2.09212061e-02
    7.37110944e-03 4.98447474e-03 3.75697389e-03 -1.07338848e-02
    6.82220329e-03 -9.16579831e-03 -9.54535231e-03 -4.38453490e-03
    2.36354750e-02 1.05144549e-02 -2.45252461e-03 -1.00087263e-02
    -2.39120815e-02 -5.63616725e-03 -8.31799302e-03 -1.10331038e-03
    1.85055938e-02 -1.07287522e-02 -9.45123471e-03 1.23618618e-02
    6.13367977e-03 2.07639369e-03 -9.04362369e-03 -2.48380303e-02
    2.00817045e-02 1.72336902e-02 -4.31679096e-03 9.29850619e-03
    4.80730226e-03 3.70782451e-03 2.36048233e-02 -7.64701841e-03
    -8.53563473e-03 -9.03578475e-03 -8.58738273e-03 2.05914583e-03
    7.68691953e-03 1.03151873e-02 -5.52553218e-03 -2.11654790e-02
    -1.25004770e-02 -2.91331373e-02 -1.15598235e-02 7.32313143e-03
    3.00112031e-02 1.38163809e-02 -7.37037091e-03 -1.20960940e-02
    7.37349130e-03 3.23775865e-04 -1.88778974e-02 5.93626220e-03
    1.47387488e-02 6.56735804e-03 9.22707492e-04 7.98788853e-03
    2.63905595e-03 2.84542218e-02 1.75538764e-03 -9.14108101e-03
    1.89660396e-02 -2.17040163e-03 -1.41829848e-02 1.24217235e-02
    -8.47406685e-03 3.24924961e-02 1.26070054e-02 -1.63392685e-02
    -2.70342994e-02 -2.24728920e-02 3.03322519e-03 1.70882083e-02
    1.43954623e-02 -1.60860661e-02 -9.50251054e-03 -2.79873703e-03
    -1.35311647e-03 -1.31601915e-02 -5.38366940e-03 -2.23837942e-02
    3.16488855e-02 2.17052083e-02 1.37937730e-02 -1.85011909e-03
    1.40381197e-03 -4.11340175e-03 -5.26358699e-03 1.41543904e-02
    -9.58859548e-03 -1.81660764e-02 3.96180898e-03 -8.82302690e-03
    1.96709912e-02 6.70239376e-03 -5.53677836e-03 1.95594542e-02
    3.13903540e-02 -5.74554084e-03 -4.10398422e-03 -7.58990122e-04
    -2.85919313e-03 1.33375381e-03 -2.10553687e-02 -1.19250733e-03
    8.29956308e-03 -3.32672312e-03 -2.69683711e-02 -6.35578472e-04
    -1.45801492e-02 -8.20013694e-03 -1.09916693e-02 2.44002731e-04
    7.83695432e-04 -5.84856886e-03 2.78401165e-03 -7.00582052e-03
    4.51241247e-03 2.20612679e-02 1.05733387e-02 -6.65180339e-03
    -7.11110467e-03 1.81168783e-04 4.68561938e-03 5.70827536e-03
    6.66401861e-03 5.91853727e-03 -1.03336610e-02 2.61943601e-03
    -9.29412991e-03 -6.04830449e-03 5.06114867e-03 -8.91422294e-03
    1.09719886e-02 -9.82312579e-03 1.02642057e-02 1.69244967e-02
    2.00307579e-03 3.21981171e-03 1.10304821e-03 1.63107447e-03
    -7.43467303e-04 2.22088397e-03 -1.21228176e-03 8.94689467e-03
    4.85011097e-03 -9.01842862e-03 -8.19321070e-03 -6.51353179e-03
    3.05053126e-03 7.74372951e-04 1.70986950e-02 -1.14990342e-02
    6.65696943e-03 1.20679727e-02 8.24386440e-03 -8.02712166e-04
    6.35286281e-03 4.73074149e-04 -1.74308438e-02 7.05844676e-03
    -9.79388133e-03 5.26242005e-03 2.78863171e-03 -2.54369527e-02
    4.15029190e-03 1.03896279e-02 6.51298789e-03 -5.31703420e-03
    2.10267603e-02 8.00643861e-03 2.08266824e-02 -3.75737017e-03
    2.36620181e-04 2.93466565e-03 4.90160892e-04 -8.70079640e-03
    -2.24927720e-03 2.00434569e-02 -5.02339471e-03 1.11978706e-02
    -3.81937181e-03 5.06632030e-03 7.01676169e-03 -5.56346774e-03
    2.06143153e-03 -1.65272448e-02 -3.23776947e-03 5.55197522e-03
    -6.55463431e-03 -1.63330382e-03 1.08703366e-02 8.57808103e-04
    1.61977373e-02 1.47913315e-03 -1.00037986e-02 2.22703293e-02
    -3.16222711e-03 1.09269451e-02 -1.29033765e-02 -1.97559297e-02
    4.03961306e-03 -7.09363539e-03 -1.14541855e-02 3.87764513e-03
    2.38977056e-02 7.47576449e-03 4.48597409e-03 -8.18828773e-03
    3.92867438e-03 -8.99587478e-03 2.44066212e-03 -4.43575997e-03
    -1.21563450e-02 1.92636414e-03 1.13461921e-02 -1.15968864e-02
    2.92847469e-03 -1.71879982e-03 -3.17001040e-03 1.55263329e-02
    -6.46871375e-03 -9.19771101e-03 2.23033084e-03 9.83803906e-03
    -2.80503836e-03 1.37221236e-02 6.54683309e-03 -3.39795090e-03
    7.06000393e-03 3.52245453e-03 -6.23663049e-03 1.97155233e-02
    -2.35771504e-03 -9.01695248e-03 -8.18954594e-03 -9.70991515e-03
    -1.02895033e-02 4.39362414e-03 -4.73894365e-03 2.38071661e-03
    5.92259225e-03 -7.76465004e-03 1.38699291e-02 9.42118000e-03
    2.04524118e-02 4.30955226e-03 -6.84673106e-03 9.82420985e-03
    -1.32402929e-03 5.94715355e-03 2.72016367e-03 -6.25925418e-03
    -3.22869280e-03 8.86117481e-03 -1.82670890e-04 2.10862327e-02
    -1.16839283e-03 5.34359459e-03 2.51247566e-02 -5.19091170e-03
    1.98532641e-02 -8.39548465e-03 -1.20761441e-02 -1.78590845e-02
    1.23545593e-02 7.45681627e-03 8.10060650e-03 3.35674477e-03
    -1.34205548e-02 -1.74319949e-02 -1.45948837e-02 2.00343486e-02
    1.93456225e-02 1.22438176e-02 1.22600868e-02 -3.77209391e-03
    3.44895497e-02 -3.64869065e-03 -5.00278221e-03 8.23373534e-03
    -4.84710792e-03 -1.65125530e-03 -1.07006552e-02 3.23915146e-02
    -6.33767457e-04 2.09411588e-02 -7.83963222e-03 1.74024347e-02
    5.86683303e-03 -6.28406508e-03 -1.37174381e-02 4.58267890e-03
    -8.47514812e-03 2.33211033e-02 -3.72390752e-03 1.00639388e-02
    6.74210861e-03 3.37481219e-03 5.84434764e-03 -3.41871800e-03
    -4.23183804e-03 -1.41842309e-02 -3.80067830e-03 1.66447982e-02
    -2.70611420e-02 -1.31953787e-02 -4.32393514e-03 -9.12106480e-04
    6.22614380e-03 -6.19699666e-03 1.74793154e-02 3.03559820e-03
    3.48081440e-03 5.11309318e-03 3.82685498e-03 -2.46920381e-02
    -2.29075123e-02 -7.36586982e-03 6.14397795e-05 -5.72698144e-03
    9.18737985e-03 5.80348307e-03 -1.03156036e-03 -9.64325015e-03
    3.26411775e-03 3.82197043e-03 2.87245167e-03 -9.03108798e-04
    -1.97128914e-02 -5.40995086e-03 -9.31391213e-03 1.40048731e-02
    5.56668965e-03 1.40700527e-02 2.46478152e-03 1.97205949e-03
    -8.14241078e-03 8.28105211e-03 -3.10221832e-04 -8.62937793e-03
    6.02938468e-04 -8.71569477e-03 -1.43404258e-02 -2.02649478e-02
    -8.98300612e-04 -5.83245791e-03 -2.70084804e-03 -8.70213471e-03
    7.78868096e-03 1.08652711e-02 -3.05969990e-03 4.73174592e-03
    1.11404676e-02 3.51140997e-03 3.08499648e-03 7.57172602e-05
    -1.85818796e-03 -4.56513681e-06 1.98926385e-02 1.10443905e-02
    6.46219170e-03 4.45419317e-03 -2.50298018e-03 -1.39911193e-02
    3.48733366e-03 -8.00336245e-03 -2.79581524e-03 1.88441458e-03
    1.23564508e-02 -8.49908497e-03 1.63854402e-03 4.02543321e-03
    5.66737074e-03 1.40013630e-02 1.68491935e-03 6.84746401e-03
    -1.09087173e-02 4.56833019e-04 -5.77455154e-03 -9.71374474e-03
    5.20649785e-03 3.64984269e-03 9.78561770e-03 3.10241990e-03
    4.46106162e-04 7.45569775e-03 -1.65167972e-02 -2.77583837e-03
    1.54422019e-02 6.88858004e-03 -6.23707799e-03 -1.42786056e-02
    -5.19195804e-03 -5.92854619e-03 -6.36779051e-03 -9.40926780e-04
    -1.40722608e-02 -4.60467720e-03 2.65002390e-03 -4.40549105e-03
    1.49619831e-02 1.20486617e-02 -1.39212084e-03 1.44686960e-02
    8.70482530e-03 -2.92599830e-03 9.01621114e-03 6.90333173e-03
    2.27178615e-02 1.09486179e-02 -8.08636541e-04 4.35352325e-03
    -4.49215109e-03 -2.80106869e-02 -1.12664942e-02 1.19842729e-02
    1.75206345e-02 -3.50137684e-03 -4.15383559e-03 1.17805600e-02
    1.46688502e-02 8.63413792e-03 -5.05477097e-03 8.91667046e-03
    6.58361986e-03 -1.04844654e-02 -9.19005461e-03 3.57060693e-03
    5.95035218e-03 -1.16303163e-02 -1.66267727e-03 3.32657574e-03
    4.69745276e-03 1.14470599e-02 3.15637514e-03 2.59179845e-02
    1.02120601e-02 2.23889202e-02 1.96005385e-02 -3.40679148e-03
    -9.71472648e-04 -1.06391134e-02 -6.87154289e-03 3.28418100e-03
    -2.54140259e-03 -5.60901407e-03 -8.42246786e-03 6.70847530e-03
    -1.33100329e-02 -6.00943854e-03 -7.66651006e-03 1.16351712e-02
    -9.52953752e-03 -7.71439960e-03 -3.12645244e-03 -5.50854998e-03
    1.18635874e-02 6.44993968e-03 -1.58380922e-02 -7.67056923e-03
    -1.81073952e-03 7.54085323e-03 2.70065274e-02 7.34097464e-03
    1.71873886e-02 2.10702941e-02 4.82572336e-03 8.17600917e-03
    -1.78117100e-02 1.24754710e-02 1.24105532e-02 1.08681638e-02
    2.56286352e-03 3.24452221e-02 5.85093116e-03 -8.41088686e-03
    4.35747299e-03 -2.31414493e-02 -2.11264007e-03 -5.93755394e-03
    8.75984225e-03 4.05573612e-03 -7.59411720e-04 9.60977096e-03
    -7.68738333e-03 -6.37005549e-03 -2.15515611e-03 -3.29950126e-03
    -5.55970473e-03 1.74118001e-02 2.65519950e-03 3.33110406e-03
    -5.43108489e-03 -3.00497469e-03 7.66333472e-03 -1.38555029e-02
    1.50565605e-03 -9.92676616e-03 -2.80828821e-03 1.58601906e-02
    1.55763431e-02 2.75361817e-04 -1.15087638e-02 6.55899756e-03
    -1.16044851e-02 -2.71295942e-03 4.78728907e-03 4.65046056e-03
    -1.75475620e-03 2.53796075e-02 8.40977766e-03 1.75016392e-02
    -1.42426202e-02 -8.82022642e-03 2.76222825e-03 4.33601999e-05
    -1.20731932e-03 1.35893766e-02 -2.88434490e-03 -6.91709202e-03
    -1.25401206e-02 4.23614029e-03 2.90488172e-03 5.56539698e-03
    -7.98497535e-03 -1.21289007e-02 1.19869318e-02 -1.62681807e-02
    7.38775032e-03 -6.10298896e-03 -2.04334711e-03 4.82249539e-03
    -8.82645883e-03 -1.05771534e-02 -1.30822062e-02 -1.96156697e-03
    1.93089284e-02 -4.07195417e-03 6.31037401e-03 -8.29465408e-03
    -9.36331414e-03 1.52150476e-02 7.87321385e-03 3.11171403e-03
    5.31017547e-03 -3.40582500e-03 1.25035355e-02 7.71087781e-03
    4.25261998e-04 -3.46757472e-03 7.42662512e-03 -1.90094905e-03
    1.25078494e-02 7.56785693e-03 -2.11259313e-02 4.97054122e-03
    -5.01535460e-03 1.13062421e-02 7.53446482e-03 -3.96263599e-03
    -2.55639721e-02 -1.52744381e-02 2.96809571e-03 -1.31287659e-02
    1.56672318e-02 5.57412440e-03 -1.50144463e-02 9.08150629e-04
    1.31658213e-02 -1.03513105e-02 6.03050971e-03 3.10492958e-03
    5.39301476e-03 -6.31627068e-03 1.64428335e-02 9.49202385e-03
    -1.84699409e-02 6.66228079e-05 2.77227326e-03 1.51972361e-02
    7.67573528e-03 3.29491054e-03 1.09643051e-02 -1.81305557e-02
    -1.37760732e-02 1.24337804e-03 -1.50772110e-02 -1.38245977e-03
    7.11329281e-03 -6.08921470e-03 -2.06002258e-02 -6.73411647e-03
    4.36101574e-03 -2.81066960e-03 -7.31279422e-03 7.54628796e-03
    2.76382401e-04 -7.42915145e-05 4.87495927e-05 -8.68771039e-03
    1.40086878e-02 3.94541305e-03 5.06043108e-03 4.54464369e-03
    -4.96172532e-03 1.11484239e-02 -1.24603612e-02 -5.65683143e-03
    5.93628408e-03 -7.25055719e-03 -6.72996696e-03 -2.17278730e-02
    -2.16703098e-02 -1.89942475e-02 4.48177895e-03 -1.39649957e-03
    -1.21211400e-02 3.43980528e-02 2.52167620e-02 -2.80098580e-02
    -5.72464056e-03 6.36639958e-03 -9.33718588e-03 -1.21574802e-02
    -1.07760644e-02 7.49631366e-03 -1.45275714e-02 5.75909857e-03
    -3.64866829e-03 -1.69866141e-02 -1.49319330e-02 -8.55991524e-03
    4.98741819e-03 -1.30317127e-02 3.24937305e-03 -2.76172534e-02
    8.21028021e-04 -1.76815689e-02 8.00173637e-03 -2.42078565e-02
    1.21354843e-02 -7.93644041e-03 -3.20773385e-02 -1.18511124e-02
    1.31953629e-02 -8.49202648e-03 -4.59506456e-03 -3.23438970e-03
    -1.55624766e-02 -8.84709600e-03 -9.18617100e-03 3.50759644e-03
    1.77295674e-02 -8.67965724e-03 -8.00913479e-03 -3.61721031e-02
    -7.17076659e-03 1.75404362e-02 -1.35984402e-02 -4.60628979e-03
    8.52306257e-04 1.06617631e-02 2.71128155e-02 1.83770817e-03
    -3.89955030e-03 1.65289380e-02 -5.97795891e-03 -2.49835867e-02
    -1.27925677e-02 -7.96993170e-03 1.66978464e-02 1.40262535e-02
    4.76083811e-03 2.79043708e-03 -5.87165961e-03 4.42212354e-03
    2.28945236e-03 -4.94215731e-03 -1.55119663e-02 1.87628495e-03
    -8.42567475e-04 8.50774162e-03 -7.64552550e-03 -5.55961952e-03
    2.21703015e-03 -2.08854862e-02 8.71840119e-03 2.21109074e-02
    1.59459058e-02 -6.92062266e-03 1.12587661e-02 -2.26024613e-02
    9.32050636e-04 2.67931772e-03 -1.17869079e-02 -2.14672345e-03
    3.47231224e-04 1.08183175e-02 1.91798769e-02 -1.01293270e-02
    -8.80833191e-04 2.07786099e-03 -9.86309815e-03 -1.11366101e-02
    1.00250812e-02 -5.72978891e-03 2.04457436e-03 5.73314773e-03
    -4.43136180e-03 1.47030260e-02 2.48307250e-02 -1.53573193e-02
    9.56379808e-03 1.25064030e-02 -1.53920827e-02 -1.02876155e-02
    -5.88514749e-03 1.18634887e-02 -1.89832672e-02 1.35810766e-02
    -8.56032968e-03 -1.78486798e-02 1.51244253e-02 5.28933387e-03
    1.34278079e-02 -1.47229107e-03 1.30814975e-02 -1.45264063e-03
    3.51627241e-03 1.27995119e-03 1.12636313e-02 -5.18844044e-03
    6.95002405e-03 4.63758130e-03 -2.30308808e-03 -9.27558541e-03
    6.00977242e-03 8.42129160e-03 -2.42571998e-02 -1.16946362e-03
    1.22708501e-02 -1.25633040e-02 -5.83364302e-03 1.22110844e-02
    -1.36440331e-02 -1.23864431e-02 2.15473352e-03 1.45216449e-03
    -1.22164711e-02 1.15273846e-02 -1.05239889e-02 5.53567021e-04
    -9.62092169e-03 8.82045738e-03 1.85133994e-03 -1.30023025e-02
    -5.47192700e-04 -2.04939814e-03 -1.00756697e-02 -3.47755430e-03
    3.95703316e-03 5.60105080e-03 -3.68093257e-03 1.21799659e-03
    1.21278297e-02 6.62600668e-03 2.48583909e-02 1.28824348e-02
    -2.83769029e-03 1.34671573e-02 1.36313373e-02 -2.44463910e-03
    -1.84419658e-02 -3.53234354e-03 2.04541930e-03 -2.60231625e-02
    1.22409407e-03 -5.38202608e-03 1.10178301e-02 5.85512910e-03
    -6.89481525e-03 -3.85320373e-03 -4.04172670e-03 -1.28955599e-02
    -4.89586452e-03 -7.58545473e-03 -1.51821636e-02 -3.48511874e-03
    -7.45184766e-03 9.15284385e-04 1.23285018e-02 -5.60852559e-03
    -5.82440384e-03 2.69763991e-02 1.53188342e-02 7.45171960e-03
    6.68958668e-03 3.32375383e-03 1.63968503e-02 -4.78737196e-03
    1.25301071e-03 -5.42742852e-03 1.09418668e-02 4.59488714e-03
    -3.96875292e-03 2.95536239e-02 1.31698940e-02 -4.55757696e-03
    -1.46798778e-03 -2.58762948e-02 -2.02244092e-02 -3.78903840e-03
    -1.13890375e-04 -7.56581128e-03 -7.09800952e-05 8.22352991e-03
    2.18309765e-03 -4.31600353e-03 -1.74324010e-02 1.28707215e-02
    -2.36365870e-02 -3.04814451e-03 -7.67611491e-04 1.51781812e-02
    -5.98191982e-03 1.02649620e-02 9.46482236e-04 8.13094154e-03
    -5.05060889e-04 1.28561221e-02 1.60595085e-02 -5.56833716e-03
    1.19787427e-02 -6.57641888e-03 -5.42582199e-03 3.94361001e-03
    1.49455909e-02 -1.88407060e-02 -3.02328903e-04 -3.77136096e-03
    4.66895243e-03 -2.26683170e-02 1.52768346e-03 1.34514580e-02
    -4.27237293e-03 -1.55351395e-02 1.29272835e-02 -1.72065552e-02
    -7.42714503e-04 1.71474949e-03 7.53774773e-03 2.14719921e-02
    2.96394574e-03 8.07683822e-03 2.13371939e-03 -8.22508708e-03
    -8.84541124e-03 -5.68194315e-03 8.71110242e-03 3.13970563e-03
    -4.83681029e-03 -5.46406209e-03 7.10195350e-03 -2.26391552e-04
    -2.09487285e-02 -9.71874967e-03 1.40482991e-03 2.73258938e-03
    -1.29534686e-02 1.76379655e-03 2.92288954e-03 7.34604197e-04
    6.82021026e-03 -1.64872594e-03 2.59965099e-02 1.24117993e-02
    1.88811752e-03 1.31156482e-03 6.84087537e-03 2.87727220e-03
    3.68084433e-03 -1.27240028e-02 -1.29316775e-02 -2.57913265e-02
    -3.22475121e-03 -7.06623588e-03 1.53550808e-03 1.45861588e-03
    2.09132973e-02 -6.25157775e-03 1.07431319e-02 1.75824296e-03
    -4.32241894e-03 -3.54923680e-03 2.05115508e-03 9.18432884e-03
    -1.13393124e-02 3.64676351e-03 -3.28291347e-03 9.79603268e-04
    -3.73539561e-03 -7.51119945e-03 6.24046614e-03 2.48887250e-03
    5.61934244e-03 -1.21239386e-02 -5.75522718e-04 1.48588130e-02
    2.09974777e-03 -5.28834760e-03 1.86908785e-02 1.55837946e-02
    -7.00052502e-03 -1.54040288e-02 -2.69411202e-03 7.39662349e-03
    -1.81779563e-02 -4.80301073e-03 7.44799152e-03 -4.84285085e-03
    1.74465720e-02 -1.48954301e-03 1.06618078e-02 8.21548048e-03
    5.36380569e-04 -2.36848299e-03 1.10014398e-02 -2.09751613e-02
    -2.11532917e-02 -6.61057094e-03 -1.34207227e-03 3.75495292e-03
    -1.30707184e-02 -8.05683248e-03 -4.13600542e-03 -1.43057201e-02
    -9.63617861e-03 1.44045940e-02 1.61366202e-02 -1.09791048e-02
    -5.96257485e-03 -2.03166921e-02 1.27421366e-02 -3.06802336e-03
    2.37404089e-03 9.75774229e-03 1.22143403e-02 -4.97460272e-03
    -6.67895097e-03 -1.57171078e-02 6.59043202e-04 3.69475316e-03
    -1.99365187e-02 5.62720979e-03 -1.56335849e-02 -7.47686299e-03
    6.69324445e-03 -4.32758778e-03 7.91647285e-03 8.72856379e-03
    5.92504628e-03 1.67138223e-02 -2.38038041e-03 -4.10110503e-03
    -5.79966325e-03 -1.83256529e-02 -1.04014473e-02 7.99486227e-03
    -2.91189104e-02 1.36464154e-02 -7.27928756e-03 2.88403686e-03
    2.75109871e-03 1.75252669e-02 -4.20751609e-03 -3.87910462e-04
    -1.39046349e-02 -9.32963844e-03 1.17851105e-02 -1.41849625e-03
    -7.95621134e-04 -3.72409867e-03 4.77541471e-05 8.31003860e-03
    9.79326386e-03 -1.17167784e-02 4.88016335e-03 1.18183168e-02
    7.47431011e-04 3.57996137e-03 -8.85488559e-03 -5.94623480e-03
    5.71553479e-04 2.35631829e-03 1.79555956e-02 -5.07724145e-03
    -7.38912914e-03 9.94525943e-03 -1.18753444e-02 4.74752299e-03
    -7.63610099e-03 5.41321700e-03 9.00382642e-03 -9.32175480e-03
    -1.64503269e-02 1.12452134e-02 6.09813910e-03 1.18498029e-02
    1.84086035e-03 -2.69389409e-03 -1.73158734e-03 1.31153986e-02
    -9.72722284e-03 -1.16225157e-03 5.52236289e-03 -4.84158318e-06
    1.14477128e-02 -1.58186760e-02 6.99336035e-03 -9.64618195e-03
    -2.15261523e-03 1.22326864e-02 8.11123382e-03 -3.55480798e-03
    5.21554286e-03 -1.61992409e-03 1.40207179e-03 -1.79838184e-02
    5.68635063e-03 1.43053904e-02 4.15897788e-03 8.22302827e-04
    -1.00009432e-02 4.64118971e-03 1.20901726e-02 -5.48189646e-03
    -2.29758280e-03 1.23672131e-02 -9.73608054e-04 -8.58736690e-03
    -1.38655156e-02 -7.45392230e-04 -1.37538882e-02 4.49845940e-03
    -3.99266556e-03 6.43060217e-03 -1.05354777e-02 -1.97858773e-02
    1.25113809e-02 -1.25170043e-02 8.83445516e-03 8.88589583e-03
    8.76610167e-03 3.97897558e-03 -3.85617721e-03 -1.24899074e-02
    -9.71717946e-03 4.69228067e-03 -5.45633957e-03 -1.26521580e-03
    1.28771411e-04 -4.82392119e-04 8.38752370e-03 -1.72062777e-02
    -6.62577664e-03 2.40095961e-03 3.69777717e-03 -1.97354760e-02
    -2.08480677e-04 -1.41085796e-02 -1.01321032e-02 1.82047093e-04
    6.62829028e-04 -1.26418676e-02 6.33722777e-03 -1.76374000e-02
    -1.45482467e-02 3.74911167e-03 7.66899670e-03 1.58120152e-02
    2.13796971e-04 6.89275097e-03 -7.58311199e-03 -8.98538437e-03
    1.18806800e-02 -7.95737747e-03 1.08235097e-02 5.28665725e-03
    -1.50469504e-02 -7.71385338e-03 1.71700511e-02 -9.34009627e-03
    3.14879464e-03 1.17734009e-02 -3.82594718e-03 1.55800991e-02
    -3.78060131e-03 -3.84074682e-03 4.51046741e-03 5.84412192e-05
    -1.15888957e-02 6.79181097e-03 9.62059293e-03 7.68856937e-03
    3.45630907e-02 -1.42513691e-02 1.27233295e-02 -3.24538467e-03
    -8.11740104e-03 -8.88184272e-03 2.87115900e-03 2.26199403e-02
    -1.75641440e-02 -5.60575305e-03 1.08296620e-02 -6.27387664e-04
    -4.67519788e-03 2.41617169e-02 -4.67924029e-03 1.12675922e-02
    5.11277979e-03 -1.17832702e-02 -2.41517019e-03 2.66871508e-03
    -6.32830337e-03 1.81829371e-03 -1.49428379e-03 8.07179511e-03
    -5.04760072e-03 -4.42553172e-03 3.27551807e-03 1.93024091e-02
    -1.38681987e-02 -1.93325663e-03 -1.46957198e-02 2.74471636e-03
    3.03018256e-03 -6.34052372e-03 2.10780613e-02 -2.79351440e-03
    5.63023658e-03 -1.03058992e-02 6.23230869e-03 -4.87631140e-03
    1.02711609e-02 -7.96258450e-03 1.53743168e-02 1.61173404e-03
    2.10862514e-03 -8.62174295e-03 6.27407199e-03 -1.50153097e-02
    -1.43205002e-02 -9.68368258e-03 1.47880137e-03 -9.16112307e-03
    -1.34231057e-03 2.31659645e-03 -3.77071137e-03 -1.58418827e-02
    8.45508557e-03 -2.58238874e-02 5.06209163e-03 -1.42565630e-02
    -2.61179004e-02 -1.36360282e-03 -7.91991781e-03 -1.04083614e-04
    -2.38055754e-02 2.91085825e-03 -1.55132022e-02 1.08365323e-02
    4.76220419e-04 -2.18404154e-03 -7.60052935e-04 -4.98831179e-03
    -1.15889320e-02 -9.47539601e-03 6.56939996e-03 -2.22607050e-02
    1.86971407e-02 -8.59761203e-04 2.84018479e-02 -5.61990496e-03
    2.18544938e-02 1.98116787e-02 5.08309016e-03 1.84695944e-02
    -1.25205871e-02 -1.77770201e-02 -2.62086443e-03 -7.53066270e-04
    2.73008086e-02 6.86355727e-03 3.50239640e-03 -2.19047163e-03
    -1.56411566e-02 -8.22662655e-03 -8.26582592e-03 -4.70265839e-03
    -1.32365357e-02 1.00729782e-02 1.98086519e-02 -1.42826596e-02
    1.58412592e-03 8.71454738e-03 9.30944644e-03 3.07416747e-04
    1.25736976e-02 -4.83933510e-03 1.58075355e-02 7.99767021e-03
    7.73695763e-03 7.15944311e-03 2.49480421e-04 1.51587278e-02
    -8.40266328e-03 3.23116523e-03 -1.62693672e-02 2.57145817e-04
    1.13060297e-02 1.26993023e-02 5.60563116e-04 1.59935001e-02
    -1.58698633e-02 -2.82756286e-03 1.47214802e-02 -5.17658715e-04
    1.74196325e-02 6.67126756e-03 8.70656315e-03 8.98243301e-03
    1.54443802e-02 -1.96607560e-02 7.70350511e-04 1.37892524e-02
    -2.12092996e-02 2.82218680e-03 9.15352348e-03 2.84585822e-03
    -1.01591712e-02 8.45518243e-03 1.25110326e-02 9.34601948e-03
    1.68454088e-02 -4.98272805e-03 2.95968493e-03 4.46603680e-03
    3.80383746e-04 -6.26730546e-03 8.87823850e-03 2.98658409e-03
    1.05111198e-02 4.90088388e-03 -1.43379951e-03 6.10812567e-03
    5.34350984e-03 1.87508599e-03 3.46470461e-03 1.88104641e-02
    -2.33564768e-02 9.13385826e-04 1.18639683e-02 -2.14710366e-02
    1.11055616e-02 5.44760888e-03 1.36951795e-02 3.06164403e-03
    1.34438975e-02 3.36020952e-03 -4.29472979e-03 5.80017315e-03
    -1.27215432e-02 -8.47280084e-04 -9.74488270e-04 6.19716104e-03
    -1.39301224e-02 1.75672807e-02 -1.54142436e-02 -8.80557019e-03
    7.71737657e-03 -1.10255852e-02 6.64761290e-03 4.44142055e-03
    -1.27160251e-02 -6.07453519e-03 1.34237558e-02 -9.18144453e-03
    -1.48277218e-02 -4.93149832e-03 -1.31920781e-02 -3.42994602e-03
    6.57310802e-03 5.81830088e-03 4.34699189e-03 -1.00978697e-02
    6.33812742e-03 -1.33149587e-02 8.97559710e-03 -1.32912276e-02
    2.22357712e-03 1.07079744e-02 -1.27157168e-02 -1.00602955e-02
    -9.19675454e-03 -7.78663857e-03 1.69731621e-02 6.57466520e-03
    -6.20316155e-03 -7.06846034e-03 5.72600262e-03 5.38629806e-03
    -1.20151266e-02 -7.70889106e-04 -1.17681753e-02 -2.14582570e-02
    -2.22955830e-02 -1.95848159e-02 7.00554159e-03 -2.76338262e-03
    -1.98327992e-02 8.41080584e-03 2.42822859e-02 1.04807466e-02
    -3.05929203e-02 -2.42649838e-02 -1.44039504e-02 -2.22492614e-03
    9.27599240e-03 -1.06875775e-02 2.38998808e-04 -1.43196071e-02
    -1.29929706e-02 9.11570899e-03 1.04851155e-02 -6.86868909e-04
    -1.30536323e-02 -5.55829518e-03 1.11463033e-02 -8.73707328e-03
    -2.33642347e-02 2.25236639e-03 5.37324406e-04 9.82587971e-03
    1.92301942e-03 8.99895933e-03 -4.61604120e-03 -1.85074639e-02
    7.99580198e-03 9.24533408e-04 -1.40071264e-03 -2.08686609e-02
    -1.42846024e-02 -6.02701027e-03 -6.06834516e-03 8.72118492e-03
    -1.85546409e-02 2.22547655e-03 1.67990476e-02 9.61424503e-03
    -1.35256136e-02 4.66627316e-05 -4.31186520e-03 -2.98658032e-02
    -5.20970672e-03 9.72483493e-03 -4.68975486e-04 -5.75394230e-03
    2.07402296e-02 -1.40690245e-02 -1.08475657e-03 -2.20365683e-03
    -1.05003361e-03 -5.55856572e-03 7.86793791e-03 3.50123644e-03
    -1.19983964e-03 -1.36504434e-02 -6.95535867e-03 -8.04651156e-03
    1.02399308e-02 -1.34492796e-02 8.15739483e-03 -1.19965710e-02
    2.25313455e-02 1.96094196e-02 3.42051336e-03 -2.22378820e-02
    -8.78062285e-03 -5.55610459e-04 -3.09117232e-02 1.79975796e-02
    9.42115858e-03 1.61926243e-02 5.38318278e-03 2.95969704e-03
    1.38015253e-02 -5.50745334e-03 7.41912634e-04 5.55403763e-03
    -1.38807824e-04 8.62685498e-03 2.29477766e-03 4.51277709e-03
    -2.83614092e-04 -1.62711628e-02 -9.86723881e-03 9.27731919e-04
    -1.15366755e-02 -5.53436950e-03 9.60408896e-03 -1.51795894e-02
    5.89767471e-03 1.80532830e-03 8.70744232e-03 1.03821959e-02
    3.84535384e-03 -2.32523261e-03 1.62076242e-02 5.67547185e-03
    -1.33229551e-04 -5.68317296e-03 1.05042998e-02 3.04918992e-03
    -1.15883742e-02 -4.68339492e-03 3.17154080e-03 -2.88104592e-03
    2.63097677e-02 2.01742351e-02 1.20465076e-02 1.94659724e-03
    -8.28807149e-03 -1.02653131e-02 -1.14443274e-02 -1.21499225e-02
    -5.28314942e-03 2.06650724e-03 -1.31899109e-02 8.56814533e-03
    5.75833488e-03 -3.71014350e-03 8.76958854e-03 8.36220477e-03
    -2.74752034e-03 -2.22057011e-03 -7.76179694e-03 -1.04371728e-02
    8.55625235e-03 -2.84759328e-03 -3.13091883e-03 1.34195508e-02
    1.63553830e-03 2.77833501e-03 -6.65763346e-03 1.91691164e-02
    4.59931558e-03 1.85479363e-03 8.89277458e-03 -2.01634574e-03
    1.30329784e-02 -1.38782216e-02 -2.48220842e-02 5.62805170e-03
    -7.53293233e-03 -4.01918124e-03 -5.90549503e-03 -3.36799049e-03
    -2.06814352e-02 -5.69482148e-03 6.44747308e-03 -8.12629238e-03
    -5.09193772e-03 -3.62616638e-03 -7.12209381e-03 1.68696288e-02
    -1.48768416e-02 3.31362826e-03 1.02875065e-02 -3.92583851e-03
    5.43075614e-04 -2.11470993e-03 7.15834042e-03 8.61384254e-03
    2.33343011e-03 2.55489053e-04 2.27906974e-03 -2.29056161e-02
    -7.23925419e-03 -2.91439635e-03 3.95510951e-03 -2.89693568e-03
    -2.05707643e-02 1.18986311e-04 -2.61245063e-03 -1.78169254e-02
    -2.20801542e-03 1.41538773e-03 -3.67182191e-03 -1.24834478e-02
    -8.29462148e-03 7.64194410e-03 -1.15576554e-02 -1.29316491e-03
    -2.40368042e-02 -1.25845680e-02 1.41784176e-02 -9.16130282e-03
    3.65419226e-04 6.91840425e-03 1.10245012e-02 2.01712549e-02
    1.54147018e-03 1.08446367e-03 4.89773753e-04 4.81820991e-03
    -1.98483816e-03 -1.63415703e-03 -1.08187657e-03 9.85987578e-03
    2.72839516e-03 1.33847166e-02 -3.56257008e-03 -5.81403074e-05
    3.53176263e-03 -3.85394017e-03 3.57390934e-04 5.06886980e-03
    9.07608122e-03 3.00904736e-03 5.80346270e-04 -2.29576770e-02
    -7.64731504e-03 1.15543837e-02 -1.32811395e-03 -2.11674348e-03
    -2.74668261e-03 -2.12662052e-02 -9.48431715e-03 1.00340256e-02
    5.63555676e-03 5.38106030e-03 2.39003729e-03 -9.93822818e-04
    4.46933322e-03 -4.13673260e-04 1.81789622e-02 1.91876329e-02
    1.44227650e-02 -7.92403426e-03 6.06075395e-03 1.62028950e-02
    -1.05281209e-03 1.58338575e-03 7.89805502e-03 2.12576259e-02
    2.17828490e-02 -1.09748561e-02 1.88574214e-02 1.77809894e-02
    7.09797628e-03 1.19284969e-02 6.32182742e-03 4.88680135e-03
    -7.55340094e-03 -7.70566054e-03 -4.27489023e-04 -8.61561333e-04
    -1.32353278e-03 -5.48215071e-03 6.78522931e-03 1.22287171e-02
    -4.94463020e-04 -2.05918159e-02 1.85154378e-03 -4.71678322e-05
    -4.50043567e-03 1.50928823e-02 1.32652950e-02 -1.02966968e-02
    3.76599235e-03 1.58659983e-02 8.28085281e-03 9.84499138e-03
    -1.42887067e-02 -1.11218169e-02 -2.41298811e-03 -4.65051783e-03
    1.72858555e-02 -2.24252660e-02 1.47943934e-02 -7.96946511e-03
    -1.37770863e-03 -8.57419241e-03 1.30026713e-02 -1.64641024e-04
    -7.18445634e-04 4.80519049e-03 6.54781982e-03 -1.12827411e-02
    -1.83855146e-02 -5.02222683e-03 -7.03351898e-03 -2.03155279e-02
    1.88892183e-03 1.04502095e-02 -3.69893247e-03 2.10887077e-03
    -4.51645628e-03 -1.31938551e-02 -2.01347340e-02 1.29705295e-02
    -1.13913985e-02 2.97937505e-02 2.98527791e-03 -5.54733491e-03
    -6.47194544e-03 1.41449356e-02 8.03004776e-04 -7.79946754e-03
    -1.96900535e-02 8.14377330e-03 -5.83763560e-03 -1.00271162e-02
    1.79571677e-02 6.41423278e-03 2.31497977e-02 -8.28147959e-03
    -1.80125854e-03 -1.05415296e-03 -5.18271048e-03 -3.94607149e-03
    5.55289350e-03 2.80177761e-02 -1.29834225e-03 -6.10042270e-03
    -9.18286107e-03 -2.28269212e-02 -4.10426920e-03 -1.99993174e-05
    1.80838127e-02 8.34147725e-03 -2.03823275e-03 -1.08403964e-02
    1.24324588e-02 -2.23024786e-02 2.33154837e-03 5.51931467e-03
    7.72147533e-03 1.09629834e-03 1.14755025e-02 -1.03338417e-02
    -5.40666457e-04 8.57841875e-03 -4.59240424e-03 -4.43488220e-03
    -1.84890404e-02 1.06124403e-02 -5.99938352e-03 -6.73692860e-03
    2.52994057e-02 1.21540483e-03 8.20294954e-03 6.90539891e-04
    4.51209350e-03 6.58024102e-03 6.30329875e-03 -1.47504685e-03
    7.44685112e-03 1.02218380e-02 -1.86403394e-02 -5.83541754e-04
    -1.43444091e-02 -8.09467211e-03 -8.29681195e-03 1.60555181e-04
    -2.86175497e-03 8.53960737e-05 -1.98878963e-02 -1.09486850e-02
    5.23692230e-03 -4.49301349e-03 4.57539503e-03 1.15102539e-02
    2.09592711e-02 7.94198859e-05 1.10977199e-02 -7.03682611e-03
    1.75771175e-03 1.44954342e-02 3.65768414e-04 2.85137421e-03
    -1.81451347e-02 5.81672601e-03 -6.46593422e-03 -4.83991671e-03
    9.45011806e-03 1.57293621e-02 -5.18945651e-03 4.45577316e-03
    1.58655364e-02 -1.52146341e-02 2.18913872e-02 1.10085709e-02
    2.32938025e-02 1.70555003e-02 -4.36320994e-03 1.18420664e-02
    -4.00973624e-03 8.62313528e-03 -9.56560113e-03 1.45356497e-02
    -1.73156918e-03 1.26594352e-03 -5.61740994e-03 7.66825723e-03
    -1.50935845e-02 -7.71160098e-03 1.79274566e-02 -1.61892511e-02
    -6.08524680e-03 -2.03519426e-02 -1.41573688e-02 -6.04697876e-03
    1.96181610e-02 -7.84571748e-03 -1.25331630e-03 2.03028824e-02
    1.29266325e-02 6.15436351e-03 7.29855383e-03 -1.01289116e-02
    2.97751874e-02 -1.95072882e-03 4.18623909e-03 1.20516575e-03
    -9.71169304e-03 9.84239206e-03 -6.14748150e-03 -1.49201159e-03
    -1.30783264e-02 -1.04995433e-03 1.08872121e-02 3.74956382e-03
    2.35931259e-02 -1.33372182e-02 1.79984830e-02 -4.54091793e-03
    -2.32897885e-03 -1.95734086e-03 -8.42802692e-04 -1.00752730e-02
    1.85511447e-02 1.49455797e-02 -1.62564609e-02 2.55438071e-02
    2.21012067e-03 -1.34260356e-02 -3.81969591e-03 -1.02733728e-02
    1.49356807e-02 -5.94059797e-03 -2.75479793e-03 1.34470519e-02
    -7.62749114e-04 1.63843185e-02 1.61473788e-02 -1.11995181e-02
    3.34155676e-03 -7.72131002e-03 3.04211583e-03 -6.95929350e-03
    7.16325827e-03 -5.36568742e-03 2.15175305e-03 5.70348417e-03
    2.54984503e-03 4.91874991e-03 -2.26602014e-02 1.04930708e-02
    1.19235776e-02 1.89575739e-03 2.77422257e-02 1.46572571e-02
    -5.69758983e-03 -2.97828554e-03 8.55571683e-03 -2.13528555e-02
    1.36823079e-03 2.62292419e-02 6.26495481e-03 3.41507122e-02
    1.27812410e-02 9.78642609e-03 9.26738884e-03 -8.86414107e-03
    5.20566758e-03 8.12784303e-03 -1.90364954e-03 8.50647967e-03
    -2.79255747e-03 4.77007031e-03 6.99310517e-03 -2.81093759e-03
    1.71768330e-02 6.81189913e-03 1.60887726e-02 -3.01603787e-03
    -4.39991802e-03 -4.77223471e-03 4.06392908e-04 1.07864793e-02
    -4.57719015e-03 -1.26283197e-03 -1.35307135e-02 8.40233359e-03
    1.47729218e-02 8.40165932e-03 1.10058591e-03 3.68376914e-03
    1.11407703e-02 -6.40204130e-03 -7.60845561e-03 4.46664589e-03
    2.50404491e-03 2.08499357e-02 8.73791520e-03 1.15792677e-02
    1.03846211e-02 8.03077780e-03 -3.09574306e-02 1.63328473e-03
    1.05132051e-02 1.57256443e-02 -3.58869764e-03 -2.63347430e-03
    -1.72229751e-03 -5.41774742e-03 3.78355128e-03 -3.03422334e-03
    1.37375398e-02 2.84891314e-04 -6.43959362e-03 1.10460976e-02
    1.42469471e-02 -9.79988603e-04 -1.55352242e-02 -2.68357596e-03
    -8.65105074e-03 2.93348078e-03 7.16102123e-03 1.35528911e-02
    1.10524567e-02 2.03696592e-03 -2.15248228e-03 8.21335241e-04
    -1.12647545e-02 -4.17337269e-02 7.70070881e-04 1.95351876e-02
    1.23492163e-03 6.36143098e-03 2.46351864e-02 2.85091437e-03
    -2.50771921e-02 -2.52881590e-02 -1.10836104e-02 1.90773960e-02
    5.60197001e-03 -1.61886401e-02 -3.87597800e-04 1.09720719e-03
    7.36618135e-03 -1.44521510e-02 4.25912812e-03 -1.64195541e-02
    1.62572251e-03 6.23253779e-03 -8.01619701e-03 5.24601992e-03
    7.90682156e-03 8.09704978e-03 -1.66464373e-02 5.94053697e-03
    4.72041080e-03 -7.26723392e-03 1.06642526e-02 3.34504107e-03
    6.65258942e-03 4.43458743e-03 -6.67362614e-03 -2.44977418e-03
    -1.92792229e-02 -1.04183033e-02 1.20174540e-02 -1.50643371e-03
    4.77027940e-03 5.58480574e-03 3.79279070e-02 -8.24813731e-03
    -1.18114389e-02 -1.58016663e-02 -8.53603613e-03 -7.20470911e-03
    3.15105100e-03 -8.37756600e-03 2.58070347e-03 1.61650460e-02
    -2.83505348e-03 -2.03130357e-02 3.88305564e-03 3.79920384e-04
    -3.88907222e-03 1.20116249e-02 1.31355319e-02 6.04479108e-03
    -1.28484108e-02 1.12729659e-02 1.77029446e-02 7.59979663e-03
    7.88652897e-03 2.42626816e-02 1.11227371e-02 -2.68767145e-03
    1.67435631e-02 2.90552285e-02 -7.53599592e-03 -8.24168045e-03
    5.43850590e-04 2.23832321e-04 6.71007857e-03 1.24070309e-02
    3.74620268e-03 7.50777265e-03 1.83293447e-02 -1.22763240e-03
    -5.79542154e-03 -1.82329044e-02 2.51124217e-03 2.15216577e-02
    2.09188666e-02 4.05534171e-03 2.72026821e-03 -7.65134534e-03
    2.50542667e-02 9.30919498e-03 -7.50345970e-03 -5.79570711e-04
    1.94021910e-02 -1.86074823e-02 1.89781133e-02 7.66588049e-03
    -2.64278031e-03 5.94481314e-03 5.42141125e-03 2.00082213e-02
    1.32277107e-03 -5.47596719e-03 -8.10490223e-04 -5.41477464e-03
    -1.22060385e-02 9.46020707e-03 -1.07520455e-02 2.67576100e-03
    -7.77806295e-03 6.88511366e-03 1.19835064e-02 1.74456891e-02
    1.14222318e-02 2.30342541e-02 4.81526460e-03 5.81490761e-03
    -1.00036489e-03 -8.40885658e-03 4.50606411e-03 -5.16068516e-03
    -1.04731815e-02 2.42841542e-02 -6.77325111e-03 6.84888661e-03
    1.18181240e-02 2.77795829e-03 9.99543536e-03 -5.34815132e-04
    -3.29053216e-03 -4.41471301e-03 -6.31568301e-03 -1.83107182e-02
    -1.86354283e-03 -5.98827424e-03 6.33529387e-04 6.22703694e-04
    1.85952280e-02 2.89373536e-04 -9.09937837e-04 6.88544894e-03
    1.41337682e-02 6.37920713e-03 3.90525465e-03 -3.07069113e-03
    -1.90858543e-02 6.66119903e-03 -1.85324587e-02 2.14608684e-02
    3.09076533e-03 8.85924418e-03 -2.84897396e-03 -8.72935262e-03
    2.01308895e-02 -1.53471734e-02 1.38547588e-02 -9.24564339e-03
    4.28159110e-04 1.38327219e-02 -2.26111766e-02 1.94058716e-02
    -9.71321203e-03 -9.15516354e-03 -5.81032271e-03 9.00189858e-03
    -6.53089071e-03 -8.43365211e-03 1.05135264e-02 -1.38390111e-03
    -2.10301783e-02 -1.95619673e-03 -1.09241325e-02 -1.18572460e-02
    1.32907275e-02 1.51410082e-03 2.33361237e-02 4.36316011e-03
    7.54183391e-03 -5.06722555e-03 2.10947139e-04 1.60974786e-02
    -2.49482058e-02 -4.35056747e-04 -5.13193058e-03 6.83200080e-03
    8.63537565e-03 -1.85676478e-02 -3.74702038e-03 -4.97352332e-03
    1.56728346e-02 1.00914678e-02 2.04122923e-02 7.19162449e-03
    -7.62853213e-03 5.30340616e-03 5.18773566e-04 2.87260930e-03
    1.56932825e-03 -7.12318067e-03 -3.16466973e-03 1.39138820e-02
    -1.22133445e-03 -1.26639549e-02 8.07248708e-03 -1.38774933e-02
    -1.02499695e-02 1.22339521e-02 8.20703339e-03 -1.32789807e-02
    -4.14305320e-03 1.36546446e-02 2.08638273e-02 8.93893186e-03
    -1.00874305e-02 -3.41174455e-04 -4.00117692e-03 4.96768951e-03
    2.59461254e-03 1.98099781e-02 9.50517319e-03 -5.09724347e-03
    8.58588493e-04 -7.30767939e-03 -2.61407299e-03 2.60663666e-02
    1.98560972e-02 -2.53574108e-03 1.01962371e-03 -7.32797291e-03
    -5.36889862e-03 1.11169778e-02 -4.42053610e-03 -7.16019701e-03
    6.16416626e-04 -8.12042330e-04 -4.13391460e-03 1.13832694e-03
    8.94207787e-03 -4.74431366e-03 3.95747556e-05 -1.09879365e-02
    1.22700520e-02 -4.87295398e-03 1.44089153e-03 1.58165004e-02
    6.32117921e-03 -1.08433282e-02 2.08697794e-03 2.73929699e-03
    -7.41068565e-04 -4.90889000e-03 8.27166624e-03 -2.28366535e-03
    9.79901478e-03 -2.61942926e-03 -1.58804504e-03 4.01023263e-03
    6.94569200e-03 2.60392902e-03 -6.60820864e-03 1.92720015e-02
    3.72999907e-03 -6.42846688e-04 -2.74335197e-03 4.44676727e-03
    -1.46778058e-02 -5.12193050e-03 -5.98453823e-03 2.40133679e-03
    -1.56251695e-02 -9.73703433e-03 6.63357927e-03 4.44953516e-03
    -1.89045630e-02 2.06062896e-03 1.32283440e-03 -8.61443207e-03
    -2.06478909e-02 1.67273004e-02 1.54591827e-02 1.89557597e-02
    2.67848070e-03 -7.06913357e-04 1.77514751e-03 -3.19181406e-03
    1.50440470e-03 -1.64168105e-02 5.47568034e-03 -1.88694801e-02
    1.77885918e-03 -1.26883360e-02 -4.63898713e-03 5.38531551e-03
    -3.74995638e-03 -1.21019259e-02 -2.66394652e-02 1.83096435e-02
    5.78085473e-03 1.32901845e-02 -1.37531115e-02 1.91150196e-02
    -8.05889722e-03 -3.02137574e-03 1.08299404e-02 -6.32375246e-03
    6.23253779e-03 1.05665829e-02 1.27043398e-02 -1.17875857e-03
    -6.22860156e-03 -5.94186888e-04 8.42817593e-03 2.06948258e-03
    6.07006252e-03 -6.53675990e-03 1.45156644e-02 5.68112265e-03
    6.41012378e-03 -1.65655334e-02 -4.55774833e-04 -1.80564285e-03
    -5.52788936e-03 -1.18985893e-02 4.06804821e-03 5.02727926e-03
    1.82048045e-03 -2.25975327e-02 1.48313995e-02 -9.30997892e-04
    -7.42314663e-03 -9.01618693e-03 1.66951574e-03 -1.32189505e-02
    -3.00756493e-03 -1.18032028e-03 -7.68763153e-03 -1.82631798e-03
    -3.69162601e-03 6.83518127e-03 1.00785475e-02 1.36214672e-02
    -5.39254397e-03 1.78854167e-02 6.93110842e-03 -1.37554028e-03
    -2.53448617e-02 -6.40640827e-03 7.58133549e-03 9.89397243e-03
    1.01820054e-02 4.82476410e-03 -3.23022343e-03 7.14773312e-03
    3.66052776e-03 -1.00946054e-02 -8.16747604e-04 2.65985052e-03
    -5.46322484e-03 1.78625435e-03 -1.27108060e-02 -1.38900592e-03
    -5.73159382e-03 -1.08529124e-02 -6.36760984e-03 -1.91779789e-02
    4.55544330e-03 1.51932007e-03 2.69270828e-03 4.54363297e-04
    -3.79999168e-03 9.52118542e-03 2.86377472e-04 1.71278510e-03
    -9.12868977e-03 5.68698719e-03 1.74410585e-02 2.65463237e-02
    -2.45580450e-03 1.46490289e-02 8.27750843e-03 1.30329700e-03
    -2.54890532e-04 2.20658965e-02 -1.58437307e-03 1.01686250e-02
    2.76350006e-02 -2.83053820e-03 -5.84414368e-03 5.55020059e-03
    5.58923185e-03 -1.77966093e-03 -6.77932333e-03 1.48358336e-02
    3.43909464e-03 3.50514846e-03 -9.40184388e-03 4.09010379e-03
    1.70614030e-02 9.55128111e-03 9.85136721e-03 8.72178655e-03
    2.14906479e-03 7.64090382e-03 1.07013984e-02 8.78714200e-04
    -1.83721781e-02 -2.03186404e-02 -1.68857742e-02 1.27260166e-03
    5.72889717e-03 2.39968882e-03 1.56740621e-02 -1.72992144e-02
    1.35066267e-02 -6.27626106e-03 1.88863231e-03 -1.16674975e-02
    -7.28068058e-04 -1.29729556e-02 2.14217994e-02 1.59183256e-02
    -1.31290620e-02 2.07920708e-02 -2.84590339e-03 -1.11806393e-02
    -7.05920020e-03 1.20332437e-02 2.87757665e-02 2.65913364e-02
    2.28287838e-02 -1.31378754e-03 3.47605497e-02 -4.90177097e-03
    9.41783469e-03 8.86461511e-03 5.18734800e-03 1.16027314e-02
    6.53393706e-03 3.46555928e-04 -1.22304447e-02 -1.26786041e-03
    -1.13671282e-02 -8.87638424e-03 -7.40253890e-04 2.41478905e-03
    -1.16980094e-02 1.43113947e-02 8.27726442e-03 7.63711473e-03
    3.82989133e-03 1.52672231e-02 2.16992921e-03 2.88046594e-03
    1.04824854e-02 -1.51826590e-02 9.47885308e-03 7.36534502e-03
    1.59353707e-02 2.70333420e-03 2.91150808e-03 3.38737806e-03
    1.87515060e-03 3.43495072e-03 5.48069924e-03 6.41470030e-03
    5.47305401e-03 -2.88491207e-03 1.08954804e-02 -8.57315864e-03
    3.19021428e-03 1.28147872e-02 4.96061286e-03 -1.99573990e-02
    -1.41072748e-02 7.40620354e-03 -1.46792852e-03 2.75271498e-02
    -1.02951750e-02 -7.72401877e-03 8.70663673e-03 4.21061926e-03
    -9.97737888e-03 1.32818157e-02 1.40379090e-02 1.57041382e-02
    2.94189854e-03 1.42029831e-02 1.59508772e-02 -1.25420298e-02
    5.25496760e-03 1.06996242e-02 1.84013564e-02 3.02131590e-03
    -1.77880116e-02 -2.36120075e-03 1.45031326e-02 1.22360708e-02
    -2.20336504e-02 -5.23691718e-03 -2.51017287e-02 -1.29140373e-02
    4.99021122e-03 3.62798851e-03 1.50605943e-02 7.49463332e-04
    -3.94483330e-03 -5.52917179e-03 -7.33217830e-03 3.81467311e-04
    -5.69000607e-03 1.94966663e-02 1.62114203e-02 1.82650741e-02
    2.22917572e-02 3.94630618e-03 7.33413780e-03 1.33866062e-02
    7.85450265e-03 1.18867988e-02 -4.02123109e-03 -1.54772028e-02
    -9.57745221e-03 7.30056129e-03 -2.41774460e-03 -3.58559415e-02
    -8.13093130e-03 1.79408044e-02 4.91261762e-03 5.97558590e-03
    4.30683512e-03 -1.78346271e-03 -1.74878128e-02 -5.36577357e-03
    -4.84049413e-03 6.86301524e-03 -5.90249803e-03 3.71844787e-03
    1.47786187e-02 1.04543203e-02 9.09668021e-03 7.19201192e-03
    -8.18609633e-03 -1.42259598e-02 -1.00941944e-03 8.99597351e-03
    5.26832277e-03 1.25875007e-02 1.93091063e-03 1.36082317e-03
    1.56104732e-02 -1.69778503e-02 4.28880844e-03 1.35583319e-02
    1.42750563e-02 -2.31349771e-03 2.39325268e-03 -5.47088822e-03
    -6.83893310e-03 -7.27514550e-03 -1.12362104e-02 -9.75925848e-03
    6.72639534e-03 2.41369801e-03 -1.41589474e-02 -7.74288364e-03
    1.64385773e-02 -5.65332314e-03 -1.53938020e-02 -2.00182106e-03
    -4.87522781e-03 -3.67627130e-03 1.22016314e-02 -5.54200495e-03
    1.06914118e-02 -4.29721130e-03 -1.18540728e-03 6.93027116e-03
    -6.41969405e-03 3.48673691e-03 1.70266386e-02 -1.31204515e-03
    -1.61063820e-02 2.10825354e-03 2.13231016e-02 -4.87117702e-03
    -6.85508735e-03 -5.24122408e-03 -8.13447125e-03 -1.90766819e-03
    -1.30848173e-04 -5.40277129e-03 3.67133552e-03 1.96655188e-02
    -1.02227638e-02 -2.16651652e-02 1.29367446e-03 -5.05598448e-03
    -2.61959434e-03 2.37474058e-04 -1.06999036e-02 -1.59419663e-02
    2.98470515e-03 -6.45064469e-03 4.40173363e-03 -5.39942086e-03
    -6.42416207e-03 2.39140131e-02 1.81250472e-03 2.28427257e-03
    -1.35070998e-02 2.53909100e-02 5.68134291e-03 8.69314373e-03
    3.86235933e-03 -8.00959300e-03 1.10073816e-02 1.53451813e-02
    -1.92446057e-02 7.03886710e-03 3.83220217e-03 1.39829852e-02
    -6.45297859e-03 -7.62377772e-03 2.28868555e-02 1.81100983e-02
    -6.75523840e-03 -2.75981729e-03 -2.28012819e-02 9.26592201e-03
    -1.15558757e-02 2.14805314e-03 -6.10427791e-03 8.17656633e-04
    1.16448645e-02 6.27982756e-03 -1.71916513e-03 1.29953986e-02
    -1.05660909e-03 -1.66183040e-02 2.51889881e-03 -3.21326312e-03
    4.67135757e-03 9.53711045e-04 -2.42345850e-03 -7.06919143e-03
    -3.24321724e-03 4.47955402e-03 -9.49660596e-03 -4.46736522e-04
    -2.03047786e-03 1.61540434e-02 5.08535840e-03 -1.29621075e-02
    1.18148150e-02 2.24559791e-02 -1.51103307e-02 5.01161115e-03
    2.43820623e-03 9.93723422e-03 8.66750441e-03 5.74501650e-03
    2.45356088e-04 8.45680479e-03 1.72853950e-04 5.17816935e-03
    -1.27460817e-02 -3.85792274e-03 -8.48232117e-03 5.30159054e-03
    -6.31537242e-03 2.06583571e-02 -1.31538417e-02 4.65602847e-03
    -5.13439241e-04 -7.98662286e-03 2.49575693e-02 -5.04742563e-03
    8.24249163e-03 8.17266759e-03 -1.57514904e-02 6.84790267e-03
    1.88047215e-02 3.23629915e-03 1.47432722e-02 8.28052498e-03
    2.65014428e-03 3.83383268e-03 1.51949690e-03 -7.76345748e-03
    4.35045734e-03 5.13202604e-03 -3.45614552e-02 -9.84370243e-03
    4.65005357e-03 -1.85734278e-03 -2.28692126e-02 -4.78465389e-03
    3.16436216e-02 -9.82502103e-03 3.29044787e-03 1.45831676e-02
    -1.70077458e-02 1.24841416e-02 -1.47055853e-02 1.32069306e-03
    5.17719425e-03 1.23447878e-02 8.31809361e-03 -9.01628193e-03
    -5.85875940e-03 -8.63897707e-03 1.13129267e-03 6.38317363e-03
    1.23188375e-02 8.98862164e-03 -4.93419124e-03 1.83142014e-02
    6.47780625e-03 -3.30912881e-02 1.60948921e-03 3.95117514e-03
    -1.69651639e-02 -2.38177739e-02 -7.58542912e-03 -5.21613052e-03
    1.86488889e-02 -3.44961975e-03 3.47143598e-03 -8.80686939e-03
    -1.39382435e-02 2.89053074e-03 -1.22271315e-03 -6.93950895e-03
    7.38919340e-03 3.11625353e-03 1.83833286e-03 6.26973994e-03
    -1.93298589e-02 -3.42089054e-03 3.21221538e-03 8.13541189e-03
    -1.57744769e-04 -3.38035915e-03 -3.38377967e-03 -8.47494602e-03
    4.41431860e-03 1.91349816e-02 1.07759284e-02 -1.68868881e-02
    -2.40990054e-03 4.35845504e-05 -7.83518516e-03 1.16646048e-02
    1.50081154e-03 -8.02508090e-04 -4.01710253e-03 -1.58694983e-02
    3.42069846e-03 -5.47377905e-03 -3.50327068e-03 -1.04343081e-02
    7.73288123e-03 1.38251279e-02 2.14394629e-02 -6.39015296e-03
    -1.64253917e-03 2.05349363e-03 6.34077657e-03 1.75478030e-03
    -1.87160866e-03 8.32288410e-04 -6.87687891e-03 -9.41414293e-03
    -5.73425554e-03 6.20323000e-03 1.25962375e-02 7.27638952e-04
    -8.05489626e-03 2.38181651e-03 1.04755489e-03 -4.63608373e-03
    -5.88426483e-04 3.62024433e-03 1.49429673e-02 -5.81161957e-03
    -4.34402330e-03 1.48823662e-02 -5.82078239e-03 2.22505536e-02
    1.17930230e-02 7.35161267e-03 -1.20838601e-02 5.33880526e-03
    6.05197391e-03 7.97776878e-03 1.04477629e-02 -4.63557080e-04
    -1.81279313e-02 9.80574824e-03 -1.70655660e-02 5.19661792e-03
    -2.22572815e-02 -1.57159939e-02 -1.82326809e-02 -7.65799312e-03
    1.77090534e-03 -1.21283298e-03 -4.63959156e-03 -1.53308187e-03
    -1.08880475e-02 1.38126605e-03 6.16395939e-03 2.56959512e-03
    -5.40238852e-03 1.30118011e-02 -1.86046958e-03 -1.57692339e-02
    -2.14285422e-02 1.06812809e-02 1.77928768e-02 1.38594918e-02
    -1.56739075e-02 6.48472039e-03 9.65200365e-03 -7.13863457e-03
    6.42061280e-03 -1.83740202e-02 6.97689457e-03 -1.69216171e-02
    -1.43132703e-02 -2.36213002e-02 -1.27509832e-02 7.29038194e-03
    -2.49254075e-03 6.78268867e-03 -6.37611933e-03 3.76412435e-03
    3.59041849e-03 1.31328674e-02 -1.13993138e-03 1.47762373e-02
    2.50849053e-02 4.64786217e-03 5.63399587e-03 -3.60005582e-03
    1.97934918e-03 2.35197302e-02 1.35233561e-02 -5.89914061e-03
    -4.70081257e-04 9.09121893e-03 -2.30387924e-03 -1.13197286e-02
    -6.52977091e-04 -8.23230948e-03 1.57958027e-02 1.51469326e-02
    8.17105826e-03 -2.95592914e-03 1.18434941e-02 1.26034254e-03
    2.48643775e-02 -7.69424019e-04 1.21406028e-02 -1.76881760e-04
    1.69744380e-02 -1.36081120e-02 1.22960452e-02 -1.55009108e-03
    1.99930766e-03 -1.72485795e-03 -1.36585562e-02 -2.43298840e-02
    3.23036779e-03 6.37642865e-04 2.13113351e-04 -1.41063547e-02
    2.04808246e-02 1.04334997e-03 -1.29273511e-03 2.85653607e-03
    -3.35581438e-03 2.20539588e-02 1.34867039e-02 1.20516336e-02
    -6.78565912e-03 -1.44910151e-02 8.19726672e-04 -4.98301408e-04
    3.07908328e-03 5.38491551e-03 8.68948735e-03 1.04879225e-02
    2.66501214e-02 2.73950351e-03 1.15785245e-02 6.45414833e-03
    2.22291145e-03 5.56570478e-04 -6.49039540e-03 1.06596397e-02
    -3.80059914e-03 -8.97705648e-03 -9.21123475e-03 -2.37397682e-02
    2.13381555e-03 1.03151985e-02 -4.16909996e-03 -1.60806179e-02
    -3.17007140e-03 1.41219655e-03 -2.76245264e-04 -3.01359734e-03
    -6.48032269e-03 -6.15018886e-03 4.15131217e-03 3.76632879e-03
    6.90697879e-03 2.09444277e-02 2.08184514e-02 1.60975549e-02
    1.72556005e-03 1.10623688e-02 -7.78261758e-03 2.09772075e-03
    5.12140756e-03 8.76296894e-04 -1.27150631e-02 -1.50829414e-02
    -2.07538949e-03 -1.17195593e-02 -8.08920525e-03 7.40695326e-03
    1.64846226e-03 -1.65922865e-02 -5.22645377e-03 3.38708679e-03
    2.29244493e-03 1.05546066e-03 -1.41810114e-03 1.87814962e-02
    2.68987403e-03 1.53834661e-02 4.94639808e-03 6.10589981e-03
    1.21296048e-02 1.58942342e-02 -1.63579755e-03 1.68414637e-02
    2.05145646e-02 8.36580060e-04 2.25960091e-02 6.57469500e-03
    5.76196378e-03 -1.11765703e-02 -3.51025187e-03 1.99433765e-03
    -7.14918540e-04 6.11694995e-03 -5.64048951e-03 7.59219925e-04
    -6.10031281e-03 2.96888454e-03 -1.91293526e-02 -1.55967809e-02
    -1.63878419e-03 9.26956721e-03 -6.54736627e-03 1.85702611e-02
    2.37850752e-02 1.63938049e-02 2.58713942e-02 2.12597568e-03
    3.21881436e-02 1.61076766e-02 3.62404448e-04 -9.41542629e-03
    -4.25021583e-03 7.50713469e-03 -3.44880414e-03 1.61138587e-02
    -1.43505139e-02 -1.27090537e-03 1.16685126e-02 -1.65367394e-03
    -4.31235239e-04 -1.19391829e-03 1.23745073e-02 -6.03636075e-03
    -2.80609727e-03 -8.01961310e-03 2.94058723e-03 -5.32666175e-03
    4.00520302e-03 -4.64649545e-03 -1.90854687e-02 -8.50552879e-03
    6.23370335e-03 1.99131984e-02 -9.76086594e-03 -4.27371124e-03
    3.41334031e-03 2.99226376e-03 -1.43101513e-02 2.48089014e-03
    2.13217619e-03 7.88809452e-03 2.00421251e-02 1.10805398e-02
    1.47504127e-02 1.75215192e-02 -4.24667727e-03 -1.12959268e-02
    3.05330497e-03 1.12587065e-02 1.51094766e-02 2.19960660e-02
    6.48705196e-03 1.21543591e-03 8.12134612e-03 8.54341313e-03
    -1.48950620e-02 -1.77335683e-02 -5.29161713e-04 6.57100324e-03
    9.71014891e-03 3.34882527e-03 3.15304776e-03 -5.41733997e-03
    -9.90249868e-03 3.18055693e-03 5.20546269e-03 8.14945530e-03
    2.76110694e-03 -1.38366828e-03 2.46799160e-02 6.33917470e-03
    7.93563295e-03 8.45133606e-03 -2.01854277e-02 -8.60968698e-03
    1.13712195e-02 2.64236634e-03 8.61188211e-03 9.47894808e-03
    -2.85472069e-03 -1.31270185e-03 8.98811442e-04 1.30852619e-02
    9.83054936e-03 2.53447741e-02 2.17804071e-02 1.81593876e-02
    2.23019160e-02 7.94567913e-03 -9.72323492e-03 1.62395891e-02
    -1.08517252e-03 -8.18692613e-03 -1.18101807e-02 -1.05343452e-02
    -7.76474038e-03 1.56372283e-02 -3.27338418e-03 -9.49374773e-03
    -6.38140878e-03 3.62358033e-03 -1.53815737e-02 6.86198155e-06
    1.83715182e-03 -3.07984650e-03 2.10366026e-02 -1.06512904e-02
    2.85877520e-03 3.11663444e-03 -6.66099414e-03 -8.73170793e-03
    2.06769276e-02 1.69466417e-02 1.42525658e-02 6.32160949e-03
    2.14215834e-03 -1.51042761e-02 8.89143627e-03 -8.99039581e-03
    2.66997870e-02 1.12321395e-02 5.29393496e-04 9.68812592e-03
    -1.52105363e-02 -2.90618348e-03 1.32028377e-02 -4.95937699e-03
    3.68338171e-03 -1.72361266e-02 -5.96274855e-03 -6.04833011e-03
    -7.52246752e-03 6.94881007e-03 -1.44323613e-02 6.88385591e-03
    4.99090180e-03 -7.90801365e-03 -1.75941493e-02 -1.71100982e-02
    1.37401046e-02 -1.87988784e-02 -1.02456193e-03 -1.02420468e-02
    -1.57670360e-02 -1.19932527e-02 -1.42321328e-03 1.93703193e-02
    -4.70579555e-03 1.87431998e-03 1.00326594e-02 -1.53722884e-02
    4.82461415e-03 3.30518233e-03 3.24124075e-03 -1.89749838e-03
    -5.99464448e-03 -1.26612931e-03 4.07372601e-03 -1.55484152e-03
    1.02222329e-02 9.79483221e-03 -7.32613774e-03 -2.83194762e-02
    -1.15744127e-02 -9.72801726e-03 -6.89104293e-03 2.58546025e-02
    -5.59543213e-03 -1.10435882e-04 -2.50770431e-03 -1.77608579e-02
    -9.62042063e-03 9.42500774e-03 -1.07516050e-02 -6.65491307e-03
    1.30856838e-02 1.32148191e-02 -1.50819533e-02 -3.60801909e-03
    2.18248684e-02 3.40371346e-03 -1.44957528e-02 8.92826915e-03
    -1.15131103e-02 8.65601841e-03 4.69722552e-03 7.85284024e-03
    1.01701368e-03 -7.66964164e-03 -2.82899495e-02 4.01168317e-03
    -4.32783552e-03 1.05572464e-02 -1.55897522e-02 -2.19948683e-03
    -1.30383968e-02 5.06374706e-03 -3.22109577e-03 -1.07193878e-02
    -2.15595663e-02 -2.28992458e-02 -1.48687651e-02 1.67149100e-02
    -7.26966932e-03 -8.80879525e-04 -6.72894437e-03 1.43433576e-02
    -1.03884260e-03 -8.09845515e-03 9.17790923e-03 1.39928525e-02
    -1.47966843e-03 4.17445926e-03 3.09674046e-03 5.84318209e-03
    2.91889952e-03 1.07164066e-02 -4.42908239e-03 1.31921964e-02
    6.36140956e-03 3.99469025e-03 -2.38309745e-02 1.15984082e-02
    1.43699227e-02 -2.57809297e-03 -9.85983573e-03 -1.31286904e-02
    -1.18208481e-02 -7.65815051e-03 -2.17632204e-02 -6.98166620e-03
    8.90629424e-04 -8.83448776e-03 -6.78402698e-03 -9.49337706e-03
    -1.66616943e-02 1.04933772e-02 1.09975561e-02 1.83797032e-02
    8.94731935e-03 9.04454291e-03 3.86835542e-03 5.65695204e-03
    -5.40508516e-03 7.35057343e-04 2.76219891e-03 -1.46017992e-03
    -1.83134191e-02 -2.04058387e-03 1.06175123e-02 3.52876075e-03
    -6.43093232e-03 1.84487866e-03 -1.16588715e-02 -2.94430670e-03
    1.90087280e-03 9.93359648e-03 2.57258047e-03 1.09189646e-02
    -3.81258992e-03 5.22734784e-03 -4.88538155e-03 -1.52515909e-02
    8.49262439e-03 -7.13039842e-03 -9.07899463e-04 -2.01057456e-03
    -3.33602354e-03 2.89054518e-03 -2.60736048e-02 -7.76051031e-03
    1.60483492e-03 7.29732215e-03 -2.53547425e-03 -8.18902068e-03
    9.14130174e-03 1.42810093e-02 3.18646687e-03 -8.22391082e-03
    -8.92048422e-03 -7.19270669e-03 5.21258963e-03 -7.79597089e-03
    1.03142541e-02 -5.07669291e-03 5.29727526e-03 -5.24010276e-04
    2.28066905e-03 -4.07444732e-03 8.99202481e-04 3.87601485e-03
    6.18132623e-03 6.99261669e-03 -1.20424470e-02 8.62835499e-04
    6.51222304e-04 -1.88685451e-02 -4.10506921e-03 -1.94438696e-02
    1.73974819e-02 3.00048967e-03 2.83154799e-03 -1.05156060e-02
    -4.64382768e-03 -1.82468910e-02 -4.84119402e-03 -2.21541384e-03
    -5.92732150e-03 -4.57088259e-04 -4.10054624e-03 5.11308841e-04
    -3.96811031e-03 2.67428486e-03 9.51068196e-03 6.66383049e-03
    -6.90186722e-03 -1.20989261e-02 3.97965498e-03 1.53087173e-02
    1.47412065e-02 -1.02671795e-02 1.27204461e-02 7.08251202e-04
    -2.93097284e-04 -4.86551551e-03 -1.79033205e-02 2.12214366e-02
    -3.82869202e-03 2.97761057e-03 -1.08759822e-02 1.44449249e-03
    -7.87600596e-03 -1.15691815e-02 -4.61381348e-03 -1.34141380e-02
    9.93411057e-03 -1.09308949e-02 -3.35595757e-03 -8.96113738e-03
    1.35579305e-02 -7.13887811e-03 6.82980195e-03 5.01886848e-03
    -3.69468617e-04 1.08956136e-02 1.21825580e-02 4.26298380e-03
    -1.81802232e-02 2.52989605e-02 1.53884338e-02 8.59683286e-03
    8.16346612e-04 -6.02525333e-03 -1.29082613e-02 1.40207820e-03
    -2.20960695e-02 5.67690516e-03 7.19541917e-03 -2.39232127e-02
    -9.44690034e-03 -1.16807166e-02 6.21881336e-04 1.78403798e-02
    -2.85162963e-02 -6.62388187e-03 -3.64646362e-03 -8.74577276e-03
    -3.27921449e-03 1.13136508e-02 1.75240971e-02 -8.27270560e-03
    -8.96127801e-03 -2.67644171e-02 -7.19292881e-03 3.96797899e-03
    -9.87056084e-03 -3.04760435e-03 1.52052697e-02 -6.71272725e-03
    7.44899316e-03 -4.19776049e-03 1.41213257e-02 -1.50495609e-02
    -2.27938383e-03 -3.99876246e-03 -1.52879171e-02 -4.50683571e-03
    -1.43994857e-02 1.73788972e-03 -9.96264257e-03 2.75416719e-03
    -6.20100182e-03 6.82147220e-04 1.31554445e-02 9.84687451e-03
    -2.04829755e-03 4.07730183e-03 -7.24670710e-03 -7.58503377e-03
    -2.21858621e-02 -5.12546208e-03 -8.23768694e-03 -5.18735591e-03
    -5.21424599e-03 2.24805274e-03 -4.24654270e-03 -1.34491045e-02
    -1.56228282e-02 -2.61283983e-02 -4.20946302e-03 1.07074541e-03
    1.45807974e-02 5.45537611e-03 1.68479199e-03 -3.94336786e-03
    1.15347747e-02 -5.26384823e-03 1.74303260e-02 -3.07496591e-03
    -1.16194924e-03 2.84379092e-03 1.32768564e-02 2.04252335e-03
    1.31545374e-02 -5.21313027e-03 -6.97189942e-03 -1.03814807e-02
    -1.61878988e-02 -2.66052336e-02 1.18095670e-02 9.26799839e-04
    2.45270762e-03 -1.31416898e-02 2.20559421e-03 -1.26286072e-03
    -2.35801865e-03 2.08244449e-03 1.20697599e-02 1.45278145e-02
    7.41240662e-03 2.04021297e-02 2.01685866e-03 -2.42466107e-03
    -5.01659757e-04 -4.05857852e-03 -1.53256627e-03 -1.80899780e-02
    -3.82412644e-03 1.58729888e-02 6.59860577e-03 -2.30203830e-02
    2.17549852e-04 -4.17588092e-03 5.44979819e-04 7.62303686e-03
    -7.48471171e-03 6.10979460e-03 -3.50322807e-03 -6.05273293e-03
    -5.98323811e-03 -2.85195690e-02 -2.62518902e-03 -1.12258876e-02
    -1.08874720e-02 1.04643079e-03 2.38794996e-03 6.89836743e-05
    2.44290028e-02 2.10023558e-04 1.26362769e-02 9.36029106e-03
    4.93857823e-03 1.20365177e-04 1.89029740e-03 1.61561705e-02
    5.43589285e-03 1.42087359e-02 -1.24431672e-02 -1.34034790e-02
    4.81062056e-03 2.91479658e-02 -1.01023773e-02 1.79805551e-02
    8.52689322e-04 6.70150807e-03 -2.59193461e-02 -2.11777817e-02
    -2.95623690e-02 -1.63307078e-02 -1.83201861e-02 -2.30976995e-02
    -9.25451517e-03 4.12089191e-03 -1.89106271e-03 2.30234545e-02
    -5.51663898e-03 -9.83667094e-04 2.69394577e-03 -6.63903961e-03
    -1.19983929e-03 -4.63583414e-03 -5.21431956e-03 -1.07775640e-03
    1.37390289e-02 1.17163435e-02 -1.18106268e-02 1.33303984e-03
    1.18127400e-02 -1.90583579e-02 8.80471896e-03 -1.23623488e-02
    -9.70570557e-03 -2.19319500e-02 -1.49117159e-02 -1.96935143e-03
    -1.79202575e-02 2.18436215e-02 4.57803905e-03 1.38184419e-02
    5.54634305e-03 2.25046016e-02 -1.99655965e-02 1.37090785e-02
    3.27035086e-03 8.92174430e-03 1.99082941e-02 2.20839642e-02
    3.56699154e-03 -8.59683007e-03 2.59267036e-02 1.49071794e-02
    -1.72286816e-02 -3.44774779e-03 -7.45680882e-03 7.53480149e-03
    -4.39694198e-03 -1.45999277e-02 -1.61455162e-02 -2.14045960e-03
    1.38219539e-02 -4.77680052e-03 1.38553986e-02 -1.93714723e-03
    -1.88713074e-02 -1.59845371e-02 -1.40964426e-02 1.15629788e-02
    1.11398362e-02 1.18139647e-02 3.93062644e-03 -7.69969635e-03
    -1.52434967e-03 9.09443421e-04 -1.21522443e-02 7.42966216e-03
    9.83495358e-03 -5.45370067e-03 -1.29351788e-03 3.65997758e-03
    -3.48777301e-03 5.72657026e-03 2.65360367e-03 1.09885558e-02
    2.24952190e-03 1.78752514e-03 3.72498739e-03 1.38288336e-02
    -5.34739532e-03 -4.95116739e-03 -1.73940079e-03 -5.36861923e-03
    4.17966628e-04 6.86202617e-03 -1.03895413e-02 -2.88388948e-03
    4.64602746e-03 1.67296827e-02 -1.47220623e-02 -7.26226065e-03
    -6.38157420e-04 4.09861887e-03 2.07229238e-02 1.86038204e-02
    1.01722050e-02 -6.30686153e-03 -5.60386945e-03 1.78265851e-03
    -7.12143956e-03 1.91021953e-02 -4.83581889e-03 1.68706942e-02
    -4.47492721e-03 -8.22717976e-03 -1.16742803e-02 -3.72136687e-03
    -6.01081131e-03 -1.25346500e-02 -1.47625152e-03 -5.71107212e-03
    1.30611267e-02 3.22738808e-04 -2.26233574e-03 6.16576755e-03
    9.66686476e-03 4.47449740e-03 4.99868812e-03 1.46132587e-02
    1.40567189e-02 -1.29511701e-02 1.29788322e-03 9.83881950e-03
    -6.97493693e-03 1.11003704e-02 -8.92478786e-03 -8.64428282e-03
    1.40548656e-02 -5.69060957e-03 2.63528456e-03 2.03660615e-02
    -3.64897074e-03 -1.45674935e-02 -2.14539878e-02 2.41798651e-03
    -4.69715288e-03 2.02560946e-02 4.72623715e-03 -7.30022846e-04
    5.91129065e-03 1.67330168e-02 -1.11466879e-02 -3.20529961e-03
    1.75801525e-03 -7.06513738e-03 1.40729873e-02 5.82407741e-03
    -1.01244720e-02 2.04262557e-03 1.23406266e-04 -7.67612411e-03
    9.89481155e-03 -4.17294167e-03 2.00184248e-02 -1.11447508e-02
    -2.66467314e-03 -1.87542383e-03 -2.06420831e-02 -4.96632699e-03
    1.01093668e-02 -5.16021485e-03 -1.18063996e-02 -1.75085049e-02
    1.31814303e-02 7.20173994e-04 -3.89356958e-03 2.31057480e-02
    1.39047299e-02 5.22997347e-04 -1.13547314e-02 -1.46072367e-02
    1.59751531e-02 1.03048123e-02 4.93236165e-03 1.30782211e-02
    -3.21845454e-03 4.52783611e-03 5.60838915e-03 -1.38562021e-03
    -1.11778802e-03 2.97441538e-02 -6.04816526e-03 4.29930119e-03
    9.15451348e-03 -7.55550759e-03 -1.26969651e-04 3.37937521e-03
    6.18857594e-05 -8.31094012e-03 -1.15768157e-03 -1.21655585e-02
    9.11610085e-04 -1.66794397e-02 6.22833986e-03 1.00834593e-02
    6.42046984e-03 -2.34389137e-02 -1.23868687e-02 1.03811817e-02
    3.81154101e-03 8.91638082e-03 1.86504703e-03 3.59307532e-03
    -6.09111926e-03 2.10771803e-03 1.10054516e-05 -3.29322764e-03
    2.10219063e-03 -1.46551174e-03 1.49277982e-03 2.28401870e-02
    -1.71578750e-02 1.62987795e-03 -8.30786489e-03 -7.05430564e-03
    -1.87297296e-02 1.01329833e-02 -2.15352979e-02 9.55136120e-03
    -3.14466353e-03 2.90547521e-03 2.16631242e-03 -3.93594522e-03
    -2.58608498e-02 1.57582617e-04 4.82010189e-03 1.67098700e-03
    -7.06469407e-03 -1.65436271e-04 -5.41630946e-03 1.35534713e-02
    6.56125229e-03 -2.48992536e-03 -1.18263438e-02 1.14475796e-02
    -3.95457773e-03 2.27668579e-03 1.38462521e-02 1.98454270e-03
    9.51451831e-04 -1.41347013e-02 -1.00397458e-03 -5.69441728e-03
    9.83575545e-03 7.89588410e-03 6.30677398e-03 2.97427899e-03
    -8.10240209e-03 8.08026455e-03 -1.34882918e-02 -4.79340181e-03
    3.75510240e-03 1.79214608e-02 -3.66992666e-03 1.97649337e-02
    -2.50276085e-02 2.22366229e-02 1.41898021e-02 3.01061268e-03
    -3.80635192e-03 -1.01274084e-02 -5.31005301e-03 -1.77541021e-02
    -1.45870671e-02 -1.68688595e-02 1.14548495e-02 -1.61491067e-03
    -2.67686718e-03 1.17669562e-02 -1.74772879e-03 2.77333893e-02
    -6.69774716e-04 7.52983149e-03 -3.70175741e-03 1.21159316e-03
    1.78013425e-02 -1.20316520e-02 -9.36431624e-03 8.75941769e-04
    -1.39473528e-02 -6.05887594e-03 -7.93609116e-03 -1.12410681e-02
    -6.38768915e-03 -3.78528563e-03 -5.03286347e-03 -1.01476181e-02
    -4.18675458e-03 9.01477598e-03 -1.22603625e-02 4.29274328e-03
    -1.70175377e-02 1.49343098e-02 3.44399805e-03 2.91016698e-03
    7.24964961e-03 1.68225821e-03 3.06053343e-03 -1.06601380e-02
    -6.57999888e-03 -1.22273937e-02 6.73236791e-03 -4.61911812e-04
    -1.60808992e-02 5.67950867e-03 -1.06443197e-03 1.24221817e-02
    8.06044601e-03 2.20590085e-03 -3.68291582e-03 1.43559370e-03
    2.12450651e-03 5.66933583e-03 -1.50798671e-02 -8.48604273e-03
    -6.30614301e-03 -1.10141970e-02 1.36646880e-02 2.73638964e-03
    -2.17056349e-02 -1.90657899e-02 2.68096104e-03 -4.17765183e-03
    2.79512000e-03 -2.55626976e-03 2.04192620e-04 4.98080533e-03
    -8.12597480e-03 1.85305644e-02 1.15611628e-02 -1.06168306e-02
    8.97092931e-03 -1.28496680e-02 2.14904808e-02 -1.74791012e-02
    -4.06444538e-03 -1.06154988e-02 1.07134543e-02 -1.17228637e-02
    3.70795839e-03 -5.48782700e-04 1.73643522e-03 6.05540758e-04
    -5.88816532e-04 2.02761609e-02 -3.41676921e-03 -1.86201185e-02
    3.77450837e-04 6.16509374e-03 1.08504733e-02 6.29931642e-03
    -9.47836228e-03 -5.74207539e-03 -1.33301914e-02 -7.25737400e-03
    -1.04517089e-02 -4.54398617e-03 2.79526063e-03 -1.15728974e-02
    -6.55398564e-03 2.18845066e-02 -6.60736638e-04 6.54432224e-04
    -1.56449769e-02 1.62017625e-02 -8.28807242e-03 -7.75223318e-03
    1.28213223e-03 -8.20562430e-03 4.34148824e-03 -2.02989094e-02
    5.80827938e-03 -1.42654013e-02 2.76431944e-02 1.78001437e-03
    1.63998194e-02 2.26340573e-02 1.04184151e-02 -8.27248953e-03
    -3.01302713e-03 -5.11291716e-03 -1.30629074e-02 -3.97056295e-03
    -1.09724896e-02 -9.26352665e-03 6.86759944e-04 -6.10868155e-04
    -2.79815984e-03 1.58545356e-02 -2.69405544e-03 -8.66645761e-03
    5.60654420e-03 5.67646790e-03 1.10835917e-02 -4.04423522e-03
    -5.86629473e-03 1.00933705e-02 -1.58745851e-02 2.11795745e-03
    -2.00959388e-02 1.64307822e-02 -8.49684991e-04 1.33823417e-02
    1.88334659e-02 -1.29635530e-02 -1.92954228e-03 -2.29284130e-02
    8.00395326e-04 1.18309537e-04 1.56139769e-02 -5.66655211e-03
    6.07984932e-03 3.45066679e-03 6.03206316e-03 1.30230449e-02
    1.11896414e-02 -4.21426166e-03 -1.89520605e-02 -2.12960923e-03
    8.57821573e-03 -7.13228481e-03 5.72307361e-03 1.78956520e-02
    -1.52880158e-02 -9.22789611e-03 -3.78417480e-03 -7.02190911e-04
    1.30469794e-03 1.99463638e-03 3.53237870e-03 -8.52819998e-03
    -1.73204672e-02 -8.69432557e-03 -1.33838551e-02 2.73502967e-03
    -1.46805020e-02 5.44663984e-03 -2.39654933e-03 1.04602296e-02
    1.45548501e-03 -1.54798776e-02 -1.68527029e-02 -1.22811096e-02
    1.27834929e-02 1.67032552e-03 1.83536950e-02 -4.62492928e-03
    -2.81955069e-03 -7.50966079e-04 2.38400027e-02 -2.64615170e-03
    1.17469579e-02 9.79334675e-03 -1.15199648e-02 -5.40840579e-03
    -7.54143298e-03 3.75446421e-03 -1.07962149e-03 1.57198887e-02
    -6.16543228e-03 -3.26464372e-03 3.14784399e-03 8.18719435e-03
    -9.69723053e-03 -6.79103658e-03 2.37147487e-03 -3.46258911e-03
    -4.95058857e-03 -6.94377627e-03 1.65282621e-03 1.03278244e-02
    3.79864569e-03 9.06119123e-03 2.85628717e-03 3.52857728e-03
    1.36363925e-03 -1.66970100e-02 -1.37133421e-02 -1.71328224e-02
    -2.04459112e-03 -1.76790114e-02 3.28784669e-03 3.36712366e-03
    1.04154535e-02 -2.50385869e-02 2.04457957e-02 -1.81565266e-02
    -3.49495956e-03 1.27707766e-02 -1.11279013e-02 -1.69209447e-02
    -1.05643915e-02 3.30459839e-03 1.56999286e-03 5.65292640e-03
    -6.70558400e-03 -5.41070127e-04 -1.95420138e-03 -6.05261978e-03
    -4.21590498e-03 1.16135599e-02 -7.34508457e-03 -1.23568941e-02
    -3.22375726e-03 -1.59300049e-03 -6.67493034e-04 -1.19386379e-04
    -1.04568526e-02 7.79482815e-03 7.38331210e-03 7.74013437e-03
    -1.64820496e-02 -3.35540846e-02 -3.02773621e-03 1.49720665e-02
    -2.52164644e-03 3.29528865e-03 -2.73701479e-03 -9.89996269e-03
    -1.96659863e-02 -1.56926103e-02 1.16453413e-02 -1.02828033e-02
    -6.98666181e-03 3.56424227e-03 3.60982562e-03 9.16536618e-03
    2.15626019e-03 1.16128568e-02 -2.94436235e-03 4.34651785e-03
    -1.23218065e-02 2.39426065e-02 -1.58477984e-02 7.28097511e-04
    -3.02355341e-03 1.52048664e-02 -1.61482431e-02 -2.62167454e-02
    -1.14361551e-02 5.73371770e-03 7.53600895e-03 -1.09175341e-02
    -5.48142986e-03 -1.64962988e-02 -8.21653381e-03 -5.98821836e-03
    -6.49909908e-03 -1.02449059e-02 -2.55973153e-02 1.94523707e-02
    6.69840164e-03 -1.28123751e-02 -1.68766640e-02 1.24160526e-02
    -8.74331500e-03 1.39380703e-02 1.11106532e-02 -7.71902641e-03
    -5.36950585e-03 -1.69448610e-02 -2.03170851e-02 -1.72424205e-02
    1.05536385e-02 7.63834640e-03 -2.13617124e-02 3.80667089e-03
    -2.53798161e-02 9.72934533e-03 -1.08306473e-02 9.82317235e-03
    5.55061596e-03 9.68436617e-03 -6.95226388e-03 1.53072621e-03
    8.04498512e-03 1.28446706e-03 -8.06710031e-03 -5.80655760e-04
    -1.72371604e-02 8.70149583e-03 1.90756819e-03 5.54535864e-03
    -5.88593353e-03 3.50179942e-03 -1.00808768e-02 2.03378103e-03
    6.99862838e-03 -4.25808737e-03 2.03004666e-03 -1.52369775e-02
    -1.68208033e-02 -3.67916119e-03 1.13174748e-02 -2.55737803e-03
    -1.00371800e-02 8.31570011e-04 2.62876786e-03 1.80123132e-02
    5.49433799e-03 4.86280210e-03 -1.34158030e-03 -8.93976726e-03
    1.03934873e-02 5.24181267e-03 -1.88247487e-03 5.17943827e-03
    -1.33753875e-02 6.43967243e-04 3.09184869e-03 1.37194572e-02
    2.89458781e-03 -2.24190904e-03 -1.51124243e-02 1.03876526e-02
    4.05041827e-03 1.50483362e-02 -3.62709560e-03 -1.63367111e-02
    -7.31301494e-03 2.05536056e-02 -3.35057080e-03 1.06474701e-02
    -1.27158146e-02 4.36737901e-03 2.44437042e-03 -9.77107882e-03
    -1.09538473e-02 -5.96698467e-03 -6.41998276e-03 7.25613255e-03
    8.00133776e-03 4.69723251e-03 1.48668047e-02 -6.19600236e-04
    1.77049376e-02 -7.09645869e-03 -2.90804834e-04 -9.87412501e-03
    6.53815223e-03 2.46366523e-02 1.98883307e-03 4.35917079e-03
    -2.54003908e-02 -8.47801752e-03 -3.30279488e-03 -1.32089341e-02
    4.18877025e-04 -5.29863080e-03 1.47577394e-02 -5.03936643e-03
    5.91543922e-03 2.17414796e-02 -9.71668027e-03 -1.90912522e-02
    -1.95118841e-02 -8.46726447e-03 2.93235993e-04 5.47710946e-03
    -6.49184920e-03 -6.48628734e-03 1.91950833e-03 8.62201303e-03
    -1.15052527e-02 4.82953945e-03 -1.19688576e-02 1.70411856e-03
    8.54461268e-03 4.04294301e-03 4.98311315e-03 -2.08668364e-03
    1.04033099e-02 5.17208874e-03 -8.69369693e-03 3.16756289e-03
    9.39091668e-03 1.25556113e-02 1.07735358e-02 -6.07375428e-03
    -2.86886794e-03 2.99420953e-03 -8.14863667e-03 -2.18428615e-02
    -1.41621865e-02 -6.24837633e-03 1.55289071e-02 -4.66165598e-03
    -1.49942643e-03 1.70741156e-02 1.44321762e-03 8.48158542e-03
    3.33486730e-03 -1.72001421e-02 1.12351906e-02 -4.40782076e-03
    -2.83869263e-03 1.07791964e-02 -3.51259043e-03 9.97671741e-04
    -7.03682250e-04 1.36433532e-02 -8.63447599e-03 6.87960815e-03
    3.78580042e-03 1.13240909e-02 7.88210984e-03 7.46973651e-03
    3.09212250e-03 6.66024676e-03 -1.53743597e-02 -6.44723186e-03
    1.04626557e-02 -2.80245137e-03 8.47123272e-04 6.31060731e-03
    -1.80748291e-02 2.68190331e-03 1.98500021e-03 -8.33605230e-03
    -1.89781487e-02 1.80805344e-02 -5.16422605e-03 7.94239435e-03
    -5.46250260e-03 5.59663214e-03 -7.45524000e-03 7.46929902e-04
    1.99827645e-03 5.02272183e-03 6.25585532e-03 -2.84969178e-03
    2.99537112e-03 9.76778939e-03 -4.24247980e-03 1.02285733e-02
    2.14522015e-02 -1.01777613e-02 -1.66524835e-02 5.78767015e-03
    4.05117730e-03 1.86250370e-03 5.28363045e-04 -2.09587696e-03
    -1.24556124e-02 -3.33344028e-03 -9.81983263e-03 -1.76891405e-03
    2.40814919e-03 -1.04640620e-02 -2.50483659e-04 8.39529280e-03
    -7.74296699e-03 -5.34199225e-03 4.16044658e-03 7.46756978e-03
    -8.06060806e-03 1.32566122e-02 -7.79366819e-03 2.91484571e-03
    6.30507572e-03 1.52555725e-03 -3.35301715e-03 4.07491205e-03
    -1.88936610e-02 -4.42909123e-03 1.79566517e-02 2.05920241e-03
    1.25654917e-02 -3.38975433e-03 2.52625393e-03 1.82790160e-02
    4.42264648e-03 -5.68846473e-03 -6.19547861e-03 -2.06911121e-03
    -2.22508819e-03 -7.87317287e-03 3.34902341e-03 -8.50127172e-03
    -1.31719932e-03 -8.72371253e-03 -2.47449754e-03 -2.05760589e-03
    2.08710018e-03 -2.81579583e-03 2.24845367e-03 1.51295261e-02
    9.12807137e-03 9.13812593e-03 1.60234943e-02 9.93251521e-03
    4.47226921e-03 2.74706632e-02 3.68242105e-03 1.34037435e-02
    -2.04838384e-02 1.27757983e-02 9.48695652e-03 -6.93920068e-03
    -2.14108359e-02 3.49466107e-04 5.29932510e-03 3.66632151e-03
    -5.25648380e-03 -5.94312977e-03 -7.87599571e-03 4.86519537e-04
    -2.79465038e-03 -8.15598760e-03 -2.31808284e-03 1.04420958e-02
    2.04915535e-02 5.23407664e-03 7.61551736e-03 4.98653343e-03
    1.70723367e-02 3.40449112e-03 6.87850127e-03 -8.39240290e-03
    6.47876924e-03 8.93748552e-03 -2.49647954e-03 2.81737489e-03
    -6.14827499e-03 8.74631386e-03 6.06028223e-03 -1.32073322e-02
    1.39358884e-03 1.42151527e-02 1.61345061e-02 1.62279569e-02
    -4.39271610e-03 8.14878475e-03 1.86431389e-02 -5.93224121e-03
    -1.38508091e-02 -6.12269621e-03 7.38707429e-04 1.75024511e-03
    -1.53383391e-03 -9.63881612e-03 -5.81676373e-03 -1.58436783e-02
    2.05305335e-03 6.92510372e-03 4.57444461e-03 1.84275005e-02
    1.51445325e-02 -2.22931174e-03 4.64060018e-03 5.45379007e-03
    3.03753782e-02 4.75404970e-03 -5.28786192e-03 -3.18632461e-03
    5.13816718e-03 8.98120552e-03 -1.53194496e-03 9.54401586e-03
    2.75750132e-03 -1.14508178e-02 -2.40154401e-03 -1.33465212e-02
    -2.37191631e-03 -1.74831729e-02 -6.52435410e-04 1.76905040e-02
    -1.44308396e-02 1.49169005e-03 6.94019720e-03 6.74287323e-03
    6.55853236e-03 9.22633335e-04 -1.54133886e-02 4.28239990e-04
    -5.42962179e-03 -5.38944826e-03 7.90934451e-03 -1.51463766e-02
    9.76491719e-03 -7.94587750e-03 5.12080314e-03 4.21758322e-03
    1.16446260e-02 5.18165296e-03 5.71242021e-03 4.03540209e-03
    9.17146855e-04 1.26550090e-03 -4.75045899e-03 -4.06206865e-03
    6.43183338e-03 1.27011575e-02 -1.17361620e-02 -9.34618060e-03
    -4.14801249e-03 -2.19408772e-03 -1.06000919e-02 -2.40731817e-02
    3.71727138e-03 -1.39406491e-02 -1.74989495e-02 2.32852087e-03
    -1.26066171e-02 5.29887388e-03 -2.16760039e-02 -8.87077488e-03
    -1.59429647e-02 -1.25615327e-02 4.80392808e-03 4.95738932e-04
    -5.08024218e-03 -3.40356678e-03 2.61603687e-02 1.57806445e-02
    7.52690760e-03 -4.19318071e-03 1.27122982e-03 1.40171330e-02
    8.89249984e-03 -6.00978406e-03 -1.81933085e-03 -4.39626025e-03
    -4.47481638e-03 -5.14065288e-03 -8.97714868e-03 6.02623494e-03
    -9.80025996e-03 -2.72229011e-03 3.16235935e-03 -9.23871528e-03
    4.97081317e-03 -2.04008701e-03 3.33608710e-03 -1.14005152e-02
    -2.62599811e-03 3.42767057e-03 -4.87231882e-03 6.07772218e-03
    -1.69657692e-02 1.27054676e-02 2.97487574e-03 4.05049976e-03
    -1.16477895e-03 3.08062835e-03 -1.48848128e-02 1.45995361e-03
    3.27630248e-03 -5.32005215e-03 1.88166890e-02 1.06325997e-02
    1.16713243e-02 -1.04587823e-02 1.20732812e-02 7.79155968e-03
    -3.71033838e-03 1.44543517e-02 -8.48000124e-03 -5.53587079e-03
    6.64151786e-03 5.05524687e-04 -1.31458580e-03 1.60402339e-02
    -2.38890145e-02 -1.08835530e-02 -3.80587357e-04 -2.47702957e-03
    4.66954568e-03 -1.53716858e-02 4.23956569e-03 -1.68992691e-02
    8.00199993e-03 -5.52134181e-04 3.54900188e-03 6.00631488e-03
    -1.45373885e-02 1.28075872e-02 9.59656574e-03 1.24251172e-02
    -1.96965970e-03 -7.67872855e-03 -1.15928054e-02 -7.43773859e-03
    1.98270101e-02 1.98975410e-02 9.81067307e-03 2.47402489e-03
    8.94397125e-03 3.98795353e-03 2.19456870e-02 -7.48165371e-03
    3.12236580e-03 9.98683739e-03 2.75783823e-03 -6.61880197e-03
    -2.09904630e-02 7.97000621e-03 -1.08159855e-02 1.48834912e-02
    -1.01556620e-02 5.36033604e-03 -1.00049179e-03 -7.26936734e-04
    -6.40474074e-03 -5.72233833e-03 -1.05095720e-02 4.89504782e-05
    3.62305902e-03 -4.05701622e-03 -6.53442880e-03 2.14773547e-02
    6.50145952e-03 -3.54949210e-04 2.68522743e-03 1.16820885e-02
    5.77019248e-03 -1.21392701e-02 5.52546512e-03 -3.77535500e-04
    1.45839406e-02 1.42894303e-02 1.03704515e-03 1.19134979e-02
    -6.04402134e-03 -6.73883222e-03 5.96352248e-03 -7.77310180e-03
    8.79287813e-03 3.24619981e-03 -1.51447020e-02 -4.20995243e-03
    -1.42732111e-03 -1.03632314e-02 -1.67519208e-02 -4.34125820e-03
    -1.11555606e-02 5.48576284e-03 4.89405007e-04 -1.07277534e-03
    6.61823526e-03 1.86293256e-02 -1.38016492e-02 -2.67881714e-02
    -1.78844184e-02 8.39743204e-03 -1.62183796e-03 1.09769497e-02
    -3.50196916e-03 1.13045191e-02 8.99379328e-03 -2.81541678e-03
    -1.62447784e-02 -1.81535482e-02 -3.62724037e-04 1.55888563e-02
    -9.77123622e-03 5.99818770e-04 -2.00535287e-03 1.80854443e-02
    -3.88642936e-03 -2.79670805e-02 -8.47820565e-03 -3.90136801e-03
    1.38059147e-02 1.48408655e-02 -9.82934143e-03 9.44697019e-03
    -4.41846251e-03 -8.41832813e-03 -1.90633852e-02 1.02591992e-03
    -7.77704827e-03 2.09220350e-02 -4.60262178e-03 2.41417065e-02
    5.31326630e-04 1.09674335e-02 4.95720701e-03 -1.95785873e-02
    -3.20448889e-03 -8.79760925e-03 6.60755904e-03 -5.20176580e-03
    -1.60519201e-02 -9.59623791e-03 1.71816740e-02 1.14698673e-03
    -2.33389623e-02 -5.78199886e-03 -2.46434100e-02 1.61952469e-02
    -1.93262391e-03 5.12525300e-03 -7.48867309e-03 2.08489671e-02
    1.57476566e-03 7.57884840e-03 3.93835362e-03 -1.21055506e-02
    4.69583692e-03 5.50651038e-03 6.26660511e-03 1.21392147e-03
    3.44419573e-03 2.50560977e-03 -4.48742649e-03 -1.45947170e-02
    -9.23778769e-03 1.84947643e-02 1.23289386e-02 4.52871528e-03
    1.08158756e-02 -8.67563486e-03 -1.87852257e-03 -9.83797363e-04
    1.59044694e-02 -1.09061515e-02 -2.29136515e-02 4.92691202e-03
    1.56782428e-03 1.56430732e-02 -7.86026567e-03 -2.00184155e-03
    4.19637508e-05 2.56171043e-04 -1.30373682e-03 -2.12841178e-03
    -5.40437235e-04 -1.09976390e-03 -8.50291364e-03 -4.26596170e-03
    -1.79716421e-03 8.42461083e-03 1.20858173e-03 3.05499672e-03
    -5.65870432e-03 1.34030508e-03 1.54289473e-02 2.50285789e-02
    -6.26497809e-03 7.13248504e-03 2.30709487e-03 6.40477287e-03
    5.05497679e-03 3.31342011e-03 -7.09731923e-03 1.46737890e-02
    2.32494459e-03 1.62732434e-02 1.85478982e-02 -6.57831784e-03
    -9.00940225e-03 -1.91294850e-04 -2.25038105e-03 3.14600463e-03
    -5.38923685e-03 -1.98054535e-04 1.14300596e-02 -5.94744412e-03
    -5.43581787e-04 -1.51050452e-03 -5.59819443e-03 -8.68057553e-03
    -5.44561166e-03 -1.95433921e-03 -1.58821400e-02 -2.21102107e-02
    -9.55747906e-03 -1.11905495e-02 -4.71362378e-03 -5.55209070e-03
    -4.19238675e-03 -6.37135841e-03 1.40863406e-02 2.47854888e-02
    2.10278574e-02 2.19495837e-02 -1.27953198e-02 6.17779046e-03
    -1.96626782e-02 8.61640647e-03 -5.44164889e-03 -4.66480246e-03
    1.57788694e-02 6.93410216e-03 1.06287180e-02 -6.95104618e-03
    -6.55728299e-03 -9.78280883e-03 3.55590205e-03 -7.36994727e-04
    2.33373721e-03 6.49491441e-04 4.08078748e-04 3.07552959e-03
    -1.30339917e-02 4.57249722e-03 -6.39062654e-03 -1.17545538e-02
    -1.42732738e-02 -3.09116673e-02 -1.01780212e-02 -7.31950998e-03
    -1.22060711e-02 -3.28021497e-03 7.01319380e-03 -9.60739795e-03
    -5.29154018e-03 -1.02169402e-02 -8.42393003e-03 1.26989866e-02
    3.38514410e-02 8.87579471e-03 -8.83925147e-03 -1.74128672e-03
    1.26571418e-03 6.31658779e-03 1.58186704e-02 3.62764066e-03
    -1.90315321e-02 1.08236223e-02 -5.01912693e-03 -1.59211289e-02
    8.75300844e-04 2.22518621e-03 -4.60730493e-03 -4.09454573e-03
    -1.02362623e-02 1.03171011e-02 1.73526967e-03 -1.69627578e-03
    -8.39733798e-03 -8.63664784e-03 4.31258557e-03 -7.25210970e-03
    -1.37416646e-02 -1.40557243e-02 -1.12402532e-02 4.54347115e-03
    6.84709521e-03 6.77942717e-03 6.87412871e-03 1.14499331e-02
    8.82652309e-03 1.99912097e-02 1.45881968e-02 -1.06546422e-02
    1.20083857e-02 7.80855166e-03 -7.31987413e-03 2.18572514e-03
    4.44650277e-03 1.66565329e-02 9.31219291e-03 8.88494309e-03
    -7.55533064e-03 1.46158237e-03 -1.15297865e-02 -3.22077074e-03
    -9.78595298e-03 5.28279226e-03 -7.50327529e-03 -2.19562347e-03
    -2.16299519e-02 -9.44786519e-03 -1.23798531e-02 -5.05793467e-03
    -9.43055190e-03 4.51122690e-03 -1.07877254e-02 -1.14078010e-02
    -2.84279021e-03 -5.63005800e-04 -6.34369534e-03 -5.24018193e-03
    -1.45622296e-04 8.83197226e-03 -1.00980327e-02 9.53524094e-03
    4.18222882e-03 1.74168032e-02 1.82050522e-02 5.38130291e-03
    -1.47882139e-03 -9.62993503e-03 -1.61031280e-02 7.11025717e-03
    -1.13008264e-02 1.30899847e-02 2.92375567e-03 4.26967349e-03
    5.16434107e-03 2.65450380e-03 1.88899739e-03 8.00283253e-03
    5.62282652e-03 -2.27365340e-03 -1.19591400e-03 -3.31052090e-03
    -1.25858104e-02 -1.61907598e-02 -1.49654662e-02 -3.28845810e-03
    4.05366765e-03 -7.98975024e-03 -6.46197237e-03 1.14054326e-02
    -5.70257148e-03 4.37556067e-03 -4.29239497e-03 -7.98684545e-03
    1.44442096e-02 -4.93672444e-03 6.18768041e-04 -4.57227789e-03
    1.02516357e-02 -1.21436361e-02 -6.56533986e-03 -1.22069044e-03
    -8.03496689e-03 1.29285473e-02 7.33379181e-03 -3.44507559e-03
    1.06030311e-02 -8.58661532e-03 3.40121193e-03 1.30150942e-02
    -7.44245201e-03 -7.99750723e-03 1.66450869e-02 7.54092913e-03
    -6.83699315e-03 -7.56804366e-03 1.19399587e-02 9.09384282e-04
    3.54029326e-04 4.32822591e-04 -1.68271305e-03 8.03893246e-03
    -8.89698230e-03 -1.46219907e-02 6.60278648e-03 5.99431805e-03
    -1.41212819e-02 -9.16082878e-03 -2.68834382e-02 3.87206348e-03
    3.10057658e-03 -1.88532881e-02 -9.71322646e-04 4.26871935e-03
    4.95125167e-03 1.24325184e-02 1.07793408e-02 -5.70346229e-03
    4.95319907e-03 1.51522458e-02 7.43565522e-03 -6.90681208e-03
    2.12826133e-02 -2.56939279e-03 -1.48468214e-04 4.21040552e-03
    -6.92384224e-03 -6.79551251e-03 8.97795986e-03 -1.13338707e-02
    -1.69711001e-02 -9.95545462e-03 3.04763811e-03 -1.03448192e-02
    -5.85133443e-03 5.69508877e-03 2.41458453e-02 1.59184949e-03
    -1.50279617e-02 -6.29232079e-03 -7.09814299e-03 8.19685217e-03
    -1.48258135e-02 -1.37267495e-02 -3.99030600e-04 -7.87102990e-03
    -1.86173257e-03 -1.39616234e-02 4.13546944e-03 1.46437464e-02
    8.95242486e-03 -4.82054660e-03 -3.53806063e-05 6.16660714e-03
    5.69073542e-04 3.96149058e-04 -9.85050853e-03 1.81927835e-03
    4.12480161e-03 7.84417801e-03 -4.94459458e-03 -1.63529802e-03
    1.67051869e-04 7.82284886e-03 -2.17774679e-04 -6.99551729e-03
    2.09693494e-03 -6.66776299e-03 2.58159149e-03 -4.53612488e-03
    -3.83287342e-03 1.55643485e-02 6.95635425e-03 3.85509222e-03
    -1.57873016e-02 -1.08274585e-03 8.92447121e-03 4.31636581e-03
    -2.24342942e-02 -1.44333551e-02 -1.13061501e-03 -9.33282357e-03
    -7.47944741e-03 -1.27848415e-02 5.47277695e-03 -1.25012815e-03
    1.01903165e-02 2.02456047e-03 -8.93412624e-03 1.23622669e-02
    1.06983827e-02 1.20561691e-02 -1.79768598e-03 -3.04147514e-04
    3.73534183e-03 -1.76360700e-02 -7.84678292e-03 1.63536295e-02
    1.25113083e-02 9.24044382e-03 -9.35960840e-03 -1.74474251e-02
    6.94108382e-03 8.48815660e-04 -9.06765088e-03 -6.79939939e-03
    -1.21830180e-02 5.05514862e-03 -1.24901421e-02 4.08894569e-03
    -8.16757977e-03 3.96081107e-03 -1.32231085e-04 -1.03670470e-02
    1.29089365e-03 6.17974205e-04 2.15673689e-02 6.25290617e-04
    1.81433260e-02 -6.95883343e-03 6.01529796e-03 9.32187587e-03
    -2.21725274e-02 -1.79286674e-03 6.14578743e-03 5.54247713e-03
    1.00159170e-02 3.40038398e-03 2.22562253e-03 -3.86611675e-03
    -7.96936732e-03 4.26889677e-03 -3.83494026e-03 6.39669551e-03
    1.29835634e-02 9.83672123e-03 -1.47885662e-02 -2.56656744e-02
    1.23731885e-02 1.16427746e-02 -5.71092637e-03 1.14785309e-03
    -1.70943551e-02 -3.18432838e-04 -1.50797504e-03 8.03525094e-03
    6.74520899e-03 1.13784540e-02 -2.83758529e-02 -2.55374163e-02
    6.45621773e-03 -1.64082721e-02 1.30130164e-02 -5.67079382e-03
    3.63907544e-03 1.55159808e-03 1.22088660e-02 2.72746943e-03
    4.09091264e-03 5.64826373e-03 -1.00719174e-02 1.07306037e-02
    9.66642704e-03 -1.09554986e-02 -1.30243571e-02 9.64861084e-03
    -5.87337324e-03 -8.18960648e-03 5.73402504e-03 6.18370075e-04
    -2.47486914e-03 -2.68571805e-02 -1.25638125e-02 -1.53602473e-02
    1.84781440e-02 -9.21961479e-03 -1.03125311e-02 6.46117050e-03
    -3.99073539e-03 -1.00232975e-03 -1.83896546e-03 2.61069275e-03
    1.26486989e-02 -1.15860475e-03 -1.64796803e-02 -2.80692405e-03
    -6.15465641e-03 -1.70642417e-02 1.09921498e-02 9.64198168e-03
    -7.94244558e-03 9.26572364e-03 2.37982143e-02 7.01843621e-03
    2.60539702e-03 1.08677084e-02 2.43054517e-03 -1.68641191e-02
    -1.21559659e-02 -1.38726560e-02 -1.07646845e-02 5.12386160e-03
    2.78677465e-03 -5.68333268e-03 6.36802102e-03 -3.04499874e-04
    1.14560816e-02 -5.61089208e-03 1.55158723e-02 9.66126285e-03
    3.09621356e-03 -4.86570643e-03 5.02755400e-04 -8.68650270e-04
    -1.57692768e-02 6.80897199e-03 7.25640496e-03 -1.08047351e-02
    2.48241681e-03 -7.73373106e-03 -7.41644297e-03 9.93638951e-03
    1.00265620e-02 1.06321098e-02 1.18644908e-02 1.99170392e-02
    -7.23939901e-03 -2.05901116e-02 3.54442024e-03 1.79930124e-02
    -1.38873933e-02 1.03492255e-03 -3.90452472e-03 1.15407782e-03
    -1.00428695e-02 9.89001710e-03 -2.42285058e-03 -2.22064201e-02
    -1.59045290e-02 1.62117952e-03 -7.48612278e-04 -6.61962898e-03
    9.38682258e-03 8.29734933e-03 1.44666927e-02 -1.81736127e-02
    -1.15402443e-02 3.04724183e-03 9.99867357e-03 7.98680261e-03
    -1.86676364e-02 1.68986674e-02 3.79120000e-03 -1.24296984e-02
    -1.62440967e-02 -6.63224282e-03 -6.13076612e-03 1.08747445e-02
    -1.90751720e-02 1.71118043e-02 1.59012880e-02 2.13018786e-02
    1.04454188e-02 -8.30616616e-03 -1.21946763e-02 -8.98105931e-03
    1.25703140e-04 5.41211898e-03 -1.68874282e-02 -1.30751659e-03
    -1.73447523e-02 7.27998884e-03 -1.33613041e-02 -1.62097514e-02
    -7.44782155e-03 -1.44665199e-03 -2.54153321e-03 -1.25581550e-03
    8.84394161e-03 -5.54412277e-03 1.22080026e-02 -1.29783917e-02
    -5.05601941e-03 4.64857602e-03 6.75662607e-03 -1.31456554e-02
    4.53114416e-03 4.72874613e-03 7.97870290e-03 9.03767813e-03
    -9.21655633e-03 -5.69702452e-03 2.49244436e-03 1.01942904e-02
    -4.84122150e-03 7.09767640e-03 1.00577902e-02 -7.84625765e-03
    2.01940234e-03 1.98289799e-03 2.75182130e-04 -2.37854663e-03
    6.40041661e-03 1.14760213e-02 -6.84353942e-03 1.17733125e-02
    -2.70767719e-03 1.48139307e-02 6.50289934e-03 -4.77138534e-03
    -1.59502272e-02 -4.33119945e-03 1.76383578e-03 -3.74231813e-03
    3.32408748e-03 -2.35716552e-02 -1.73971243e-02 -1.15249436e-02
    4.49084304e-03 1.03106918e-02 -1.23906014e-02 4.01254324e-03
    1.56863108e-02 1.75310094e-02 -7.47123617e-04 9.86960344e-03
    8.65461116e-05 5.40811976e-04 3.69993038e-03 -1.80853717e-02
    3.00328102e-04 1.10912463e-02 1.87253524e-02 1.76075120e-02
    8.37808196e-03 1.00730835e-02 -2.57641752e-03 -1.61046404e-02
    -1.63876675e-02 1.44391442e-02 7.98024144e-03 1.02893235e-02
    -5.32028917e-03 -5.66332461e-03 -1.54309636e-02 8.88897106e-03
    1.57031249e-02 1.34796742e-03 -1.25490325e-02 1.77896321e-02
    -2.38799974e-02 9.80303902e-03 5.81399119e-03 1.21253133e-02
    -1.45574594e-02 -3.10395751e-03 -8.01316649e-03 2.41009938e-03
    6.87484909e-03 2.32571904e-02 1.05175786e-02 5.02286246e-03
    -8.80430546e-03 1.67453643e-02 -4.44573630e-03 -3.97490896e-03
    -1.47205926e-02 -1.43952984e-02 1.13207530e-02 -9.47818160e-03
    1.75674055e-02 6.44619996e-03 -7.18274619e-03 -8.37390125e-03
    -1.35967406e-02 8.09654361e-04 -9.53678787e-03 -8.55619181e-03
    9.56265442e-03 1.03093060e-02 2.62564630e-03 5.45977289e-03
    -2.63933223e-02 -9.83509142e-03 -1.54248560e-02 7.96424970e-03
    -3.85783333e-03 -4.62725013e-03 -1.82987768e-02 -2.18248880e-03
    5.61626209e-03 -1.18225385e-02 -1.39968777e-02 -1.67418364e-02
    -2.04513315e-02 1.42166149e-02 1.49913803e-02 6.26609707e-03
    -1.19078544e-03 1.30891958e-02 9.97732114e-03 -6.43841515e-04
    9.24331602e-03 -3.28908372e-03 -1.13545638e-02 -4.64046933e-03
    -2.53890897e-03 -7.74944900e-03 3.46869766e-03 -2.55192723e-02
    -1.25366189e-02 -1.75844450e-02 -1.56434700e-02 1.22641921e-02
    4.13570274e-03 -2.33305153e-02 -6.23076165e-04 -1.50126601e-02
    -2.20282450e-02 -1.81049556e-02 -4.51965025e-03 -3.71464225e-03
    -9.42752324e-03 -9.81075317e-03 -1.94647405e-02 -1.00207748e-02
    7.79169437e-04 1.36589576e-02 -8.48509185e-03 1.43844923e-02
    9.47995402e-04 -1.54356109e-02 3.60348728e-03 -1.14451745e-03
    -1.00735985e-02 -2.61074654e-03 7.42884073e-03 1.87282465e-04
    1.08086020e-02 -1.84270332e-03 -3.93491331e-03 -6.71355287e-04
    -1.63229574e-02 -1.53284427e-03 -5.11189224e-03 -1.49871306e-02
    -2.52528340e-02 -3.37551493e-04 2.02605524e-03 3.31181241e-03
    9.88000445e-03 -1.43863373e-02 3.33366171e-03 4.00961842e-03
    -1.08726704e-02 -1.81905795e-02 -1.78281665e-02 9.92720015e-04
    1.30850272e-02 3.17106256e-03 2.03004032e-02 9.72913206e-03
    -1.52622806e-02 1.62148140e-02 -1.15180761e-03 1.10239601e-02
    1.25769014e-03 -1.08342823e-02 9.65582440e-04 -2.34090183e-02
    -1.96413789e-02 -4.91965003e-03 -1.50826797e-02 3.25953471e-03
    -6.73060166e-03 -1.57002434e-02 7.72052957e-03 3.43421940e-04
    -8.30984768e-03 1.56793743e-02 -1.64992046e-02 -1.04561877e-02
    -1.40270088e-02 8.14458297e-04 6.13165367e-03 1.09521290e-02
    -9.66345426e-03 -5.28710289e-03 -1.17034372e-02 7.00506195e-03
    6.75667659e-04 1.34837534e-03 -1.00744953e-02 -1.57980565e-02
    4.95459884e-03 7.07077561e-04 7.01777358e-03 -2.40131430e-02
    -1.05528990e-02 -4.27814899e-03 1.26357647e-02 -4.61121229e-03
    -2.46188920e-02 -1.89913474e-02 -1.11523205e-02 -3.04055051e-03
    2.67827907e-03 -6.70820987e-03 3.91357951e-03 -2.83214846e-03
    -3.66653409e-03 1.20601314e-03 -7.15372665e-03 -1.53474631e-02
    -1.20758545e-03 2.26498087e-04 3.02595808e-03 -5.05480776e-03
    7.07380427e-03 -7.99999107e-03 -8.68574530e-03 9.34934057e-03
    2.32446895e-04 1.18083619e-02 -1.21302297e-02 -1.13613047e-02
    -2.64561968e-03 7.66029069e-03 -7.70102488e-05 -5.98263275e-03
    -1.46898590e-02 -2.07752804e-03 5.06535964e-03 -1.54845323e-02
    -7.76064815e-04 4.40627756e-03 6.99500181e-03 1.07263364e-02
    -4.46055504e-03 -2.06253445e-03 -8.96903034e-03 -1.42901161e-04
    -1.14668021e-03 -7.09384074e-03 1.27426172e-02 4.25379304e-03
    -7.68530648e-03 -4.53646388e-03 -1.88429691e-02 -1.28209814e-02
    9.51273274e-03 -6.68916805e-03 4.04928811e-03 -6.38426002e-03
    1.31242964e-02 1.98561791e-02 -9.87109728e-03 -1.93856296e-03
    -2.53428728e-03 -4.87957802e-03 -7.34008290e-03 -6.22193795e-03
    3.60393454e-03 -7.16829998e-03 -2.27891770e-03 -1.86922072e-04
    -5.96458372e-03 -1.92742664e-02 -8.85399338e-03 -4.37051174e-04
    2.89002273e-05 1.79259870e-02 1.52939018e-02 3.49564303e-04
    -2.88709463e-03 9.20573156e-03 -7.04584527e-04 9.37091000e-03
    2.00978038e-03 -3.09602520e-03 2.17621564e-03 1.04639295e-03
    -6.17936766e-03 -7.20502483e-03 -8.27564299e-03 3.36964056e-03
    3.85591947e-03 -8.29445373e-04 -3.90337477e-03 -1.10162972e-02
    5.16808731e-03 1.45497182e-02 -1.73121027e-03 -3.48853134e-03
    -1.38090830e-02 -3.77358240e-03 -3.21563496e-03 -6.32948708e-03
    -4.81440453e-03 4.76393616e-03 -1.25875156e-02 1.14362072e-02
    -5.53434191e-04 6.76861452e-03 -1.52439554e-03 -6.39495580e-03
    8.86989571e-03 3.26438993e-03 1.12428628e-02 -2.98568077e-04
    -1.20791467e-02 1.05921330e-03 7.47467799e-04 1.27645079e-02
    1.12625500e-02 1.43181691e-02 5.05458331e-03 -2.18036380e-02
    -9.42678936e-03 3.85065703e-03 3.10504460e-03 1.40802208e-02
    1.27266755e-03 -2.87403585e-04 -8.27838085e-04 -1.61219463e-02
    -4.88992129e-03 -5.04614878e-03 1.72987464e-03 1.12927407e-02
    1.50684537e-02 1.08682197e-02 -3.48983891e-03 -1.10199675e-02
    -1.13635277e-02 6.90336293e-03 1.44726103e-02 1.87576152e-02
    -3.45322369e-05 -2.46395357e-03 9.60551295e-03 -4.96014254e-03
    6.32256875e-03 6.85655093e-03 -2.27659829e-02 -1.02095911e-02
    -6.04726840e-03 -1.19446088e-02 -7.84745812e-03 8.55291821e-03
    -1.35789555e-03 4.83297603e-03 -3.32178175e-03 -4.35728533e-03
    -4.22131328e-04 2.88346037e-03 1.02382610e-02 1.23067629e-02
    -1.30946608e-02 -2.07820293e-02 -1.18489545e-02 -5.01970621e-03
    6.17378741e-04 1.24651687e-02 9.15443432e-03 -3.64498212e-03
    7.31984735e-04 2.38844808e-02 -1.25426203e-02 -1.29203955e-02
    1.62110273e-02 -6.20816555e-03 -1.82861052e-02 -5.30117359e-06
    -3.81244184e-03 -1.76227011e-03 -3.80980270e-03 -1.72571111e-02
    1.56514789e-03 -6.41027139e-03 1.32113718e-03 -7.86281656e-03
    -2.07928102e-02 3.25757405e-03 -3.25065386e-03 -1.50804827e-02
    -1.47569375e-02 1.37503501e-02 -1.39135877e-02 -1.75508708e-02
    1.24458680e-02 -2.34613009e-03 1.13550073e-03 -2.31087841e-02
    -1.95033774e-02 -1.62493978e-02 -1.99720282e-02 1.34222023e-02
    -5.08551672e-03 -1.57764871e-02 -6.23379508e-03 -1.25655578e-02
    -1.40105956e-03 5.01603540e-03 -1.09601356e-02 -5.81790507e-03
    1.29560698e-02 -2.53254222e-03 -5.60762919e-03 1.98769057e-03
    -1.56459142e-03 -5.05507272e-03 -3.09810764e-03 4.95837303e-03
    2.30248328e-02 -2.66692112e-03 -2.04116968e-03 6.95160404e-03
    2.74564419e-03 -7.68227084e-03 -1.12410933e-02 -2.22025085e-02
    -4.73462604e-03 -2.73605110e-03 -4.17742133e-03 -1.72285754e-02
    -8.46136827e-05 -2.93258205e-03 1.84504222e-02 -5.93347428e-03
    4.68394998e-03 -4.18578135e-03 1.27829798e-03 1.35679031e-02
    -7.46046333e-03 -6.94953545e-04 1.24121970e-03 -8.03765468e-03
    5.32941613e-03 1.47967541e-03 8.81368481e-03 -1.48501797e-02
    -1.74186498e-04 -2.39499845e-03 5.50033932e-04 2.95071222e-04
    1.08154919e-02 3.39582749e-03 1.78736746e-02 -6.67436747e-03
    2.25547701e-03 1.41972769e-02 -3.32629425e-03 -4.05754382e-03
    -7.10155908e-03 2.17020232e-03 -9.95853916e-03 5.56109520e-03
    3.15168756e-03 -1.38777941e-02 -1.92359220e-02 3.64699913e-03
    1.18969772e-02 1.86023791e-03 1.15086753e-02 5.57043357e-03
    5.87904872e-03 -7.69118592e-03 -3.59958201e-03 2.58440874e-03
    -9.05400421e-03 -3.40988481e-04 1.37470791e-03 2.35219044e-03
    7.43493112e-03 7.31690321e-03 -2.86209816e-03 -1.86582189e-02
    -1.22157121e-02 1.19956797e-02 6.55723596e-03 6.15913235e-03
    6.74593076e-03 -5.37592685e-03 1.47357425e-02 -1.81172490e-02
    -9.00474284e-03 -1.22527021e-03 -1.12088257e-02 2.21737311e-03
    -1.32900262e-02 4.47320752e-03 -4.18492220e-03 1.07842626e-03
    -7.14784954e-03 -1.49668418e-02 -1.31934630e-02 1.13876257e-03
    6.93394337e-04 1.82968855e-03 1.44083006e-02 6.30936446e-03
    6.88665360e-03 2.59428611e-03 -1.10630819e-04 -5.64181386e-03
    -2.83387094e-03 -9.47304245e-04 -1.39501542e-02 -8.32055975e-03
    -2.20988989e-02 4.25963150e-03 -1.60885043e-02 -9.90700722e-03
    2.65719066e-03 -1.31093627e-02 -4.61099856e-03 9.21748672e-03
    9.30216350e-03 1.50808934e-02 1.02306558e-02 -7.76353525e-03
    -5.81389386e-03 -9.08557419e-03 5.50225796e-03 3.80629278e-03
    -4.96611290e-04 1.89176947e-02 4.49003652e-04 9.45086125e-03
    1.32052740e-02 -1.37363980e-02 -2.03005895e-02 -6.67859102e-03
    -4.80094086e-03 -2.29647346e-02 1.61604192e-02 -1.91085152e-02
    -1.17485719e-02 -1.04180025e-02 1.00486316e-02 1.41430064e-03
    -4.31275787e-03 -1.14826150e-02 -7.86731858e-03 1.82977493e-03
    -7.71415594e-04 1.37199657e-02 1.08246533e-02 1.64779723e-02
    9.61747300e-03 -1.84260197e-02 -7.76915392e-03 -2.88713654e-03
    -1.29507082e-02 -2.00250675e-03 -2.62781177e-02 9.23896581e-03
