<?xml version="1.0"?>
<opencv_storage>
<SVMmodelV_-_3 type_id="opencv-object-detector-hog">
  <winSize>
    80 104</winSize>
  <blockSize>
    16 16</blockSize>
  <blockStride>
    4 4</blockStride>
  <cellSize>
    8 8</cellSize>
  <nbins>9</nbins>
  <derivAperture>1</derivAperture>
  <winSigma>4.</winSigma>
  <histogramNormType>0</histogramNormType>
  <L2HysThreshold>2.0000000000000001e-01</L2HysThreshold>
  <gammaCorrection>0</gammaCorrection>
  <nlevels>64</nlevels>
  <signedGradient>0</signedGradient>
  <SVMDetector>
    8.21572263e-03 2.39904243e-02 5.57375432e-04 2.01811567e-02
    1.38526158e-02 7.48397456e-03 -5.70108881e-03 2.47223303e-03
    -1.21135330e-02 -1.09008718e-02 -7.19315326e-03 -1.26547124e-02
    -9.65472590e-03 2.46597989e-03 -4.34062909e-03 -1.57806594e-02
    -8.49198084e-03 -2.03797538e-02 1.02328649e-02 -7.13253627e-04
    2.40613101e-03 5.27920155e-03 -4.28853324e-03 1.08874766e-02
    -6.12653466e-03 5.91679534e-04 6.20158715e-03 5.11616189e-03
    1.40906721e-02 -9.49890912e-03 1.05959093e-02 -6.00180263e-03
    7.01444922e-03 -3.96605348e-03 -1.08664762e-02 -5.60794771e-03
    -6.11398695e-03 7.45015731e-03 -1.45403622e-02 1.06360605e-02
    4.44552721e-03 4.29921038e-03 -9.01315548e-03 -7.42270332e-03
    -1.12141026e-02 -1.65224099e-03 -1.78557856e-03 -8.51629674e-03
    -2.08197930e-03 1.95193142e-02 -5.38985664e-03 -1.56861618e-02
    2.60747951e-02 -6.16448186e-03 -5.30465366e-03 8.15069303e-03
    2.85147224e-03 4.24574967e-03 1.71345565e-03 7.55280768e-03
    -5.65000158e-03 4.31378884e-03 4.91057103e-03 1.03668515e-02
    1.82586983e-02 1.39758447e-02 1.88471191e-02 1.08474102e-02
    -1.31873973e-02 2.41568219e-03 2.78427149e-03 2.95216101e-03
    -4.11313912e-03 2.47354805e-03 -1.41630406e-02 5.48361428e-03
    1.27256736e-02 8.21557920e-03 -1.98841207e-02 1.53030325e-02
    -9.81242117e-03 1.61298532e-02 7.11076846e-03 -2.53013726e-02
    3.88289872e-03 2.44156388e-03 -1.21469218e-02 -2.09546871e-02
    -5.51233243e-04 -2.27047666e-03 -6.30806608e-04 8.55996925e-03
    6.44170400e-03 2.80791055e-02 3.93855432e-03 4.55478998e-03
    1.36976480e-03 5.26964525e-03 -3.45226028e-04 1.86822508e-02
    1.15595637e-02 -9.06594284e-03 -2.36640428e-03 6.41697505e-03
    -8.61964375e-03 2.87507032e-03 -4.58436145e-04 -2.28015846e-03
    8.87624547e-03 6.50194520e-03 -2.01009922e-02 1.87152554e-03
    5.27588977e-03 1.23651316e-02 -7.82703701e-03 2.10636351e-02
    -5.53513039e-03 9.49462596e-03 3.19085550e-03 6.46970002e-03
    -1.84880558e-03 2.60511842e-02 9.35602468e-03 -1.20128794e-02
    -1.31884543e-02 5.41295484e-03 1.92052852e-02 1.30205397e-02
    -7.82713108e-03 7.14937225e-03 -2.65148003e-03 9.28696431e-03
    5.05216885e-03 3.25777731e-03 -5.97575260e-03 1.13726445e-02
    2.26156339e-02 6.69219485e-03 3.29294358e-03 1.66261010e-02
    1.95681787e-04 1.28269531e-02 2.27894541e-03 -6.13598805e-03
    1.57959796e-02 -8.86849477e-04 -1.15530584e-02 -2.25042608e-02
    2.32538357e-02 -8.69172718e-03 -8.58827494e-03 -1.29701458e-02
    1.08098658e-03 1.65243465e-02 9.26064700e-03 7.27296993e-03
    8.01345799e-03 3.33314128e-02 -2.44834297e-03 -1.88249275e-02
    -1.80481616e-02 8.10860563e-03 -4.95671201e-03 5.02660964e-03
    -6.22803112e-03 -3.76134366e-03 4.22975630e-04 -8.60979035e-03
    1.42947864e-02 -1.53944094e-03 -1.93462297e-02 -1.03062624e-02
    -2.68773036e-03 3.94403189e-03 1.79636315e-03 3.44325900e-02
    7.31653348e-03 1.06216799e-02 -2.05130572e-03 2.96982774e-03
    2.15397179e-02 -1.46616215e-03 -1.43663562e-03 -1.48536079e-02
    2.50300784e-02 5.20587957e-04 -2.23623514e-02 -3.19254883e-02
    -8.11202917e-04 9.60528385e-03 1.10187633e-02 -2.34125461e-02
    -7.01533630e-03 1.66544542e-02 -1.29878148e-02 -1.65222455e-02
    -5.77347213e-03 -7.59749394e-03 -3.95279564e-03 6.68061944e-03
    2.22887611e-03 -2.40416476e-03 5.08948136e-03 -1.12501867e-02
    5.66235324e-03 -6.65278686e-03 -1.14730634e-02 -1.77897271e-02
    -1.40211545e-02 -2.20162887e-03 -8.61842837e-03 2.13214997e-02
    -5.44006517e-03 -1.63188041e-03 -3.34044383e-03 5.70218870e-03
    1.60692465e-02 4.94384253e-03 -9.06769652e-03 -5.30602969e-03
    2.12441906e-02 -1.48034785e-02 -1.02907037e-02 -1.69596616e-02
    -1.01044243e-02 1.45906750e-02 8.58614128e-03 -5.59798395e-03
    -1.46831917e-02 5.70595916e-03 1.30590959e-03 2.85681640e-03
    6.26569754e-03 -1.26362648e-02 -1.79008339e-02 -1.14003634e-02
    -2.21843808e-03 3.05745006e-03 1.31444419e-02 -2.10725493e-03
    -4.74724220e-03 -1.55433789e-02 -9.02009197e-03 -4.23766440e-03
    -8.30477104e-03 -3.13612376e-03 -1.86634250e-02 -1.17381469e-05
    6.05242606e-03 1.39013426e-02 -5.66110201e-03 9.66626592e-03
    3.81936901e-03 1.28372880e-02 -5.60591556e-03 -6.88024750e-03
    1.12833064e-02 9.86720715e-03 1.93023924e-02 8.73539690e-03
    -5.88061195e-03 1.42940897e-02 4.00844775e-03 -1.06269289e-02
    1.92950573e-02 1.60312206e-02 -9.00741667e-03 -1.29023790e-02
    9.80522390e-03 9.83857643e-03 -3.37091414e-03 -4.37718001e-04
    6.66925800e-04 -1.25044445e-02 8.44364148e-03 -1.47212541e-03
    2.09343005e-02 2.35573342e-03 3.82565922e-04 -2.10496248e-03
    -1.04519725e-02 1.40053201e-02 -2.01775264e-02 7.68203940e-03
    1.04594203e-02 -5.35438303e-03 6.97086286e-03 8.05668812e-03
    9.89862904e-03 4.57336474e-03 -3.04209505e-04 2.01359130e-02
    8.36281758e-03 -1.14602465e-02 -6.28217636e-03 1.21165598e-02
    4.97034704e-03 3.31016593e-02 2.15093382e-02 -1.72193591e-02
    -3.78207513e-03 1.26786912e-02 -2.38519218e-02 -1.87827963e-02
    2.28356360e-03 8.99339840e-03 1.98438112e-03 -8.36611819e-03
    9.76956449e-03 -1.05430540e-02 4.20083874e-04 -3.67994909e-03
    -3.58377490e-03 6.19683554e-03 1.78981724e-03 4.82184533e-03
    7.61501770e-03 1.53135825e-02 -1.92597657e-02 -2.09105527e-03
    -6.65373961e-03 1.00189457e-02 8.30199663e-03 1.18473303e-02
    2.69091334e-02 1.83398277e-02 -1.99142490e-02 -5.04279102e-04
    5.14353625e-03 -1.59290861e-02 -2.09668204e-02 -8.20602197e-03
    4.74707037e-03 1.47995707e-02 -5.16590429e-03 -1.09009249e-02
    4.16214578e-03 1.20793991e-02 6.10492192e-03 -3.54047702e-03
    -3.03131901e-02 1.10282311e-02 -2.33256281e-03 9.32069554e-04
    1.18557177e-02 -3.75596294e-03 -1.66560803e-03 1.06199719e-02
    4.97691426e-03 -9.48747620e-04 1.43441148e-02 -5.50811319e-03
    -4.34198882e-03 -3.16199474e-03 -6.59994828e-03 1.07860193e-02
    -5.48782013e-03 8.33982788e-03 1.12186773e-02 -3.93845839e-03
    1.72287002e-02 8.30877200e-03 -1.41996462e-02 1.23744719e-02
    2.24054679e-02 7.95250945e-03 -1.44069446e-02 -2.50758324e-02
    6.46109766e-05 7.56402686e-03 1.03991069e-02 -3.34097771e-03
    -1.42595414e-02 4.80909692e-03 2.04963330e-02 9.37828678e-04
    -9.02506523e-03 7.18571665e-03 -1.03506399e-02 -2.76592863e-03
    -6.10907609e-03 1.32136233e-02 5.45698823e-03 6.24597957e-03
    2.71481439e-03 -2.62210425e-03 -1.09837251e-02 -6.51723985e-03
    1.25173414e-02 1.60556138e-02 4.27913805e-03 1.81801785e-02
    -4.59533092e-03 3.85163818e-03 4.07516537e-03 1.63073163e-03
    7.13841431e-03 1.13753211e-02 -1.95639743e-03 2.57189455e-03
    8.85140151e-03 1.68468300e-02 -1.26020415e-02 -8.43279529e-03
    6.96056290e-03 -5.01930015e-03 2.02460289e-02 -1.23717505e-02
    -3.54620046e-03 1.40017429e-02 4.23067808e-03 -1.11852260e-02
    9.74793080e-03 5.42092603e-03 -1.04766320e-02 6.53050747e-03
    4.82076686e-03 5.65835554e-03 1.39283221e-02 -4.39754361e-03
    7.44762272e-03 -8.25096853e-03 -4.08784254e-03 -1.06829973e-02
    3.88269313e-03 -7.86278956e-03 1.63485166e-02 5.25570381e-03
    1.27851311e-02 8.48785602e-03 1.15066310e-02 -2.88702734e-03
    -1.47043285e-03 1.26539711e-02 -4.80153877e-03 -1.31149525e-02
    2.15395149e-02 5.36865834e-03 -9.44791734e-03 1.56763922e-02
    1.14226770e-02 -1.39857288e-02 -3.45565495e-03 -2.39764228e-02
    1.14842393e-02 1.97026860e-02 6.57061255e-03 -5.36033534e-04
    1.84698254e-02 -6.56184833e-03 -4.01239609e-03 6.24289457e-03
    -1.61449108e-02 1.42721424e-03 1.59713868e-02 9.22890659e-03
    -8.15077801e-04 1.16314674e-02 6.27474021e-03 2.79063568e-03
    5.85516216e-03 9.38831270e-03 1.08365444e-02 -2.66750739e-03
    -3.17224720e-03 -1.16182677e-03 -6.63915242e-04 -1.61690898e-02
    -7.43673556e-03 -7.55872531e-03 -1.58042703e-02 9.78068635e-03
    1.74957924e-02 -4.39778343e-03 -4.79242951e-03 1.89525392e-02
    -3.32594523e-03 1.03277736e-03 2.58203060e-03 -4.72863874e-04
    -1.02271503e-02 1.12274205e-02 -1.21574961e-02 2.43626093e-03
    2.53082998e-02 1.30617218e-02 3.08053382e-03 2.84647639e-03
    1.06963115e-02 -4.30076523e-03 3.02033196e-03 -1.04733612e-02
    -1.25105483e-02 -2.04116828e-03 -2.01749243e-02 3.14275129e-03
    3.15078557e-03 1.76645424e-02 -6.51917653e-03 3.68499593e-03
    -8.95930338e-04 7.03201164e-03 -5.37326187e-03 6.53595664e-03
    1.06310388e-02 1.28913308e-02 -1.12816466e-04 2.16923887e-03
    1.05180610e-02 -8.83271918e-03 5.06605778e-04 2.67695095e-02
    7.86578469e-03 -1.30765531e-02 1.23001775e-02 -3.35012330e-03
    5.15470700e-03 9.61599965e-03 -2.27265805e-03 -1.83573849e-02
    2.37267464e-03 -3.09918355e-03 4.34749614e-04 7.73551362e-03
    1.56960953e-02 -1.02625238e-02 -4.08894662e-03 -5.70193632e-03
    -7.67537719e-03 -1.64029617e-02 -6.73434045e-03 1.71533844e-03
    -3.31385108e-03 -1.19136302e-02 -1.71143077e-02 -8.44667107e-03
    8.44998285e-03 1.33946240e-02 -8.91244225e-03 2.02397211e-03
    -1.89467624e-03 1.85970347e-02 -9.27532092e-03 -1.30056590e-03
    5.15821436e-03 2.20266636e-03 -1.01939021e-02 5.06213447e-03
    1.81013420e-02 -3.00273355e-02 -4.75289393e-03 -1.01646525e-03
    6.74871728e-03 3.33401226e-02 -5.67407068e-03 -2.93877125e-02
    -1.30756544e-02 -1.57143418e-02 1.05022255e-03 -1.90420554e-03
    -7.19884830e-03 -7.05079874e-03 -1.56064583e-02 9.22071002e-03
    7.46565545e-03 -1.16569633e-02 3.66518972e-03 2.99600605e-03
    -1.55814909e-04 -2.60379142e-03 2.28776131e-03 1.40744364e-02
    -5.28243883e-03 1.65210746e-03 1.23713221e-02 -1.20407958e-02
    -2.09595542e-02 -6.96876086e-03 -9.73607320e-03 8.47902521e-03
    1.68807842e-02 -2.00589858e-02 -3.25099379e-02 -6.41295174e-03
    -1.52667332e-03 5.83991781e-03 1.43226935e-02 3.05529940e-03
    2.86660925e-03 -6.98382221e-03 6.35237806e-03 -2.70003662e-03
    2.04390865e-02 1.84669867e-02 -2.20520375e-03 1.51125074e-03
    -1.77932400e-02 -1.72474869e-02 -1.09176189e-02 -1.32026896e-02
    -4.94568318e-04 2.47711549e-03 -2.12071463e-02 7.13599660e-03
    1.53949499e-04 -2.23508594e-03 2.30346713e-03 1.94797851e-03
    1.61310360e-02 6.26742048e-03 1.30164968e-02 -1.18141910e-02
    6.45939726e-03 3.58002493e-03 -2.75134807e-03 -8.95486027e-03
    -3.64230061e-03 -9.53874830e-03 -4.68490273e-03 2.04155203e-02
    2.17140932e-02 1.55473296e-02 2.41460670e-02 -9.21613537e-03
    8.41790345e-03 6.11638464e-03 8.85804836e-03 -1.78477056e-02
    1.12173716e-02 1.61979196e-03 -5.13737276e-03 -4.37221350e-03
    -1.13446647e-02 1.37173003e-02 -1.33490190e-02 -1.76261738e-03
    -5.09294565e-04 7.01287715e-03 -2.43231431e-02 3.35945608e-03
    -2.00804882e-03 -5.07322606e-03 2.79960013e-03 -5.41989319e-03
    -1.80593804e-02 -1.31429136e-02 6.00072090e-03 -1.02291834e-02
    1.33119579e-02 2.39986666e-02 -9.35565401e-03 -4.05824697e-03
    3.28263664e-03 8.01492669e-03 -1.67304743e-02 1.45742996e-02
    4.60695662e-03 -3.68434726e-03 9.58787836e-03 -3.62378918e-03
    1.17290411e-02 6.81391731e-03 1.09023787e-03 -2.25948859e-02
    -4.45118500e-03 -9.67170577e-03 2.95914616e-03 -5.20881964e-03
    -4.21436876e-03 7.17159174e-03 2.05934537e-03 -1.79810617e-02
    -2.30329223e-02 -1.30652217e-03 -1.37499804e-02 3.54877743e-03
    -6.96650986e-03 -2.83342763e-03 1.10272237e-03 -7.55097205e-03
    -4.93423594e-03 -1.34627912e-02 -6.70343265e-03 2.19895941e-04
    -5.42134698e-03 1.07473359e-02 -1.02377804e-02 1.31933754e-02
    6.63924124e-03 5.65626426e-03 -1.84801575e-02 1.59502414e-03
    -1.27423126e-02 -1.32767670e-02 1.67875888e-03 -3.31629179e-02
    9.05719027e-03 2.53654122e-02 -1.30208749e-02 -5.65454410e-03
    -4.80559468e-03 -7.02817645e-03 4.19771811e-03 -5.79763146e-04
    -1.89897022e-03 6.97490480e-03 -2.47106166e-03 6.74866932e-03
    -7.07303779e-03 1.94496452e-03 -5.80606749e-03 2.71789823e-03
    -5.38690481e-04 -1.96482684e-03 -2.18839291e-02 -9.94284637e-03
    -1.12263691e-02 -9.86162480e-03 -5.86346025e-03 6.83469581e-04
    -1.19077535e-02 7.25567667e-03 -2.00702287e-02 2.84684338e-02
    2.15020925e-02 -7.66185392e-03 2.69642752e-03 9.43119451e-03
    -7.19001424e-03 -1.37282163e-02 1.14509873e-02 -1.34031139e-02
    1.09501863e-02 -2.91739893e-03 2.49686092e-03 -6.15379168e-03
    -4.60207369e-03 -5.21434098e-03 1.67056359e-02 3.16044083e-03
    -4.72246297e-03 -6.07123598e-03 2.27134605e-03 -3.49881803e-03
    2.91917147e-03 -6.98841782e-03 1.08527467e-02 -6.31643925e-03
    3.21665616e-03 -3.91733181e-03 -1.72590129e-02 -1.05500957e-02
    -6.69756532e-03 4.01400402e-03 -6.97131036e-03 -1.84997940e-03
    -1.97526813e-02 9.70072113e-03 -3.51273501e-03 1.31280078e-02
    2.43935324e-02 -1.10100803e-03 -5.13149658e-03 1.26705971e-02
    -1.50213833e-03 -5.65485330e-03 1.58654246e-02 -1.17669562e-02
    -4.14595706e-03 6.64268387e-03 1.73709833e-03 -1.72740836e-02
    1.78707205e-02 1.85993649e-02 3.99727933e-03 -8.71084980e-04
    -6.15518168e-03 -2.49019545e-03 8.00347771e-04 6.46756263e-03
    1.10765994e-02 3.32604366e-04 5.84603380e-03 1.61621496e-02
    1.69815812e-02 -8.00267607e-03 -5.75959822e-03 -2.82400986e-03
    -1.18298305e-03 1.71154365e-03 2.45523057e-03 8.06188490e-03
    -1.36663895e-02 1.85559392e-02 -9.30924341e-03 -8.87938682e-03
    -3.32086137e-03 1.34255318e-02 -3.54902726e-03 2.25970764e-02
    1.20707313e-02 -2.99472385e-03 9.22034681e-03 3.00302007e-03
    7.79554155e-03 1.55932512e-02 2.72236429e-02 -1.67937670e-02
    2.45833360e-02 1.71801448e-02 -1.88462262e-03 1.01317121e-02
    -7.74328131e-03 -1.08572189e-02 -6.31093187e-03 9.58035886e-03
    -2.60778447e-03 7.45724072e-04 1.05809467e-02 -1.06505109e-02
    -1.17473034e-02 -1.32800918e-02 -8.17326363e-03 -1.94722712e-02
    -2.48770532e-03 7.70364748e-03 -1.17982586e-03 2.31233630e-02
    4.55577206e-03 2.45899172e-03 -1.59158814e-03 2.25733640e-03
    -4.84915404e-03 8.49563535e-03 -1.25244819e-02 -5.41202398e-03
    8.66209157e-03 -1.95766781e-02 7.01624947e-03 -6.14230381e-03
    -1.92328484e-03 -4.59038280e-03 1.20469285e-02 -7.78235728e-03
    -7.81351142e-03 6.84963726e-03 -3.71628301e-03 -8.35526362e-03
    1.43586611e-02 1.74342897e-02 1.04239611e-02 1.96651183e-02
    -6.59904303e-03 2.26709782e-03 -4.65636957e-04 4.55095991e-03
    2.34642383e-02 4.28252248e-03 -1.05751120e-02 -1.20926127e-02
    2.35760976e-02 6.00228971e-03 1.66661926e-02 -1.63799543e-02
    -1.30345747e-02 3.80583666e-03 -1.96905079e-04 6.95859175e-03
    -2.34470866e-03 1.39625622e-02 -7.94002973e-03 -4.85898275e-03
    4.52565635e-03 -8.10040813e-03 8.82912707e-03 1.16176186e-02
    1.50010921e-02 2.71984347e-04 -5.57418074e-03 -1.47746066e-02
    -2.36526085e-03 1.25430888e-04 -3.78836598e-03 1.67659782e-02
    3.80034489e-03 -6.06935518e-03 -6.64308760e-03 1.84848942e-02
    -1.07954629e-02 1.28654130e-02 -5.11478167e-03 -2.41343724e-03
    1.17629406e-03 1.47050736e-03 -8.15732405e-03 -8.08291137e-04
    -2.50079413e-03 -5.63035207e-03 5.19774156e-03 -2.22133715e-02
    -1.81127731e-02 -8.69442825e-04 1.60836037e-02 1.90334562e-02
    -4.01484128e-03 8.10308009e-03 -2.04078779e-02 -7.23051466e-03
    8.41522962e-03 6.83251210e-03 6.31393492e-03 -4.73079085e-03
    -4.58116410e-03 -1.72443856e-02 -8.23123567e-03 -7.13918079e-03
    -6.86776766e-04 -2.49316986e-03 6.18273346e-03 8.82529840e-03
    -5.06950263e-03 1.31048393e-02 -3.47182006e-02 4.24901722e-03
    -1.16434740e-02 -9.96563770e-03 -1.77398901e-02 5.03321923e-03
    2.27138237e-03 1.11860186e-02 -1.56260319e-02 5.80254151e-03
    3.90414172e-03 8.41523614e-03 -6.94783079e-03 -1.01083703e-02
    2.09716223e-02 8.34761746e-03 -4.20140987e-03 7.68504152e-03
    -1.32821137e-02 1.12505788e-02 -8.13434180e-03 1.33223762e-03
    3.72701488e-03 -1.83148938e-03 1.41521804e-02 1.05805798e-02
    -5.29409107e-03 -6.87688030e-03 -1.55114867e-02 1.25573447e-03
    -5.25131589e-03 -6.51825825e-03 2.01912113e-02 -1.08927917e-02
    3.88346380e-04 -3.78374622e-04 3.07022245e-03 1.90318972e-02
    -4.18418180e-03 3.85966199e-03 4.24904423e-03 -1.64445303e-02
    -8.30505323e-03 -2.27653347e-02 1.30502749e-02 9.25512239e-03
    1.26452204e-02 1.11836372e-02 5.05470298e-03 -1.52022298e-02
    9.44514573e-03 2.79762479e-03 9.67494678e-03 -6.85767736e-03
    -1.12178996e-02 -1.27055375e-02 5.09990891e-03 3.34794656e-03
    -4.35458170e-03 8.17231310e-04 9.76799615e-03 1.83278900e-02
    8.55182856e-03 2.54350877e-03 -1.61699706e-03 2.35254853e-03
    -2.01029330e-03 8.44895653e-03 -1.99202448e-02 -1.72424503e-02
    -1.09469350e-02 1.06254099e-02 3.94943589e-03 1.16060106e-02
    1.70247871e-02 1.49259390e-02 -1.56553369e-02 -2.64700335e-02
    -4.25720529e-04 -1.91978775e-02 9.17024538e-03 1.92777906e-02
    -5.37579996e-04 1.97299197e-02 5.43713151e-03 9.44871176e-03
    4.92078904e-03 6.02688408e-03 1.92107521e-02 -1.60165131e-02
    -8.73371121e-03 -1.88831973e-03 8.28850269e-03 -3.20433901e-04
    -7.56430207e-04 -1.43739907e-02 -1.14663802e-02 -2.73525110e-03
    -4.92453715e-03 -7.20194774e-03 4.99014230e-03 -7.15904287e-04
    7.90796615e-03 1.08849665e-03 -1.50799835e-02 -5.34166163e-03
    -2.73985434e-02 -2.86000315e-03 -5.20864036e-03 -3.91389418e-04
    9.66547616e-03 1.28163490e-03 -5.94068377e-04 1.29300058e-02
    -3.57734883e-04 6.24522846e-03 1.06925871e-02 1.81810576e-02
    -1.88288424e-04 5.74171754e-05 7.02380668e-03 2.51065544e-03
    -1.13153951e-02 -3.50062735e-03 -2.06028955e-04 4.09631524e-03
    -5.77187282e-04 -6.49163194e-05 -7.65711116e-03 -7.43540050e-03
    -5.59177762e-03 -1.13583086e-02 -1.14369420e-02 -9.54979099e-03
    -1.15876207e-02 -1.11568449e-02 3.30689386e-03 2.20201025e-03
    -6.29205024e-03 -1.16968097e-03 7.22349109e-03 1.62078964e-03
    -1.15713163e-03 4.07393556e-03 1.22264186e-02 -4.47114883e-03
    -6.69607241e-03 6.65091490e-03 7.52569817e-04 -3.02484888e-03
    5.82873821e-03 9.74202808e-03 -9.17114317e-03 -2.03013001e-03
    2.66823545e-03 -1.24611703e-04 -4.48540179e-03 -6.87843421e-03
    -1.63213012e-03 -8.42084002e-04 2.27544131e-03 -8.29852652e-03
    8.70659947e-04 -4.29893099e-03 5.76101057e-03 -5.47416322e-03
    -2.16158875e-03 -1.18535369e-04 -1.76298642e-03 -6.22438747e-05
    -4.91416827e-03 2.65399320e-03 1.94075890e-03 -1.04501201e-02
    1.03806111e-03 9.78344213e-03 2.26626149e-03 5.37004275e-03
    -3.40708299e-03 -3.99820087e-03 7.11575244e-03 1.53658286e-04
    -1.33508453e-02 5.32678189e-03 -9.85433906e-03 -1.36871208e-02
    4.69541084e-03 6.28543552e-03 -1.33919977e-02 -2.15523224e-03
    7.01777730e-03 -9.11071617e-03 -1.16232261e-02 4.27506352e-03
    -6.54744823e-03 2.44807336e-04 7.22412998e-03 2.91705888e-04
    5.13854204e-03 -1.03418492e-02 -8.99170339e-03 3.44102457e-03
    1.45763159e-03 2.73647648e-03 7.05507118e-03 9.40015446e-03
    -2.94489972e-03 -6.54154457e-03 -7.40929833e-03 -5.96208591e-03
    -5.12409909e-03 1.32070584e-02 -1.54970493e-02 -9.48387373e-04
    -4.66682221e-04 -8.34650081e-03 -9.37174074e-03 5.00203436e-03
    -1.76824387e-02 -2.07184013e-02 -1.72209507e-03 -1.98720209e-02
    1.34502025e-02 3.36878351e-03 -7.90037680e-03 -5.63964155e-03
    -4.26482456e-03 -3.35944374e-03 6.71222061e-03 -5.39316272e-04
    -3.16853775e-03 5.71433455e-03 5.95064228e-03 -5.94908698e-03
    -1.53470319e-03 -9.50321928e-03 -8.88271816e-03 -5.60574885e-03
    1.32840546e-02 -1.50177898e-02 -3.28732654e-03 -4.78441594e-03
    8.39219603e-04 -5.31172147e-03 -1.65690705e-02 -1.87801896e-03
    -1.82388967e-03 -1.21236136e-02 -1.07184248e-02 2.78916280e-03
    2.29656999e-03 4.92129999e-04 -1.27279041e-02 -1.41790807e-02
    -8.07820354e-03 1.79572951e-03 -1.54096214e-03 -8.19201116e-03
    -2.54777074e-03 -9.35681537e-03 -1.97930913e-03 9.32436809e-03
    -7.27153430e-03 5.96214598e-03 -2.50810804e-03 1.20140205e-03
    -6.37748884e-03 -4.05379571e-03 1.23660930e-03 1.86073370e-02
    -5.98187139e-03 1.42221316e-03 -8.66367295e-03 -6.60109986e-03
    -3.00220982e-03 -4.09543747e-03 7.49939063e-04 -1.86845171e-03
    -5.21081500e-03 -4.96316561e-03 -1.16161220e-02 -1.73830846e-03
    5.93268452e-03 4.55296272e-03 -3.45480093e-03 -2.12952634e-03
    -1.34370374e-02 5.17294183e-03 -8.99470877e-03 -2.27016490e-03
    2.84104561e-03 -1.14130815e-02 2.25357036e-03 2.84828376e-02
    2.18582191e-02 1.11639882e-02 -5.93899796e-03 6.72292104e-03
    -6.09873375e-03 -1.18520914e-03 -1.11624156e-03 2.25439668e-02
    -4.43001697e-03 -6.29473664e-03 -2.72761772e-05 9.26046923e-04
    -7.00612832e-03 -8.29335488e-03 -6.17463794e-03 -9.05721608e-05
    3.38148046e-03 5.17945224e-03 -3.49964434e-03 -2.00652238e-02
    7.52434507e-03 -5.28136594e-03 8.69514327e-03 7.36784749e-03
    6.07226929e-03 4.63160221e-03 2.37708334e-02 9.75115318e-03
    5.12162829e-03 4.55243187e-03 -1.14058121e-03 -3.94520955e-03
    -7.30527379e-03 -1.19245462e-02 7.65551580e-03 -4.60504834e-03
    8.38844012e-03 1.07496663e-03 2.71073021e-02 6.02662051e-03
    1.06985839e-02 6.28784811e-03 -6.01398433e-03 1.47988629e-02
    1.32247689e-03 -1.10628512e-02 -1.37580400e-02 1.64617819e-03
    2.06954312e-03 1.02349948e-02 1.31651643e-03 1.67847518e-02
    1.54574942e-02 1.27046779e-02 -5.70286764e-03 -3.99093051e-03
    -1.48059579e-03 -6.97951810e-03 -1.21917259e-02 -7.12634670e-03
    1.92372769e-03 -3.15301232e-02 1.74432341e-03 6.29439438e-03
    7.18592387e-03 1.84417292e-02 1.74666923e-02 -3.92143708e-03
    -9.91109200e-03 -1.39899761e-03 1.91522576e-02 -1.29410792e-02
    4.81392676e-03 -1.47328351e-03 -3.52625200e-03 -6.51797792e-03
    1.83626618e-02 -1.04476716e-02 9.54968203e-03 4.32047807e-03
    1.15149291e-02 -3.67695605e-03 1.57107029e-03 -1.06532313e-03
    -7.72356149e-03 -5.17611671e-03 -6.48337277e-03 1.62078980e-02
    -2.11398918e-02 8.51015467e-03 1.20399296e-02 -3.08079296e-03
    -5.74210053e-03 1.54572306e-03 7.60550331e-03 -1.90995008e-04
    -1.75704597e-03 -1.07708341e-03 -3.40900570e-03 -2.43085762e-03
    3.45990038e-03 -1.37653900e-02 2.24342104e-03 6.08108891e-03
    -1.04122916e-02 5.71011426e-03 2.81945989e-03 -4.23782691e-03
    5.36200730e-03 -7.57660251e-04 5.99776953e-03 4.91064275e-03
    8.78241844e-04 -1.17976766e-03 1.60396134e-03 7.13594956e-03
    -1.47307618e-03 6.19057380e-03 6.13312528e-04 -1.06297750e-02
    -6.43039076e-03 2.63493886e-04 -8.59516859e-03 -2.98767060e-04
    -6.40580663e-03 9.52217635e-03 -6.46458706e-03 6.11312734e-03
    -1.12884315e-02 -1.05077904e-02 1.24146072e-02 -8.16881377e-03
    -1.31609924e-02 3.32891266e-03 -2.21711094e-03 1.71399835e-04
    -6.05001056e-04 3.82033782e-03 4.15135454e-03 -3.75457294e-03
    -7.40745151e-03 -1.21588295e-03 4.02938714e-03 1.04232357e-04
    -2.21768767e-03 1.98117178e-03 -4.02864534e-03 6.12358702e-03
    1.25501687e-02 -2.19931779e-03 4.36751079e-03 6.20556297e-03
    1.50572425e-02 -1.41508633e-03 3.78879951e-03 -2.55569862e-03
    -2.63873730e-02 4.22743056e-03 -6.20868150e-03 -9.53328051e-03
    1.43220155e-02 4.41002054e-03 8.32817703e-03 -6.37545809e-03
    -6.37223432e-03 -1.48831432e-05 9.50012414e-04 -1.63736269e-02
    -1.03769731e-02 -2.08961610e-02 8.34272429e-03 3.44188348e-03
    1.22783724e-02 -1.12608157e-03 -7.94752035e-03 4.32823179e-03
    -5.99587616e-03 -5.60019352e-03 2.51763756e-03 -2.54741870e-03
    -3.07918200e-03 3.50926304e-03 -1.09662535e-03 1.02606053e-02
    -9.70948488e-03 8.09629355e-03 1.05123287e-02 1.87524166e-02
    8.95289052e-03 9.94963385e-03 -5.93843032e-03 -7.50427553e-03
    -1.94704216e-02 -1.66043788e-02 -1.06369462e-02 2.73852749e-03
    -1.48033882e-02 3.42112593e-03 4.96381987e-03 -1.17321806e-02
    4.12231451e-03 -6.70149969e-03 1.37060843e-02 9.01228632e-05
    1.35409716e-03 -5.15142269e-03 -2.96248193e-03 5.89725468e-03
    -4.07468760e-03 2.65525072e-03 -4.60628280e-03 -2.33775415e-02
    3.29844281e-03 3.55882128e-03 1.03153419e-02 1.92539487e-02
    -3.33814824e-04 2.32512713e-03 -6.45211549e-04 8.38531274e-03
    1.00469578e-03 9.83837899e-03 -1.60444749e-03 6.66322699e-03
    -3.16439476e-03 7.66071165e-03 -1.42092407e-02 9.75397602e-03
    -7.28294952e-03 -7.73582491e-04 4.12699860e-03 -1.24250131e-03
    -2.13017222e-02 8.41275090e-04 1.01102917e-02 -4.48510703e-03
    1.35878185e-02 -1.25142336e-02 -2.11595353e-02 -1.07516004e-02
    1.59719866e-02 -1.18705425e-02 1.28335357e-02 -2.65806774e-03
    -1.06401683e-03 -1.05192722e-03 6.59012375e-03 2.47673783e-03
    6.71438128e-03 -1.83507502e-02 -1.02078086e-02 -2.56526750e-04
    -7.11961463e-03 1.00484760e-02 -2.69623380e-03 5.57151041e-04
    -6.20515225e-03 1.57732014e-02 -7.48397643e-03 -8.70030280e-03
    6.83746440e-03 1.18932908e-03 -4.11244808e-03 3.91064119e-03
    -5.66604687e-03 -1.15141105e-02 -1.97206419e-02 1.60800219e-02
    -1.33512029e-02 1.31909447e-02 1.80345587e-03 -5.14314277e-03
    -1.04079349e-03 -1.83174536e-02 6.22904301e-03 -1.28216445e-02
    -1.36744985e-02 1.23162998e-03 1.32895343e-03 -1.84831489e-02
    4.93949186e-03 -3.78161087e-03 6.43176259e-03 2.41445354e-03
    1.14017082e-02 -1.99099500e-02 -1.47147039e-02 2.46109813e-03
    -6.64145732e-03 1.99710652e-02 -5.77107864e-03 1.09929666e-02
    1.01910429e-02 1.09322579e-03 2.84377689e-04 5.05295070e-03
    8.89068469e-03 2.42383266e-03 -4.71023563e-03 4.85310983e-03
    -1.66517757e-02 6.54546544e-03 -1.11608990e-02 8.95791687e-03
    -1.81536961e-04 2.45225020e-02 -5.50522842e-03 -8.24258570e-03
    -2.19945386e-02 -1.00380108e-02 -3.47350491e-03 -1.01520158e-02
    -1.91007722e-02 1.11150462e-02 8.46818741e-03 -4.09154035e-03
    4.03094478e-03 6.70734793e-04 1.49290888e-02 1.16528375e-02
    1.98299647e-03 3.59824742e-03 1.42747187e-03 2.65795155e-03
    9.98363458e-03 9.77262203e-03 -1.54695120e-02 -3.38715781e-03
    -1.19992590e-04 7.61026284e-03 -2.06991774e-03 -1.41450996e-03
    2.59909891e-02 5.56557812e-03 -1.67703442e-03 3.86792119e-03
    -1.74459796e-02 -4.81211953e-03 -4.93437983e-03 -1.01882238e-02
    5.25637204e-03 3.41327558e-03 2.75709364e-03 -1.14613092e-02
    4.26900852e-03 -2.41643861e-02 8.31154827e-03 6.57587312e-03
    -1.51513070e-02 -1.25890495e-02 -2.70539755e-03 1.36936679e-02
    -2.14021609e-04 -1.51629988e-02 -9.26003733e-04 4.44316259e-03
    2.75086192e-03 5.47667325e-04 4.59723128e-03 -8.37289821e-03
    -1.77515694e-03 3.31559451e-03 -5.92858857e-03 -1.79107673e-02
    1.70053809e-03 1.29950037e-02 5.16805053e-03 -1.83942274e-03
    -1.47613848e-03 6.87140366e-03 -5.22734225e-03 7.17851007e-03
    -6.19925978e-03 2.58504151e-05 7.13424897e-03 -1.10950759e-02
    -1.37174269e-02 -2.46164552e-03 3.00478796e-03 -1.30867807e-03
    3.29035567e-03 3.45369079e-03 -8.51355400e-03 -9.24828928e-03
    -3.58535908e-03 5.63443918e-03 1.73808803e-04 5.26529737e-03
    -5.40797366e-03 -5.79054607e-03 -6.30117254e-03 -5.55471379e-05
    1.49017181e-02 5.38691878e-03 6.13349897e-04 2.15704124e-02
    1.21833514e-02 -1.85255967e-02 1.53497385e-03 -9.75200254e-03
    -1.49848191e-02 1.53800414e-04 2.29354575e-03 1.16984220e-02
    -6.17577229e-03 9.50033031e-03 2.58927187e-03 4.35000402e-04
    -8.36271967e-04 8.48376844e-03 -9.17971600e-03 2.08974467e-03
    9.80162295e-04 -1.20444521e-02 -8.40469729e-05 1.10439677e-03
    -2.26042443e-03 -7.21462304e-03 -4.03866550e-04 -3.96797620e-03
    -5.48823038e-03 8.45733657e-03 1.26055367e-02 1.65614169e-02
    -1.02760149e-02 2.54636107e-04 -1.24173518e-02 -2.05200238e-04
    -1.22799771e-02 -2.57540401e-03 9.13023576e-03 -9.88822314e-04
    -9.93184294e-05 -1.23663899e-02 -2.40339804e-03 -1.07345218e-02
    -1.06156226e-02 2.86777765e-02 -3.44386208e-03 -1.22206984e-02
    1.85289944e-04 -1.43574085e-03 1.20914420e-02 2.21816618e-02
    4.62184334e-03 1.24348626e-02 -6.28504669e-03 3.14135547e-03
    2.02109776e-02 8.90775491e-03 9.21247993e-03 -2.28144554e-03
    -1.26791354e-02 -1.43238064e-02 2.24357937e-02 2.57575186e-03
    -3.52722243e-03 -4.83188732e-03 -1.05655231e-02 -7.42948102e-03
    2.22193100e-03 1.30707668e-02 3.98469158e-03 1.42752687e-02
    -5.36887953e-03 1.19769843e-02 -5.04655764e-03 7.22121680e-03
    -1.53469723e-02 -4.19018470e-04 -3.31068248e-03 -1.63286477e-02
    2.05766503e-02 1.24908471e-02 2.45295446e-02 -1.28829693e-02
    -1.29432753e-02 2.71169795e-03 -1.23321591e-02 -1.34812267e-02
    -5.00678364e-03 1.50483679e-02 -3.24742869e-03 -1.88444520e-03
    -7.01688696e-03 2.62582995e-04 -1.06478864e-02 1.39257754e-03
    -6.93210168e-04 -1.50279719e-02 -8.45525321e-03 -1.48183024e-02
    -6.85496163e-03 -9.15479660e-03 3.69973900e-03 1.83150882e-03
    1.66527629e-02 1.18657050e-03 -1.03197647e-02 1.14536155e-02
    -1.24037336e-03 2.17302069e-02 -4.09820443e-03 9.95950401e-03
    -6.60619000e-03 -2.84917909e-03 4.84120706e-03 -9.16141609e-04
    9.22887307e-03 -1.18362717e-02 -8.93630274e-03 -1.17113497e-02
    -1.32659147e-03 6.98376866e-03 -4.65718610e-03 1.56263961e-03
    -2.55819969e-02 1.47040142e-03 -1.71282794e-02 -1.37004666e-02
    -1.53666390e-02 -3.09764990e-03 -2.27671936e-02 3.23182228e-03
    -1.44698229e-02 -1.24980295e-02 -4.66897897e-03 -3.27409152e-03
    -3.70875769e-03 2.02693790e-03 1.44516742e-02 3.82293219e-04
    4.53078374e-03 6.17556553e-03 -2.40275264e-02 4.53194836e-03
    -1.23649295e-02 -2.88993656e-03 -8.66658799e-03 1.18175298e-02
    1.52276014e-03 -7.02729262e-03 -1.67901777e-02 4.08720970e-03
    9.55448672e-03 1.24085611e-02 9.54451971e-03 -2.56985007e-03
    1.76866669e-02 -1.41132046e-02 -1.10746140e-03 6.76925248e-03
    -7.97748566e-03 1.49420574e-02 -5.70504786e-03 -7.03841448e-03
    -1.23200286e-02 -2.66272500e-02 -2.12651733e-02 -8.48100428e-03
    1.72183625e-02 -2.97689810e-03 1.37724914e-03 -7.92581495e-03
    -9.50021762e-03 -2.27469206e-02 1.28619866e-02 7.94631429e-03
    -1.14206253e-02 -6.41519902e-03 -2.42742090e-06 1.37142241e-02
    -1.82174821e-03 5.97425690e-03 -8.39911634e-04 1.09510846e-03
    1.06721325e-03 5.80100296e-03 3.08442884e-03 4.30497807e-03
    7.70173734e-03 8.92293081e-03 9.10525117e-03 6.00831001e-04
    -7.50469416e-03 -1.52413119e-02 1.17209861e-02 1.60607789e-02
    -7.02072773e-03 1.10442052e-02 1.65260267e-02 4.02506860e-03
    -2.58991867e-02 5.03513496e-04 -8.23414885e-03 -2.13964265e-02
    9.06585343e-03 2.69255223e-04 -2.24036793e-03 9.52293631e-03
    -5.23477234e-03 3.87047743e-03 9.58182849e-03 1.13247214e-02
    -3.62272433e-04 8.71644635e-03 4.87529626e-03 3.01615540e-02
    6.09627832e-03 1.87909883e-02 3.45904753e-03 -8.39142874e-03
    6.19326113e-03 -1.91118196e-03 -1.91405823e-03 1.14348326e-02
    -8.89760384e-04 9.98109463e-04 -2.78841006e-03 -1.79243628e-02
    -2.19499669e-03 -6.44453894e-03 -2.00242363e-02 4.32598451e-03
    -1.36091327e-02 1.83397060e-04 9.74765327e-03 8.04080069e-03
    -2.84238392e-03 1.33990450e-03 -1.40128983e-03 4.33793338e-03
    1.40438275e-02 6.97627198e-03 4.00077645e-03 3.35719879e-03
    1.88727770e-02 -3.68713052e-04 -4.58522793e-03 7.76025373e-03
    -6.89157983e-04 -1.34987244e-02 2.52338825e-03 9.50337574e-03
    -2.06239359e-03 2.32589375e-02 -1.28259398e-02 -2.26387684e-03
    2.91993795e-03 2.50174734e-03 5.08992607e-03 -3.17678577e-03
    -1.48602494e-03 -6.04235427e-03 1.32508744e-02 -7.71678332e-03
    5.74026303e-03 -3.40080878e-04 5.50838234e-03 1.47363124e-02
    -8.66470579e-03 3.04542040e-03 -9.36500262e-03 1.13549288e-02
    5.03297243e-03 -4.71608620e-03 1.07850861e-02 7.29610119e-03
    -8.41491669e-03 -7.85012543e-03 1.60355717e-02 -5.90867968e-03
    4.76197526e-03 2.46363250e-03 -2.64532608e-03 1.15117058e-02
    -9.15830210e-03 -7.25909090e-03 -1.29065681e-02 4.97900089e-03
    -8.82706512e-03 1.35335280e-02 -1.21602723e-02 2.10254313e-03
    -4.83860727e-03 1.21029969e-02 -1.25424727e-03 -6.00036141e-03
    -5.51852427e-05 -1.27777662e-02 -5.87027054e-03 -1.15535893e-02
    -1.23270077e-03 8.68646894e-03 3.98390321e-03 -6.87280437e-03
    1.59386382e-03 2.32509687e-03 -2.03944501e-02 -4.62133531e-03
    5.98645024e-03 -1.33114783e-02 1.62465349e-02 7.93866720e-03
    -8.18421040e-03 6.22893590e-03 1.41260056e-02 -5.78415999e-03
    -7.71730905e-03 -2.05072132e-03 -3.85166937e-03 2.15254514e-03
    3.36523028e-03 4.06231778e-03 4.74375905e-03 -7.97353871e-03
    -2.86010895e-02 -2.57985387e-03 -4.31985455e-03 3.87630076e-03
    -7.93532096e-03 9.14341304e-03 8.03906471e-04 -2.64210074e-04
    1.04962280e-02 6.71785930e-03 -9.43303481e-03 5.84347500e-03
    -2.44894028e-02 1.11635448e-02 7.59940071e-04 3.01759806e-03
    -1.62003655e-03 9.37351084e-04 -1.66774727e-02 -1.97565164e-02
    -2.75571761e-03 -1.64264943e-02 1.56689603e-02 1.47142159e-02
    1.65573217e-03 -3.38270422e-03 7.16992933e-03 1.23623700e-03
    4.29273117e-03 4.42784047e-03 -6.07265672e-03 -1.42839337e-02
    -2.27828510e-03 9.10872128e-03 -1.00910128e-03 3.55226686e-04
    -7.86995143e-03 -7.93945417e-03 -3.51289194e-03 -6.03815354e-03
    -3.99924396e-03 8.02860316e-03 2.23922567e-03 1.23847127e-02
    -1.24647021e-02 -1.13807281e-03 1.51002052e-04 1.03379376e-02
    -1.67961884e-02 6.28439384e-03 1.36667839e-03 4.65786876e-03
    -1.20140361e-02 -2.77790520e-03 -5.20538422e-04 -9.93154105e-03
    -2.40905676e-03 -1.35317426e-02 -1.54784145e-02 -7.72667956e-03
    -1.38615340e-03 3.45698232e-03 -1.80817232e-03 6.05276460e-03
    3.77285069e-05 7.09787058e-03 -3.97725776e-03 4.35923925e-03
    -1.00243669e-02 3.25995963e-03 -5.30053396e-03 -1.85109787e-02
    3.83201195e-03 -4.93992586e-03 3.18856165e-03 -1.67612359e-02
    -1.27144996e-02 -9.03142150e-03 3.90323997e-03 6.05760282e-03
    -1.26325467e-03 -4.71917493e-03 -9.07405093e-03 -8.05751048e-03
    -1.42111480e-02 -2.02670209e-02 -6.45210966e-03 5.58392843e-03
    -5.73113654e-03 1.51171687e-03 6.57326495e-03 -1.21126557e-02
    6.84718229e-03 1.16977124e-02 9.10255313e-03 3.80242569e-03
    7.98086636e-04 -2.37804279e-03 -4.48844163e-03 -1.80248113e-03
    -5.11523429e-03 1.60642900e-02 -8.84128921e-03 -1.62222311e-02
    -1.41077517e-02 8.53339396e-03 -4.86696983e-04 -7.59505946e-03
    3.89700662e-03 -9.10370797e-03 -7.92001095e-03 9.69638955e-03
    7.85189774e-03 1.17615955e-02 1.20209949e-03 -4.38027456e-03
    -1.42406784e-02 -8.80204700e-03 -3.54677369e-03 -1.43293990e-02
    1.24282278e-02 6.41102856e-03 6.20525610e-03 9.90217645e-03
    -3.00380890e-03 -5.16321138e-03 1.24920043e-03 -2.99247634e-03
    1.87054910e-02 -7.49655999e-03 -4.63972194e-03 2.23602750e-03
    1.89915374e-02 -3.57806520e-03 1.98009219e-02 1.74969416e-02
    -5.99250197e-03 -7.39755994e-03 -1.89851981e-03 -2.74957716e-03
    5.89270191e-03 -4.80081001e-03 -6.37842156e-03 -1.34799234e-03
    1.36274705e-03 -4.79207095e-03 -2.14455444e-02 -1.78380031e-02
    3.57425609e-03 1.15997475e-02 1.66698843e-02 5.36650978e-03
    -1.03151277e-02 -4.39591473e-03 1.51850972e-02 -1.64047964e-02
    9.68926493e-03 -3.67333926e-03 8.04633833e-03 1.76848266e-02
    2.54150270e-03 5.84900565e-03 6.17695134e-03 -5.54393884e-03
    2.00500898e-03 1.04937730e-02 -8.93885177e-03 4.54279501e-03
    2.22163252e-03 -1.08098956e-02 1.06189111e-02 1.05505288e-02
    -3.07302631e-04 -1.18296118e-02 -6.90571638e-03 9.09061870e-04
    1.04573695e-02 3.12134181e-03 2.01677699e-02 -2.69131996e-02
    -5.31574572e-03 1.27990711e-02 -2.71769986e-03 -3.12930148e-04
    -1.10230781e-02 -1.22473491e-02 -7.47843878e-03 -3.33052780e-03
    7.18829129e-03 5.20445127e-03 5.15209837e-03 -1.00789936e-02
    1.79656334e-02 -1.10578155e-02 1.12220077e-02 -5.32465102e-03
    -3.54803377e-03 8.67162831e-03 8.68656440e-04 7.51260994e-03
    -1.14369290e-02 6.12776959e-03 5.03737107e-03 2.05831928e-03
    1.79230198e-02 1.17578236e-02 9.48266871e-03 3.18826234e-04
    -9.19605233e-03 -1.01201953e-02 9.09414608e-03 -1.34443929e-02
    -1.50430994e-02 -2.07929220e-02 7.94336386e-03 1.21878192e-03
    -4.57771495e-03 9.84803867e-03 -1.97337684e-03 2.20468879e-04
    4.69948398e-03 -4.14163619e-03 -6.72648894e-03 -2.44453992e-03
    -8.46400915e-04 1.88109744e-03 7.13121099e-03 1.27627039e-02
    7.62017816e-03 1.43656507e-03 -1.05078723e-02 6.74173469e-03
    1.13394400e-02 5.60773490e-03 -2.99210614e-03 -2.62251217e-03
    -9.58896056e-03 8.31552688e-03 -7.69287755e-04 4.29497985e-03
    9.44185816e-03 8.86399020e-03 7.49544939e-03 -3.92420217e-03
    6.24520564e-03 -1.35306148e-02 -6.42419280e-03 3.81106162e-03
    -9.59245581e-03 -1.01629114e-02 -5.07368786e-05 -4.26648738e-04
    1.68538559e-03 5.15729235e-03 1.29883224e-02 -1.09712025e-02
    -1.55432308e-02 -1.23538114e-02 -1.55768143e-02 5.52248256e-03
    4.94873500e-04 -7.72317825e-03 1.01688663e-02 -5.02448762e-04
    3.60062090e-03 4.75561293e-03 9.87458229e-03 1.19708190e-02
    -1.39785159e-04 3.84068466e-03 -7.46056810e-03 6.50081877e-03
    -1.14736613e-02 -4.83827852e-03 -3.15332483e-03 4.15429752e-03
    5.19062160e-03 1.13509288e-02 1.55646738e-03 4.64947568e-03
    -2.16478575e-03 2.38483626e-04 -1.24192098e-02 2.75387429e-03
    -1.45932590e-03 -4.60232049e-03 -1.64811534e-03 1.03323150e-03
    -3.57439765e-03 1.61714032e-02 2.48549390e-03 -2.51281820e-03
    1.87712461e-02 1.87838625e-03 -1.23656904e-02 3.78829683e-03
    3.76277324e-03 2.54433602e-03 6.79511717e-03 4.33952810e-04
    -1.00996206e-02 1.04912883e-02 4.91755083e-03 1.03992922e-02
    5.16102824e-04 -9.42377280e-03 1.54500781e-03 1.80370174e-03
    2.28826515e-03 1.41897192e-02 -6.89149601e-04 -1.72267866e-03
    -6.26322161e-03 1.10042915e-02 4.08069324e-03 2.52663065e-03
    -1.52210388e-02 2.09891447e-03 -1.31951198e-02 1.39760962e-02
    8.06817878e-03 3.08323978e-03 -3.17455572e-03 -1.55541362e-04
    3.42363096e-03 6.19109487e-03 4.38658241e-03 -7.00029894e-04
    2.07574759e-02 -1.11307157e-02 2.34652148e-03 -8.79085902e-03
    -6.13119779e-03 1.32621881e-02 -2.73838930e-04 1.43164294e-02
    1.18014300e-02 -4.37544705e-03 5.47977630e-03 -6.70350995e-03
    1.05179315e-02 7.44168367e-03 2.28751829e-04 -1.16049610e-02
    -2.05798703e-03 2.80165696e-03 -5.17608889e-04 7.57975597e-03
    5.21376904e-04 -7.58221373e-03 -2.37321248e-03 1.73351099e-03
    -5.03365649e-03 -8.40065069e-03 -3.01790959e-03 2.41858102e-02
    -4.65307012e-03 -3.27700353e-03 -7.61144271e-04 8.00349843e-03
    1.62362289e-02 -6.43543713e-03 -3.06752627e-04 -1.09213497e-02
    -4.78450302e-03 -2.02567526e-03 2.65246606e-03 -5.65947127e-03
    -2.64047738e-03 1.68039855e-02 -1.61734771e-03 1.05415788e-02
    -3.37101723e-04 -8.01212806e-03 5.60395233e-03 1.25852076e-03
    7.45815597e-03 8.75693094e-03 8.43932666e-03 -6.47386024e-03
    -6.91812020e-03 -1.18477326e-02 -3.96375824e-03 1.26844747e-02
    -8.09058640e-03 2.34237267e-03 1.39399543e-02 -4.26784623e-03
    -1.40004130e-02 2.47852039e-03 -1.15231425e-02 -6.14206912e-03
    -1.23488307e-02 1.25452015e-03 2.34028470e-04 9.10268258e-03
    1.20157404e-02 -8.70491564e-03 3.10697732e-03 -1.07075609e-02
    -2.35732812e-02 4.33079957e-04 -1.47249652e-02 -4.19906434e-03
    1.61178354e-02 9.23316833e-03 2.07589045e-02 8.06961022e-03
    -6.36935607e-03 -5.44929586e-04 5.45844028e-04 5.43472450e-03
    2.29751188e-02 1.14760129e-02 -1.16033666e-02 -1.35772433e-02
    -7.44532282e-03 1.29865890e-03 8.01695790e-03 -4.72829584e-03
    -1.64519250e-02 -7.46178627e-03 7.14531029e-03 -6.00293139e-03
    -1.70546193e-02 2.28682347e-03 -2.56801886e-03 -2.30295751e-02
    7.71971536e-05 -1.99814863e-03 -1.24078477e-02 1.71111152e-02
    5.32236183e-03 7.31008826e-03 1.02833491e-02 -2.57389247e-03
    -8.92081764e-03 -8.47414078e-04 -2.90124840e-03 1.84742790e-02
    -2.99868034e-03 1.67224668e-02 2.10493281e-02 1.88529992e-03
    -6.17404608e-03 7.61996349e-03 -1.69636076e-03 -1.47186434e-02
    -4.83514322e-03 7.05656363e-04 -1.50762033e-02 -2.02570744e-02
    -1.20011356e-03 -1.74472593e-02 -1.62327942e-03 -8.41393042e-03
    8.90542753e-03 -1.71487704e-02 -1.48027875e-02 -7.15713622e-03
    2.69810320e-03 2.64122384e-04 -1.03984531e-02 -1.18877913e-03
    1.46327610e-03 -7.36500742e-03 1.46987541e-02 -4.21309471e-03
    6.29179226e-03 1.17994612e-02 6.32080529e-03 -4.72372631e-03
    -2.16039107e-03 -1.13947093e-02 1.20773725e-02 2.30625225e-03
    -3.48212919e-03 1.11359730e-02 -1.39320991e-03 -5.42460184e-04
    -1.81600656e-02 -7.89403930e-05 -9.02445894e-03 3.71343293e-03
    -4.47748275e-03 -1.91837968e-03 -4.03996510e-03 -1.24532077e-02
    -2.88915820e-03 4.08591283e-03 5.78261586e-03 -1.45088974e-02
    1.51128136e-02 -1.61190275e-02 -3.13952714e-02 -1.65118817e-02
    -3.89578962e-03 -2.07304241e-04 -1.07641621e-02 1.00553837e-02
    -5.32066030e-03 5.00064809e-03 1.71485115e-02 -1.94710330e-03
    6.99757552e-03 7.93888699e-03 -3.65220220e-03 -8.44227243e-03
    2.11063749e-03 -1.46249682e-03 1.47783943e-02 -1.64341014e-02
    7.85306189e-03 -3.61439516e-03 -5.80417598e-03 -5.99910738e-03
    6.34538755e-03 1.95530020e-02 -1.00772940e-02 1.21830562e-02
    -1.03373621e-02 -1.68151390e-02 -4.60825348e-03 1.25809351e-03
    1.20926369e-02 2.99676729e-04 2.03532120e-03 -5.38972160e-03
    -2.81631621e-03 -1.73380300e-02 -6.14994625e-03 -2.55429745e-03
    -1.49392346e-02 -1.81002989e-02 -1.07615739e-02 6.57590292e-03
    1.55183882e-03 1.29690552e-02 -1.30380481e-03 1.62905883e-02
    -1.30450539e-02 -4.07758355e-03 4.64979047e-03 7.38459546e-03
    1.87739416e-03 -1.26588782e-02 -4.91055194e-03 -1.25733679e-02
    1.11926757e-02 1.42554063e-02 7.98332412e-03 -1.16956765e-02
    -1.45375105e-02 -6.70521101e-03 3.78993544e-04 1.60492864e-02
    9.75306903e-04 7.69043481e-03 -4.39421320e-03 8.32483917e-03
    6.86490210e-03 1.74152944e-02 1.04722837e-02 1.34000485e-03
    -5.03656035e-03 -3.33336857e-03 1.77837703e-02 5.27886301e-03
    3.31864357e-02 4.22450219e-04 1.42888650e-02 1.34499297e-02
    1.50474431e-02 1.15425047e-02 1.03597082e-02 1.30430367e-02
    -1.97040029e-02 -1.69650745e-02 9.81354248e-03 3.86436819e-03
    -1.81970722e-03 1.37881446e-03 1.47622416e-03 -4.60392935e-03
    2.07196604e-02 -8.46725539e-04 2.11296473e-02 3.87372635e-03
    5.28732548e-03 7.53938407e-03 8.45447741e-03 -4.18156665e-03
    -6.17258064e-03 7.07451347e-03 -1.48389209e-02 1.34239793e-02
    -2.15941295e-03 1.39840934e-02 -9.68549773e-03 -4.11155022e-04
    3.59617383e-03 -6.93986565e-03 3.85743310e-03 -1.65593112e-03
    -1.35925300e-02 1.66811573e-03 1.11754881e-02 -3.79575603e-03
    1.33877471e-02 -2.52979862e-06 -9.28566512e-03 1.01642208e-02
    -1.59931593e-02 6.13667304e-03 1.17363397e-03 -7.50494748e-03
    -1.05636036e-02 -3.95113043e-03 1.09670488e-02 8.77264794e-03
    4.38589603e-03 -8.08454026e-03 -5.28511591e-03 -1.19341332e-02
    1.68534797e-02 1.61910220e-03 -2.91055534e-03 -2.23867572e-03
    -2.03315821e-02 4.10919497e-03 -1.49998795e-02 -2.07728520e-02
    -5.01155970e-04 8.32656492e-03 -2.98514729e-03 -1.01033482e-03
    -5.72536699e-03 1.00269625e-02 1.30015460e-03 7.37254566e-04
    -6.79624593e-03 -1.78793876e-03 -5.65594342e-03 -2.05537677e-03
    2.37781415e-03 1.53977647e-02 -6.85915537e-03 -1.03807831e-02
    -9.34466720e-03 -2.56638450e-04 -7.03766290e-03 -8.67899042e-03
    2.80732318e-04 -8.39019008e-03 -1.00206689e-03 2.64938688e-03
    -6.04166230e-03 3.10696219e-03 5.23451623e-03 -1.30362716e-02
    1.03096394e-02 -3.71167669e-03 -8.98334105e-03 2.40707048e-03
    -1.97270699e-03 7.18047889e-03 -5.44990227e-03 -1.00284899e-02
    -1.39319780e-03 -1.46153430e-02 -5.92365256e-03 -1.09241717e-03
    -1.42176519e-03 1.97819923e-03 8.27407278e-03 -1.31555053e-03
    -1.54717658e-02 -1.30735245e-02 -9.58710350e-03 -1.43577473e-03
    -7.16502592e-03 -4.60487092e-03 -5.32376440e-03 -9.16063040e-03
    -6.65576244e-03 2.84031476e-03 -6.67939195e-03 1.43331410e-02
    -1.26592477e-03 1.27799539e-02 1.38430493e-02 -9.58783645e-03
    5.90959145e-03 -2.59228586e-03 -6.84423652e-03 2.08958015e-02
    -9.97944735e-03 6.98628416e-03 2.69676140e-03 1.39939664e-02
    1.54583179e-03 2.34508794e-02 1.11877557e-03 -1.61584141e-03
    -9.38320439e-03 -2.18572095e-02 -2.18889466e-03 -2.96537741e-03
    -1.21393576e-02 -6.42744638e-03 -1.13823628e-02 -1.92543454e-02
    -1.21704733e-03 -9.16841440e-03 1.13715231e-02 4.35166340e-03
    5.49357710e-03 1.10675422e-02 1.93685119e-03 8.48411303e-03
    9.37576126e-03 1.20107867e-02 2.00483799e-02 7.45884143e-03
    -4.01346246e-03 -1.22023642e-03 -6.77619223e-03 -1.45126591e-02
    -6.12167502e-03 -1.36265047e-02 2.22097314e-03 1.00147139e-04
    -1.61742512e-02 6.23368600e-04 -3.90171749e-03 -3.21212970e-03
    -6.28616381e-03 1.25005478e-02 -6.52478170e-03 1.09241446e-02
    -1.07215904e-02 7.57210283e-03 3.01170559e-03 -1.01880375e-02
    3.07026226e-03 -1.05425939e-02 -8.20086151e-03 -1.39641715e-02
    1.08419564e-02 3.35233076e-03 6.69059716e-03 3.37245036e-03
    3.81166069e-03 -7.14153098e-03 -1.09434146e-02 1.23509066e-02
    -1.22127887e-02 1.52772134e-02 3.29436548e-03 -9.80192795e-03
    7.13672768e-03 -1.26362266e-02 -5.45484573e-03 -1.73201971e-02
    -1.49512768e-03 -5.63259749e-03 6.29382581e-03 -1.32175935e-02
    -4.13370226e-03 -6.18490041e-04 -4.89663100e-03 -3.86844797e-04
    -1.68011468e-02 5.74659090e-03 -9.09650885e-03 1.26598682e-02
    -3.55520635e-03 1.19932368e-02 1.41185918e-03 -4.57078498e-03
    -2.97341333e-03 -1.99720692e-02 4.11492446e-03 -1.31149665e-02
    -1.21175703e-02 1.01853162e-03 -6.09343266e-03 1.18931942e-02
    -9.34096891e-03 -2.11605076e-02 -1.41780591e-02 3.61287151e-03
    -2.71998858e-03 -2.07421393e-03 -1.24401255e-02 8.50446243e-03
    2.45532929e-03 -1.00193406e-02 -2.09322141e-04 -3.10674473e-03
    -2.88223644e-04 4.75773728e-03 2.07742676e-03 -4.18378925e-03
    -1.10978750e-03 -4.10752371e-04 -5.39003732e-03 5.61785512e-03
    -1.98156852e-03 1.24845619e-03 -1.76932216e-02 -5.60717657e-03
    4.17521130e-03 9.92524624e-03 -8.88711214e-03 3.69415921e-03
    2.33279704e-03 -6.33774139e-03 7.90526345e-03 5.30983647e-03
    -5.74494712e-03 6.04337594e-03 2.63706548e-03 -3.13092867e-04
    -1.78194102e-02 -3.51026771e-03 7.57917855e-03 -5.60677564e-03
    -1.00826165e-02 -7.70218438e-03 -2.20370642e-03 1.14880390e-02
    -3.36799887e-03 1.35850227e-02 -3.76017182e-03 1.53209101e-02
    1.33113172e-02 1.16764382e-02 -3.64403386e-04 -4.53594141e-03
    -1.01277570e-03 -6.41835760e-03 -7.16074742e-03 9.62977856e-03
    -1.17651056e-02 1.06217898e-02 -1.36171386e-03 2.13972828e-03
    4.55033360e-03 7.85133336e-04 -5.71706984e-03 8.70020222e-03
    8.00972059e-03 6.71108812e-03 5.42641664e-03 5.36718266e-03
    1.00326166e-02 1.54977664e-02 -2.76181544e-03 1.65162841e-03
    -5.73166786e-03 -3.82114714e-03 5.84458373e-03 1.99732743e-02
    -1.04733026e-02 -6.73326291e-03 -3.33058322e-03 1.24826180e-02
    3.13863304e-04 4.03980352e-03 4.84735821e-04 1.27800880e-02
    6.82535116e-03 6.59791287e-03 -1.05814438e-03 -4.88703977e-03
    1.51043979e-03 -7.19077745e-03 -1.36754932e-02 1.05712041e-02
    -6.69893995e-03 -1.50200548e-02 1.76476629e-03 -8.34781968e-04
    6.54390827e-03 -8.63472465e-03 -1.60862785e-02 -9.14518069e-03
    4.60298080e-03 -6.69025816e-03 4.22277441e-03 3.85916117e-03
    -3.98692163e-03 5.34011051e-03 -2.89832568e-03 -2.68866215e-03
    -1.08624212e-02 -1.60981819e-03 7.90739339e-03 6.58173207e-03
    -4.19274718e-03 -7.66014075e-03 -3.21961567e-03 1.48909204e-02
    1.43933455e-02 3.96198453e-03 -1.98380626e-03 1.54077669e-03
    -2.29104073e-03 9.45655350e-03 -1.85138386e-04 1.00171100e-02
    -2.03739130e-03 -1.95615068e-02 -1.16557302e-02 1.17036495e-02
    7.45270285e-04 -2.92798528e-03 4.55636624e-03 -7.04804948e-03
    -3.66033730e-03 1.57216843e-02 2.96010566e-03 1.18677812e-02
    -1.65988726e-03 -7.13615399e-03 -9.72471107e-03 8.94905592e-04
    -7.89277721e-03 -7.17299338e-03 -1.17515931e-02 4.59961873e-03
    -4.43896744e-03 7.80464336e-03 -9.64674808e-04 -1.25190523e-02
    9.13686957e-03 -7.24212453e-03 -1.37750404e-02 1.14185400e-02
    9.01483372e-03 -6.30509900e-03 -6.92586554e-03 -9.45682079e-03
    -1.75546051e-03 1.95194874e-03 -1.02405448e-03 -7.12370686e-03
    1.16006713e-02 8.56767874e-03 1.07870009e-02 8.13661143e-03
    2.29472225e-03 3.20572173e-03 6.90678274e-03 -6.34799339e-03
    -9.84971039e-03 -1.18838008e-02 -7.16617471e-03 6.93134614e-04
    8.14845692e-03 7.14327255e-03 -8.81566852e-03 1.51143465e-02
    1.31178405e-02 -1.42098975e-03 1.17733423e-02 1.02163767e-02
    5.45374758e-04 7.39859836e-03 -6.97785895e-03 1.37472516e-02
    1.66632067e-02 9.56454687e-03 -1.82189532e-02 -1.09496471e-02
    2.04782113e-02 6.62761694e-03 1.05959596e-03 -3.29101458e-03
    -1.18459957e-02 -5.28839324e-03 8.79606465e-04 -7.86340024e-05
    3.27530527e-03 -7.19388435e-03 6.57887291e-03 -5.63094765e-03
    6.52839150e-03 -2.98042800e-02 9.51421913e-04 2.42184591e-03
    -4.04610764e-04 4.52936743e-04 -1.34245856e-02 1.27902767e-03
    -1.07783834e-02 -3.77424341e-03 1.17474087e-02 8.66048690e-03
    9.44252126e-04 -5.77707216e-03 -6.15332089e-03 1.67863108e-02
    1.00838486e-03 -1.41836870e-02 5.30039519e-03 -1.61835756e-02
    -6.27667503e-03 6.02952624e-03 -1.16758642e-03 -6.52510254e-03
    1.58374999e-02 9.60728433e-03 1.41092821e-03 -3.76190827e-03
    1.68400295e-02 1.64372679e-02 7.95362797e-03 9.29163117e-03
    9.71687399e-03 -9.86727141e-03 -6.66515552e-04 -2.36300472e-02
    -8.22514389e-03 -8.97861901e-04 8.39523505e-03 1.70143484e-03
    -9.40840971e-03 2.91503035e-04 7.64198974e-03 1.12825995e-02
    2.02124310e-03 -1.28558604e-03 -4.35115118e-03 -1.81437656e-03
    3.66210402e-03 3.64048034e-03 6.58421777e-03 1.17974188e-02
    6.58334000e-04 -3.23992153e-03 9.11897514e-03 -5.24611911e-03
    1.11708855e-02 7.69059779e-03 -1.22727919e-03 -2.50035635e-04
    6.68561435e-04 -2.16993457e-03 5.06741973e-03 -1.03256088e-02
    -6.03980338e-03 -4.15099226e-03 3.75994784e-03 2.19740067e-02
    2.02799682e-04 7.27220671e-03 4.24278807e-03 -8.83677136e-03
    -1.60757247e-02 -1.20618253e-03 -5.41437999e-04 1.01689054e-02
    -2.29247706e-03 1.76292402e-03 -1.65444461e-03 -2.16339086e-03
    -1.89031439e-03 1.42629247e-03 8.61871708e-03 -8.50239210e-03
    4.61164024e-03 1.20628756e-02 1.90793572e-03 7.41714751e-03
    -8.86194874e-03 3.86984623e-03 -9.89789702e-03 -8.55913199e-03
    4.35571746e-05 4.56838124e-03 2.02553160e-02 5.29544102e-03
    3.53545579e-03 -1.12880440e-02 4.42689005e-03 1.41573828e-02
    -8.12192506e-04 2.22152914e-03 1.52063826e-02 -7.10393186e-04
    -4.19562263e-03 4.13300440e-04 4.08865773e-04 3.18441796e-03
    2.16304456e-04 6.91270409e-03 -1.06389737e-02 8.74700584e-03
    -1.89501699e-03 -9.79292300e-03 4.47813049e-03 4.82652429e-03
    -8.09723977e-03 5.45553816e-03 3.46786343e-03 -9.46496520e-03
    1.40653476e-02 1.03523498e-02 -1.82940974e-03 5.05845947e-03
    1.24450878e-03 3.38036031e-03 1.05437469e-02 3.15493462e-03
    7.58533273e-03 1.07778041e-02 3.61361424e-03 1.03851855e-02
    2.65514161e-02 2.19382737e-02 -6.25824556e-03 2.03556456e-02
    1.31963044e-02 4.07825224e-03 -8.17127991e-03 1.37433002e-03
    -1.22797778e-02 1.14453156e-02 7.23791588e-03 8.14519171e-03
    -4.21999441e-03 3.73553397e-04 -1.75925363e-02 1.77776685e-03
    6.81050634e-03 1.41766351e-02 1.72347501e-02 -1.16790913e-03
    1.30307057e-03 -8.97826999e-03 -8.30553879e-04 1.57698710e-02
    -4.83249687e-03 2.52711326e-02 7.94776902e-03 2.32089162e-02
    2.12643798e-02 7.93430954e-04 4.53296956e-03 1.54807242e-02
    -2.19412427e-03 -7.14922696e-03 -4.38824855e-03 -3.68054467e-03
    2.06566546e-02 1.59950312e-02 -7.77552323e-03 -1.07517624e-02
    2.22024368e-03 4.46597580e-03 2.85516493e-03 -2.12131417e-03
    5.66791138e-03 1.15647241e-02 -6.79188874e-03 -2.74878065e-03
    -2.93850340e-03 1.07892891e-02 9.92582273e-03 -9.82396957e-03
    1.03175677e-02 -7.49427639e-03 -7.05832429e-03 2.49523367e-03
    1.30992476e-02 -6.21174788e-03 -6.83330582e-04 4.15352173e-03
    -2.19679554e-03 1.68485083e-02 -7.87902623e-03 2.25409344e-02
    1.23307714e-02 2.61433958e-03 -1.13697974e-02 2.75486032e-03
    1.36581084e-05 -3.15760123e-03 -4.00728686e-03 4.29622922e-03
    1.19185569e-02 -4.26554587e-03 4.36947960e-03 1.85603928e-03
    -9.75571014e-03 7.23812170e-03 -2.94335210e-03 5.71718486e-03
    -5.02742687e-03 1.28311920e-04 -5.44338394e-03 7.17985630e-03
    2.62625958e-03 6.62658690e-03 8.97646043e-03 -9.61624458e-03
    1.09487530e-02 -1.30308885e-02 -2.09279880e-02 3.51996452e-04
    -1.92818930e-03 -4.68184473e-03 -2.30416175e-04 -9.66888387e-03
    1.48657551e-02 1.16402349e-02 3.92594095e-03 7.23266788e-03
    -1.97774600e-02 8.89376551e-03 5.19120134e-03 -9.50760581e-03
    1.00272968e-02 -4.34369111e-04 3.03441612e-03 -1.45704001e-02
    -1.18652144e-02 -1.30177685e-03 -6.14997651e-03 1.00365223e-03
    -4.16081911e-03 3.70068196e-03 1.52012240e-03 8.59610853e-04
    -1.30027011e-02 -1.81016047e-02 5.52482146e-04 1.34129892e-03
    -7.54383276e-04 -1.65348174e-03 -3.13698803e-03 -1.34946080e-03
    1.21921059e-02 -1.29516786e-02 4.58368333e-03 1.21254695e-03
    1.83745439e-03 9.19928961e-03 -1.55178783e-02 7.71006802e-04
    1.11803720e-02 -8.09967890e-03 -1.71215981e-02 -2.43398938e-02
    -2.37606140e-03 5.78696700e-03 -5.07534994e-03 -1.10932449e-02
    1.22717198e-03 -5.30181779e-03 -5.99646592e-04 -4.23862552e-03
    4.44648787e-03 -5.01861470e-03 1.47883268e-02 1.20486934e-02
    -4.79236525e-03 9.91797447e-03 9.40063316e-03 -7.28663756e-03
    -2.14310978e-02 -2.79211462e-03 7.69194495e-03 -6.73161075e-03
    8.44939891e-03 -1.46212578e-02 -3.94316652e-04 7.63817318e-03
    -1.60626823e-03 -5.25459601e-03 9.45421925e-04 -5.25118550e-03
    1.17821805e-02 -1.20234089e-02 -1.03174173e-03 -1.28452266e-02
    2.02945177e-03 6.72368973e-04 -5.36689395e-03 2.36571461e-04
    -6.37223618e-03 1.14588728e-02 2.88085011e-03 -1.40769873e-02
    -2.34234403e-03 -3.16105201e-03 -6.26460765e-04 -8.47183447e-03
    3.88854207e-03 -1.16862552e-02 -5.98358922e-03 -8.78910907e-03
    1.34743815e-02 -1.77981972e-03 1.19530410e-02 -1.47898179e-02
    -1.41808428e-02 6.09714491e-03 9.81120020e-03 8.43244232e-03
    9.49528441e-03 1.32174243e-03 -8.09587073e-03 6.47801952e-03
    -8.43596086e-03 -6.64571393e-03 3.36374692e-03 -5.76552842e-03
    9.39832255e-03 -2.48595793e-02 3.13230860e-03 -1.45579800e-02
    -7.94971734e-03 -8.85030720e-03 -1.04186917e-02 -3.25429114e-03
    -5.08952327e-03 5.80174674e-04 5.19263139e-03 -1.17648952e-03
    -1.71034317e-02 -4.66533145e-03 -1.74045414e-02 -5.02194464e-03
    3.86460102e-03 5.62949106e-03 -1.85946189e-02 -7.12555274e-03
    1.53740430e-02 -7.45447446e-03 7.07071135e-03 6.72408519e-03
    -6.87790802e-03 3.26469238e-03 -2.18742993e-03 1.34482672e-02
    -1.21555794e-02 -1.78842840e-03 -2.12412290e-02 8.37775646e-04
    -7.61827687e-03 4.93650092e-03 -3.15923156e-04 -6.67703105e-03
    -1.70273276e-03 -2.71482263e-02 -3.19234328e-03 1.70631241e-03
    -3.87503789e-03 -2.05556545e-02 -5.60027221e-03 -1.54104026e-03
    6.81215373e-04 -1.32634528e-02 3.06638307e-03 9.95849539e-03
    1.84931769e-03 1.09971426e-02 1.18649136e-02 -8.46957788e-03
    -1.06594320e-02 1.22293783e-02 -1.37145156e-02 -9.01047606e-03
    1.03409151e-02 -5.70497755e-03 -5.07757394e-03 7.81678874e-03
    2.36710832e-02 1.40686333e-02 8.72761104e-03 1.62040293e-02
    -1.75161602e-03 6.55892352e-03 -2.77832542e-02 -2.15782188e-02
    -7.28870567e-04 6.95582153e-03 -4.11069673e-03 1.09500736e-02
    4.59312880e-03 -9.23071988e-03 7.55223213e-03 -1.70817208e-02
    6.15722174e-03 -9.86707819e-05 -3.47315823e-03 8.34064465e-03
    1.46868965e-03 1.75666492e-02 1.48374885e-02 1.55851021e-02
    7.44877057e-03 1.19466083e-02 -6.41919160e-03 -4.12018551e-03
    -1.26755226e-03 7.15185190e-03 7.28212157e-03 1.18415300e-02
    1.43949119e-02 2.16032788e-02 1.91564150e-02 1.37009006e-03
    1.17526352e-02 -4.88051679e-03 2.10782625e-02 -8.93585791e-04
    -1.51928526e-03 9.34409816e-03 -1.92283969e-02 -1.15479867e-03
    -2.01766239e-03 -9.14927386e-03 -8.34859908e-03 -2.53382302e-03
    8.39576591e-03 1.12917728e-03 -2.14180606e-03 -1.06358342e-02
    -6.04593055e-03 -7.28805782e-03 5.47175994e-04 -9.51361377e-03
    1.18834514e-03 -1.04447817e-02 6.45677326e-03 -4.85737436e-03
    1.32433558e-02 1.17899124e-02 -1.09228715e-02 -8.08696169e-03
    -6.35289308e-03 4.60115168e-03 1.95254467e-03 -3.70461307e-03
    2.12582387e-03 1.10746026e-02 1.30978916e-02 -7.95643497e-03
    -1.68840005e-03 3.61085497e-03 2.92050187e-03 4.29634470e-03
    -1.35699809e-02 -6.47101784e-03 -1.15260584e-02 -1.00067426e-02
    -1.12928143e-02 -1.28561873e-02 8.92506854e-04 -7.04207574e-04
    -1.22811384e-02 1.05237484e-03 3.55274859e-03 4.95645311e-03
    6.19895943e-03 -6.51947921e-03 3.37662804e-03 2.21712864e-03
    2.05014441e-02 2.20299792e-03 -5.81264216e-03 -6.05285354e-03
    1.04124639e-02 9.35831480e-03 -2.97566154e-03 -1.04233678e-02
    2.96856253e-03 1.07326230e-03 1.47941499e-03 -1.40452133e-02
    -1.70764122e-02 -1.09367613e-02 1.24537293e-03 -3.77681875e-03
    -7.76402559e-03 -8.03949079e-04 -1.14605688e-02 -1.51672924e-03
    1.08870286e-02 2.47815857e-04 3.04426276e-03 1.01031491e-03
    -6.46419730e-03 1.42426025e-02 -1.51253003e-03 1.40641071e-02
    4.55191219e-03 -7.88475480e-03 7.70202139e-03 6.38376037e-03
    5.48805110e-03 1.02293175e-02 -6.89363806e-03 9.34973534e-04
    3.03770555e-03 -2.53883121e-03 -1.07463514e-02 -1.32760527e-02
    -8.72353651e-03 -2.49719340e-03 -5.28003834e-03 -2.94183008e-03
    -8.32564104e-03 -3.39120347e-03 -2.02490576e-03 1.49807772e-02
    -1.48103782e-03 -4.63273842e-03 -1.01800477e-02 5.85018890e-03
    9.91985109e-03 -6.36701053e-03 -1.57966651e-03 1.00347968e-02
    4.00402554e-04 2.12004762e-02 1.20750291e-03 1.15981204e-02
    5.22561278e-03 3.63821327e-03 -1.58947916e-03 8.95653293e-03
    -6.87816553e-03 -1.05286725e-02 3.84017848e-03 -2.29099896e-02
    4.06488776e-03 -1.01635261e-02 -4.36570169e-03 5.43318503e-03
    6.77546114e-03 1.38525581e-02 1.35664446e-02 6.72520790e-03
    -1.00222547e-02 -4.68407478e-03 2.07871897e-04 4.64776484e-03
    -7.15067424e-03 6.79759774e-04 -1.82070434e-02 2.42524338e-03
    1.38300168e-03 8.67812894e-04 -1.99807398e-02 -6.41447445e-03
    6.91185985e-03 6.86113548e-04 9.11897700e-03 -7.89964013e-03
    -6.63128356e-03 2.38505360e-02 -1.58996992e-02 1.96903162e-02
    1.92085849e-04 -7.06769293e-03 4.61116154e-03 -1.06891217e-02
    -5.52713452e-03 -1.07536465e-02 -6.73248200e-03 -1.49313305e-02
    2.09203199e-03 -1.42722679e-02 1.48645497e-03 4.51859436e-04
    6.60844985e-03 -4.34259558e-03 5.78791462e-03 6.02395926e-03
    9.27079236e-04 -4.20066854e-03 4.57892893e-03 4.36336454e-03
    -6.42145844e-03 -5.92290098e-03 -9.19359364e-03 4.48347721e-03
    -5.00979833e-03 -1.04433205e-03 8.84421729e-03 -1.54754508e-03
    -8.03029910e-03 5.08418120e-03 -7.99743138e-05 -6.40211906e-03
    -1.42988618e-02 5.95072052e-03 -1.44198500e-02 2.78353272e-03
    -2.11321842e-02 1.40128918e-02 -5.60229179e-03 -1.79663729e-02
    5.46132354e-03 -1.10317916e-02 -6.67511777e-04 -6.61835587e-03
    5.74829755e-03 -6.33095996e-03 -5.13310125e-03 -2.98294029e-03
    1.07813533e-03 -6.94128731e-03 -1.35651547e-02 2.43914337e-03
    -7.53201824e-03 -5.17264474e-03 -5.80341415e-03 1.41399000e-02
    -1.14342114e-02 1.56120368e-04 -1.19021432e-02 3.80381499e-03
    -5.14035346e-03 1.13734007e-02 -4.95728897e-03 2.22774204e-02
    6.30914187e-03 2.70950305e-03 -2.47119330e-02 6.63209753e-03
    3.67048266e-03 -2.76924897e-04 -7.31226290e-03 -8.09185673e-03
    -8.29748716e-03 7.34848576e-03 5.64573053e-03 1.04754241e-02
    4.60765883e-03 7.58324936e-03 2.33611446e-02 5.72614465e-03
    -3.43478727e-03 -2.61943485e-03 2.51715025e-03 -3.93870426e-03
    -1.55345155e-02 1.53832196e-03 3.18620674e-04 1.57772936e-03
    -2.26591993e-03 -4.58911061e-03 1.63226165e-02 8.19527544e-03
    -1.04435729e-02 1.83887649e-02 -6.75814692e-04 2.66260607e-03
    -2.50244769e-03 -4.71426547e-03 -1.30773326e-02 1.37658110e-02
    -6.29959581e-03 5.90999890e-03 -6.43805880e-03 -1.75963936e-03
    3.88933858e-03 2.05445383e-02 -2.88472814e-03 -2.91702035e-03
    -5.88913960e-03 3.70152341e-03 5.00273285e-03 -2.72353925e-03
    4.88707609e-03 1.47128885e-03 4.58633341e-03 -9.16544173e-04
    1.01544373e-02 1.04522202e-02 8.26436654e-03 -8.06209818e-03
    3.23908811e-04 -5.83041785e-03 6.97378488e-03 -3.98971699e-03
    -7.24322814e-03 -6.95775542e-03 2.30593309e-02 1.01669384e-02
    1.26569101e-03 -1.23925135e-03 3.98741476e-03 7.23315822e-03
    1.19112572e-03 1.39066251e-02 -6.56146090e-04 -5.20192971e-03
    -1.11234765e-02 5.10222279e-03 -1.65704228e-02 5.19159809e-03
    -2.14356172e-04 7.18213851e-03 -8.91405437e-03 4.52171452e-03
    1.00569455e-02 -3.95020097e-03 8.07823613e-03 3.61025357e-03
    1.45213073e-03 -5.67975221e-03 8.04946944e-03 9.85724945e-03
    6.08624611e-03 1.38933947e-02 -5.72913978e-03 -9.31376498e-03
    -1.38966208e-02 1.06396768e-02 1.57717185e-03 9.17998515e-03
    -1.09938048e-02 -1.03781484e-02 -2.65485258e-03 6.95604971e-03
    1.26518728e-02 6.31992659e-03 -4.46172012e-03 -1.59151293e-02
    -1.18727824e-02 2.56260415e-03 2.05354784e-02 -4.32744995e-03
    -1.76186915e-02 -1.11049492e-04 2.29467847e-03 1.16126770e-02
    2.38187588e-03 3.50887724e-03 1.70556884e-02 8.18229187e-03
    -1.99571732e-04 -1.09796887e-02 3.93861486e-03 -7.93545134e-03
    -9.09877755e-03 -1.09197358e-02 1.66972692e-03 1.64717752e-02
    5.46376174e-03 -4.43314295e-03 -1.09813083e-03 3.17738624e-03
    -1.22361269e-03 -1.07904384e-03 -2.30664923e-03 -7.25197140e-03
    -2.09239847e-03 2.04538554e-03 -1.26152076e-02 3.49449995e-03
    1.14106005e-02 1.05525395e-02 -1.05302501e-02 -9.23384819e-03
    4.94025182e-03 1.56840764e-03 5.29684965e-03 -2.36266572e-03
    -5.83697623e-03 6.60342164e-03 5.97698614e-03 1.10723646e-02
    -4.78789862e-03 1.49471099e-02 2.18136683e-02 6.39673264e-04
    -1.67050436e-02 -1.70752518e-02 1.75667666e-02 1.90397375e-03
    -9.47020669e-03 6.01549400e-04 -2.51879729e-03 -8.67881440e-03
    3.51911900e-03 -5.21760387e-03 5.28911920e-03 1.44256819e-02
    1.00958189e-02 1.37695228e-03 1.96575630e-03 1.38653780e-03
    -2.37033513e-04 7.60040712e-06 -4.44475980e-03 1.18865380e-02
    4.94676083e-03 -2.65603792e-03 1.32913506e-02 1.63685283e-04
    5.96057391e-03 -5.83798019e-03 3.59085877e-03 9.59252007e-04
    -1.03562940e-02 1.25476960e-02 -3.05416458e-03 -1.84545033e-02
    -1.32748939e-03 -2.32708156e-02 -6.85806107e-03 -9.47523862e-03
    -4.07018792e-03 5.54661034e-04 4.74149408e-03 1.07780444e-02
    -8.13801191e-04 -8.47224426e-03 1.59945916e-02 3.82879586e-03
    -5.70714846e-03 -1.05826603e-02 2.69894511e-03 5.74492104e-03
    -2.43923604e-03 3.45264049e-03 1.11136064e-02 -5.74469706e-03
    -1.26149887e-02 -2.61865417e-03 -9.48564615e-03 1.66486315e-02
    1.98514108e-03 4.42852499e-03 7.33636552e-03 -1.13178547e-02
    -4.81367763e-03 -4.67269123e-03 -1.79035414e-03 1.03652477e-02
    9.88788716e-03 8.03611800e-03 2.66608340e-03 -1.27204061e-02
    -7.38063501e-03 -6.77435240e-03 4.05562762e-03 -4.81002079e-03
    -1.65246855e-02 -2.75862683e-03 -5.82973287e-03 -8.36372189e-03
    9.59349331e-04 -1.66261550e-02 -3.96875013e-03 -1.49018448e-02
    -2.75613880e-03 1.12792598e-02 1.80530958e-02 1.01665026e-02
    4.37121792e-03 1.23437960e-02 -5.09057194e-03 -1.62136406e-02
    2.28927447e-03 1.77851575e-03 1.20351920e-02 2.00908398e-03
    -1.98671576e-02 -2.83305999e-03 1.64698381e-02 -5.47181210e-03
    -5.89212030e-03 -4.79427166e-03 -1.96139496e-02 1.49427308e-03
    9.41442978e-03 -4.35495487e-04 -1.57442484e-02 -1.00153442e-02
    -3.03913616e-02 -1.01226522e-02 -5.54230157e-03 -1.58296118e-03
    5.60578192e-03 2.06447951e-03 8.68475251e-03 3.18618049e-03
    7.26669002e-03 1.15520153e-02 8.56989343e-03 -3.67185031e-03
    7.44165946e-03 -8.39128345e-03 7.91391172e-03 -1.05167562e-02
    -2.42696749e-03 1.44350082e-02 -5.45971189e-03 -2.44316831e-03
    -3.38453869e-03 -5.91894891e-03 6.77346904e-03 -1.19202947e-02
    -9.79299750e-03 -6.42209826e-03 1.49081480e-02 3.08405980e-03
    -2.31804140e-02 8.97179451e-03 1.13925675e-03 -2.46954919e-03
    -4.54580935e-04 -7.18349032e-03 -1.25218276e-02 3.15696304e-03
    4.68147127e-03 8.24979972e-03 -7.62907963e-04 1.79793853e-02
    -5.84486080e-03 -1.16679110e-02 2.17413884e-02 1.20932087e-02
    -1.00132981e-02 6.52490137e-03 2.26785634e-02 -8.05627741e-03
    -4.32584155e-03 4.25406918e-03 -1.15201119e-02 -1.21604819e-02
    -1.87273638e-03 2.30765268e-02 7.83332437e-03 -1.07884910e-02
    1.07358731e-02 1.91443774e-03 1.00812095e-03 -1.20401639e-03
    1.31261628e-02 2.59549245e-02 -2.23839725e-03 -2.41323069e-04
    -5.55851916e-03 2.07115617e-03 1.91521533e-02 -6.74057333e-03
    -3.76931770e-04 2.53498033e-02 6.82141632e-04 3.04863183e-03
    -1.41753082e-03 2.81099994e-02 -1.27086164e-02 -3.31203872e-03
    -3.02622980e-03 -9.10071842e-03 2.03860160e-02 -2.51934282e-03
    -4.00412595e-03 -1.44351535e-02 3.00663128e-03 1.49785625e-02
    3.87411378e-03 5.90713415e-03 -3.95983225e-03 6.12566713e-03
    6.82401238e-03 1.08261108e-02 -3.99423111e-03 -8.36541294e-04
    8.51739105e-03 1.15288990e-02 -1.87408179e-02 3.79414577e-03
    -1.53764035e-03 1.94164179e-02 4.58817882e-03 8.03171657e-04
    -5.23756444e-03 3.09368363e-03 2.36157607e-02 8.42408743e-03
    -7.60626607e-03 2.53825951e-02 -3.13317694e-04 2.52654986e-03
    -2.84169149e-02 2.63739494e-03 6.03473373e-03 -1.16483327e-02
    -1.70322787e-03 1.18180946e-03 1.12380981e-02 -8.53722729e-03
    1.66236795e-02 4.23137844e-03 -7.41664646e-03 6.09919708e-03
    2.33506667e-03 1.65911093e-02 6.49867579e-03 1.30524868e-02
    2.03661527e-02 9.02791042e-03 -1.09990770e-02 -9.66942776e-03
    1.88319315e-03 4.92070382e-03 -5.29693253e-03 1.12716733e-02
    2.28379900e-03 3.44479363e-03 -3.49426316e-03 3.99294030e-03
    -6.29465794e-03 4.20476962e-03 9.14760167e-04 1.62450634e-02
    -9.47494118e-04 1.03698205e-02 -1.32447584e-02 1.44667309e-02
    -1.00281816e-02 -3.37163243e-03 7.58428685e-03 -9.05201118e-03
    1.46865612e-02 -3.34007666e-03 -1.63733568e-02 3.50675266e-03
    3.68387066e-03 5.69474418e-04 -7.25862477e-03 -5.15723741e-03
    6.70440868e-03 7.53277820e-03 1.89217757e-02 -8.30134656e-03
    7.68131390e-03 2.97684618e-03 9.40339454e-03 7.03307148e-03
    3.36478464e-03 1.89677521e-03 1.52827976e-02 -1.10986186e-02
    -1.38219073e-02 6.16957899e-03 7.08591100e-03 2.51625245e-03
    -1.15009146e-02 8.30493309e-03 -3.88737768e-03 -2.54413392e-03
    -6.22129673e-03 -2.11626999e-02 -1.13001484e-02 5.35287010e-03
    -5.29429037e-03 -5.58506977e-03 1.87044218e-03 8.01476592e-04
    -7.68524036e-03 2.38811863e-05 5.73450350e-04 -3.88712017e-03
    1.53138014e-02 1.84489209e-02 -1.45412534e-02 -2.77716154e-03
    1.69334561e-02 -5.91116585e-03 -1.71735585e-02 -1.76528301e-02
    1.33930435e-02 2.35467087e-02 1.08345263e-02 -1.58692077e-02
    -8.96581623e-04 -1.90371703e-02 -9.00096167e-03 5.04515041e-03
    -4.74628853e-03 -4.11180110e-04 -5.51381009e-03 6.06077490e-03
    -7.52095599e-04 1.56887695e-02 1.02348886e-02 -1.06762499e-02
    5.03528817e-03 6.94432529e-03 -1.24340714e-03 7.47305714e-03
    1.43305613e-02 -2.23754067e-02 -3.30039766e-03 5.52514754e-03
    -4.51290095e-03 -4.42081218e-05 1.02332805e-03 -1.80901270e-02
    -2.92046065e-03 -3.35790130e-04 -3.71012546e-04 -7.12927198e-03
    1.26014324e-02 -2.04288308e-02 1.18627411e-03 -4.14098904e-04
    5.95092960e-03 3.25407309e-04 1.75871905e-02 -1.51783065e-03
    9.90641490e-03 8.78169842e-04 -4.37171105e-03 1.38368206e-02
    4.56018257e-04 -1.45552084e-02 7.38010928e-03 -2.67568906e-03
    3.64318700e-03 1.73135772e-02 -1.58499141e-04 -5.23468712e-03
    -1.62129872e-03 7.70721468e-04 -1.39949899e-02 2.37274286e-03
    6.71923766e-03 -2.51404854e-04 -1.18575459e-02 8.58466979e-03
    -2.03250386e-02 -1.26750674e-02 1.97673938e-03 7.93076493e-03
    -1.21386498e-02 4.22493438e-04 1.98935028e-02 -7.18303630e-03
    3.46097583e-03 -5.23002585e-03 1.61800086e-02 -7.79573806e-04
    -2.86992465e-04 8.18826165e-03 9.56005882e-03 -1.47760091e-02
    -1.14755449e-03 -1.03660189e-02 -1.05135655e-02 5.03136264e-03
    1.18575245e-02 7.88614096e-04 -1.68020837e-03 3.58324009e-03
    7.17419141e-04 1.21376254e-02 -5.54440962e-03 4.16030781e-03
    -2.55710678e-03 -7.06744147e-03 -3.59426573e-04 -1.59943290e-02
    -2.17509223e-03 1.53150745e-02 6.40634308e-03 6.52154442e-04
    2.80787447e-03 -6.52419869e-03 -7.33472081e-03 8.37914273e-03
    -1.53122563e-02 -5.75157953e-03 2.11352222e-02 -1.00940689e-02
    -7.62552070e-03 3.48976557e-03 4.62400634e-03 9.11693182e-03
    -2.72047357e-04 1.17144519e-02 -7.15953438e-03 -8.24748445e-03
    2.12969054e-02 -7.37294694e-03 1.02074714e-02 -1.56328678e-02
    -9.63034667e-03 -1.28574285e-03 1.47482008e-02 -1.08876871e-02
    3.87405767e-03 -9.81587637e-03 -2.07421817e-02 -1.32313883e-03
    1.97573900e-02 9.37513914e-03 7.35094026e-03 1.25490967e-02
    3.00667086e-03 3.23681836e-03 -3.26912641e-03 3.50240199e-03
    -1.03159342e-02 5.45199495e-03 -4.03457932e-04 4.36549168e-03
    8.73189699e-03 3.04460991e-03 1.14819240e-02 1.76984593e-02
    4.49598674e-03 -2.83623929e-03 -5.06420480e-03 9.34208103e-04
    7.92131410e-04 1.18080666e-02 1.39157940e-02 4.00615437e-03
    -1.86598673e-03 -4.94621834e-03 1.42123504e-02 2.11087102e-03
    1.43297650e-02 9.30814538e-03 1.94483604e-02 -4.87420848e-03
    1.08127296e-02 -2.55467225e-04 1.79629237e-03 -1.29105523e-03
    3.60007188e-03 -1.15764132e-02 4.49399045e-03 -4.89576813e-03
    -2.07584514e-03 9.83616104e-04 1.42475404e-02 4.10036463e-03
    -8.25657975e-03 -2.34656222e-03 4.57224343e-03 -4.08307009e-04
    7.40880612e-04 -6.37779827e-04 -9.99694038e-03 1.14349229e-02
    4.71866503e-03 -6.45758165e-03 6.03923108e-04 8.99822451e-03
    1.16947549e-03 7.18318904e-03 3.41419852e-03 2.07271101e-03
    1.02430163e-02 1.07416091e-02 4.91132087e-04 -3.49355745e-03
    2.94554676e-03 1.28233936e-02 7.58109661e-03 -4.11456311e-03
    2.28932295e-02 -5.27763786e-03 2.54486827e-03 -1.12450672e-02
    5.63895621e-04 3.36555555e-03 6.24414766e-03 5.69017744e-03
    1.09443604e-03 -7.25244964e-03 2.04808954e-02 1.33314943e-02
    -2.56642536e-03 6.77246973e-03 1.00229653e-02 -2.50437646e-03
    -3.45123746e-03 -1.19426036e-02 -4.95871296e-03 9.15811490e-03
    1.02209637e-03 4.56028897e-03 -8.49803258e-03 1.22528933e-02
    2.59387642e-02 1.43437402e-03 -8.39454995e-04 1.34449499e-02
    1.10838944e-02 1.56618189e-02 4.24124673e-03 6.27655908e-03
    -4.99116583e-03 4.70515370e-04 -9.50283211e-05 1.40859978e-02
    -3.20426933e-03 -9.76827834e-03 -1.01401517e-03 -1.09994924e-02
    -5.07578161e-03 2.74348864e-03 2.41031777e-03 2.38125841e-03
    -9.64986719e-03 -5.23777725e-03 5.53067867e-03 -6.86254073e-03
    -5.09254728e-03 8.80173314e-03 2.78051011e-03 8.62025470e-03
    -6.93324534e-03 2.05353368e-02 9.91531834e-03 7.66125508e-03
    -1.24453707e-02 1.95104163e-02 -8.61774385e-03 7.34402379e-03
    -1.58643897e-03 -2.24994525e-04 8.27768724e-03 -8.15582927e-03
    2.88731139e-03 7.34574115e-03 -1.73760019e-02 9.56734549e-03
    1.24892937e-02 5.74193848e-03 -1.95513442e-02 7.23734405e-03
    -1.87673289e-02 2.14837119e-03 9.83825512e-03 -7.22264545e-03
    9.17765126e-03 1.34224317e-03 4.05158987e-03 7.39194034e-03
    2.44819652e-02 1.79118998e-02 -2.56236806e-03 -8.04305263e-03
    1.68989934e-02 -4.26101219e-03 -3.38324299e-03 -2.07042461e-03
    -2.90863053e-03 9.68308095e-03 4.81573679e-03 -4.65223566e-04
    -9.29522142e-03 4.54873918e-03 7.58651597e-03 1.27527500e-02
    5.61475463e-04 -5.65827126e-03 2.85722781e-03 -1.24949925e-02
    -3.31250904e-03 1.27725583e-02 -1.33038098e-02 5.95645513e-03
    -6.11045351e-03 -3.30926129e-03 -1.43444380e-02 -4.86476393e-03
    -1.01165297e-02 7.10291974e-03 -1.42514613e-02 3.33839934e-03
    -1.15257008e-02 -1.96879334e-03 1.21764773e-04 2.54515791e-04
    1.17208902e-02 1.19965840e-02 2.11701542e-03 -1.07657844e-02
    1.25159929e-02 -1.42183071e-02 3.44313681e-03 -4.96985670e-03
    -6.04259968e-03 -6.18206756e-03 3.10154841e-03 -3.67874512e-03
    -1.82734872e-03 2.66762986e-03 7.00109685e-03 1.26495771e-03
    -6.26355782e-03 7.34510075e-04 -4.39076917e-03 -3.24626220e-04
    1.43383280e-03 -5.49169956e-03 3.11367936e-03 8.54744855e-03
    -1.58698261e-02 2.75774207e-03 6.69667404e-03 -2.19569635e-03
    -5.26213972e-03 1.33326277e-03 -1.68371756e-04 -1.17850036e-03
    -2.29392964e-02 -2.93957023e-03 -7.69231049e-03 6.44832663e-03
    -1.18105812e-02 7.66043039e-03 -1.70107707e-02 -1.92768574e-02
    -8.10795696e-04 6.44040387e-03 -1.02729397e-03 -6.39040302e-03
    -8.85244831e-03 -9.64927208e-03 -1.97479059e-03 2.03607022e-03
    -1.82839707e-02 7.59803131e-03 -3.46022454e-04 -1.00583015e-02
    -1.07204095e-02 6.41127955e-03 -1.28364377e-02 -1.29753714e-02
    5.46602672e-03 7.36819115e-03 -6.03029912e-04 1.58500709e-02
    -6.74179709e-03 -1.17280520e-03 5.28482161e-03 8.92011821e-03
    -7.71717308e-03 4.52671805e-03 1.19331852e-03 5.82376169e-03
    -1.36267510e-03 -9.41539742e-03 -1.55190639e-02 1.04206065e-02
    -2.83295102e-03 5.74701466e-03 1.47664524e-03 -1.18236104e-02
    1.70643593e-03 1.08152973e-02 -4.29670606e-03 4.28530807e-03
    -9.28813964e-03 1.48911867e-03 4.51950589e-03 -7.13761570e-03
    -1.81300081e-02 7.74399564e-03 7.71387620e-03 -1.01267397e-02
    -2.43577408e-03 9.62298829e-03 4.76631243e-03 -4.73811990e-03
    -4.13691346e-03 -1.52157461e-02 4.84090112e-03 -1.44632617e-02
    -1.32323690e-02 -8.08529835e-03 -8.58114008e-03 2.80642744e-05
    -2.48351321e-03 -5.40791173e-03 -4.50492650e-03 -8.67295358e-03
    4.46660444e-04 -8.77392665e-03 5.08154836e-03 -1.00981188e-03
    -1.60924625e-03 8.29644501e-03 -3.21067125e-03 -7.27115059e-03
    9.19594057e-03 1.81647006e-03 -3.97903612e-03 -2.31725629e-03
    4.45217453e-03 1.04722241e-03 -2.77180778e-04 5.95956529e-03
    -1.00249359e-02 4.54366906e-03 -8.93525779e-03 -5.99136436e-03
    -1.11498209e-02 1.93856354e-03 -6.77967165e-03 -4.72848653e-04
    -6.27990440e-03 -1.19230878e-02 -1.17660668e-02 -1.14857266e-02
    1.89342145e-02 1.14820395e-02 1.07423998e-02 -1.23361759e-02
    -2.07142963e-04 3.64402682e-03 1.67419761e-02 -8.86538532e-03
    -5.62981376e-03 -1.89851344e-04 2.45788810e-03 1.65340621e-02
    8.38096533e-03 1.37527632e-02 -8.41348898e-03 -1.28637580e-02
    -6.59011910e-03 -3.38113423e-05 9.85880289e-03 -8.07761680e-03
    6.70953945e-04 -6.38733478e-03 2.56787257e-06 -1.33653666e-04
    1.32446457e-02 -3.90750263e-03 -1.89499650e-02 3.57367354e-03
    2.12759897e-03 1.39189605e-02 -6.91015506e-03 8.00051261e-03
    2.62245582e-03 1.47562474e-02 -1.28959855e-02 1.22100674e-02
    -5.75146871e-04 -2.14820192e-03 -4.70385281e-03 -1.69608686e-02
    2.52853800e-03 3.52143077e-03 1.64779183e-02 -1.32874469e-03
    -7.92775396e-03 1.10038565e-02 9.94418981e-04 4.37212829e-03
    -7.54752604e-04 -6.50104135e-04 5.65287098e-03 1.26133859e-02
    -3.28750722e-03 6.75057108e-03 7.35673774e-03 -1.39600560e-02
    -4.71189804e-03 4.37216338e-04 9.00164247e-03 -7.83257000e-03
    -2.03001825e-03 2.00818223e-03 4.85916063e-03 1.11845299e-03
    3.16230580e-03 -2.07138970e-03 -2.07238700e-02 7.78917875e-03
    -8.40245467e-03 3.24673718e-03 -5.83606679e-03 6.57768873e-03
    8.44669819e-04 8.93606804e-03 -5.76182175e-03 -1.31054651e-02
    9.87767614e-03 4.81088832e-03 -8.25416937e-04 8.42665508e-03
    -1.93353451e-03 2.40457524e-03 -2.22061155e-03 4.12844121e-03
    7.54239503e-04 9.67330206e-03 -8.70272517e-03 -4.73542605e-03
    -5.69340494e-03 8.73905793e-03 -4.89590084e-03 -5.05367015e-03
    8.60972796e-03 -8.55858903e-04 1.40081225e-02 -2.15470493e-02
    2.18820386e-03 -9.80100688e-03 -8.34130682e-03 -7.86287803e-03
    5.62412012e-03 -1.85072958e-03 1.48949865e-03 1.49558885e-02
    -7.38839200e-03 -6.86526624e-03 -6.21832628e-03 -8.86884611e-03
    2.31093913e-03 7.16481765e-04 1.65920686e-02 4.68725245e-03
    5.05152112e-03 1.29497452e-02 6.64555794e-03 -1.88997469e-03
    4.50908812e-03 -9.58038587e-03 -9.29383840e-03 -3.76980263e-03
    1.22390827e-02 4.81730141e-03 -3.04941554e-02 -5.93708036e-03
    -8.01533088e-03 1.57778319e-02 4.19208780e-03 1.30044937e-03
    1.94054947e-03 -2.31660972e-03 5.44437813e-03 -1.54948812e-02
    -6.10351097e-03 6.92727917e-04 -1.52614135e-02 -1.68271328e-03
    9.74838063e-03 1.06298774e-02 -2.93296762e-03 1.88752927e-03
    -2.96667637e-03 -2.52347835e-03 -9.43093561e-03 5.53099858e-03
    -1.01170531e-02 -3.54249799e-03 5.92241809e-03 1.01953652e-02
    -4.95799584e-03 1.53186859e-03 -6.80931890e-03 -1.11907173e-03
    1.00863511e-02 -1.14751433e-03 -1.42713287e-03 2.50710896e-03
    -8.99548549e-03 -1.02927554e-02 -9.25472192e-03 -3.37419449e-03
    1.60058925e-03 4.24702885e-03 -1.33747226e-02 1.93006359e-03
    1.12841418e-02 -5.85894240e-03 -1.38520878e-02 -1.13113206e-02
    -2.29642149e-02 -6.51120860e-03 -2.11700011e-04 -7.68075371e-03
    -1.16078404e-03 4.82363719e-03 1.43357972e-03 -1.61177237e-02
    3.92311066e-03 -5.10559045e-03 -1.40232593e-02 -4.79257666e-03
    -1.64496305e-03 -5.49716083e-03 -2.58648186e-03 -6.38241507e-03
    -6.72933820e-04 -1.29488483e-03 -9.65651963e-03 -9.48783197e-03
    1.52754672e-02 -1.55608281e-02 1.20841968e-03 6.29173499e-03
    -7.38692842e-03 -1.06320297e-02 -7.24003464e-03 -1.15552377e-02
    -2.71100178e-03 -1.23023940e-03 -6.83186622e-03 -8.78812652e-03
    1.18873063e-02 -4.25883057e-03 -9.46596637e-03 2.83290073e-03
    -9.37319826e-03 1.29809661e-04 -7.68730557e-03 -6.49028574e-04
    -1.50711667e-02 4.97611798e-03 -7.72226602e-03 -1.84910558e-02
    -3.80282360e-03 -5.72594348e-03 -5.05191926e-03 8.24600738e-03
    4.34419652e-03 4.70263467e-06 -1.59816425e-02 -1.43482897e-03
    -2.22008303e-02 -4.84048476e-04 2.77013495e-03 -4.61154478e-03
    -9.66998655e-03 -1.50411874e-02 -1.51900547e-02 1.21419663e-02
    -3.89471301e-03 -6.22236589e-03 1.05340341e-02 -8.79945525e-04
    -4.31153644e-03 3.09911952e-03 -1.19938682e-04 1.34312576e-02
    -2.17519514e-03 -1.04156798e-02 1.00115351e-02 -3.24191242e-05
    2.93727289e-03 -4.62163612e-03 -3.99575329e-05 1.30329942e-02
    -1.08548561e-02 -1.58505002e-03 1.06461288e-03 -1.82126593e-02
    5.19204279e-03 1.68536464e-03 -5.32065844e-03 -4.60603973e-03
    1.06471367e-02 5.52443555e-03 -1.92466769e-02 5.23093343e-03
    -1.46540077e-02 -1.34682897e-02 1.21290069e-02 -8.61054379e-03
    -4.83315950e-03 -1.41124148e-02 -5.13221510e-03 5.66531159e-03
    -1.67361088e-02 1.24291843e-02 9.71424952e-03 8.53791740e-03
    -1.34856179e-02 3.07234144e-03 -1.18160360e-02 1.73211494e-03
    4.34715487e-03 -5.42081660e-03 4.16898681e-03 -9.70843807e-03
    1.82067044e-02 -6.26017980e-04 -8.81841127e-03 7.35844951e-03
    -4.56853630e-03 -1.22729577e-02 -2.91443872e-03 -1.15843974e-02
    -1.12313116e-02 3.69394035e-03 -7.18809664e-03 -8.48582759e-03
    5.29150292e-03 8.15580506e-03 -8.70315265e-03 6.01103529e-03
    -1.13823765e-03 -1.98485889e-03 1.22709880e-02 -1.53221553e-02
    -2.28253496e-03 1.62324274e-03 8.93739238e-03 1.22974161e-02
    -1.64307952e-02 1.33074205e-02 1.13125052e-03 1.01350779e-02
    -4.19434858e-03 1.38745056e-02 -6.37436239e-03 -3.72851850e-03
    -1.12491427e-03 1.77027099e-02 7.26688839e-03 5.58130268e-04
    6.32139563e-04 2.09664404e-02 -1.23991072e-02 -1.17438450e-03
    -2.98831237e-05 -3.93005554e-03 -8.37809499e-03 -3.01159476e-03
    -1.07760979e-02 1.86967920e-03 -2.15024538e-02 -1.98779553e-02
    1.12038534e-02 -1.26657514e-02 -1.35558201e-02 -2.43478199e-03
    2.66249431e-03 6.60642097e-03 9.71145742e-03 -2.50953319e-03
    2.40040384e-02 -6.99157501e-03 2.19832431e-03 1.07510411e-03
    6.97540119e-03 8.03091098e-03 1.79442437e-03 -2.16314662e-03
    1.80314686e-02 1.27302175e-02 -1.13502294e-02 9.70038213e-03
    1.53990844e-02 7.34598469e-03 -1.67635586e-02 -2.05369503e-03
    -9.62638762e-03 2.86653684e-03 -9.44334175e-03 5.69618633e-03
    -3.73169943e-03 -8.05279240e-03 -2.87244795e-04 -1.07943208e-03
    5.09437080e-03 6.69099158e-03 -4.42316337e-03 -1.67672485e-02
    4.16254206e-03 2.58978573e-03 -8.19133129e-03 -4.12296876e-03
    1.21832453e-03 -2.45063566e-03 2.37624929e-03 -1.22726271e-02
    8.22962634e-03 -1.42580247e-03 1.78944618e-02 1.83672234e-02
    -8.66359391e-04 -9.25274752e-03 1.36327872e-03 -6.11576485e-03
    -5.61750447e-03 8.99530575e-03 -9.77140386e-03 -6.32935623e-03
    -1.55610673e-03 -4.18923912e-04 -8.46847426e-03 3.35105858e-03
    7.97206443e-03 -1.73078645e-02 -1.38464496e-02 1.66854367e-03
    -3.46319494e-03 -3.87009350e-03 -1.18467221e-02 -1.16324518e-03
    6.74868934e-04 2.34880974e-03 -1.40467081e-02 9.11348325e-04
    -7.34514557e-03 7.02894619e-03 -4.04274603e-03 -1.33957798e-02
    -5.10860002e-03 1.87484585e-02 1.35786161e-02 -3.53611307e-03
    1.11363940e-02 -2.97893560e-03 9.00023431e-03 4.88866819e-03
    2.03888537e-03 -5.53165050e-03 1.41481999e-02 7.58404564e-03
    -1.09493528e-02 1.95233189e-02 -3.24348337e-04 -1.06862653e-02
    4.36655339e-03 -1.37493126e-02 -5.68775367e-03 1.59843657e-02
    9.01151262e-03 -1.13130303e-03 3.23133613e-03 -1.21152550e-02
    4.14094236e-03 -1.15329390e-02 4.78547905e-03 -9.28279944e-03
    -3.32784699e-03 8.00654385e-03 -8.65605194e-03 -5.78700192e-03
    -5.44758560e-03 -9.40010883e-03 8.04921554e-04 -1.68837365e-02
    -1.84985914e-03 6.64805202e-03 -1.88846370e-05 -3.43476422e-03
    2.66922452e-02 -5.48540521e-03 -6.55994983e-03 5.58222365e-03
    4.53555724e-03 -9.59176850e-03 1.01218717e-02 -3.30955908e-03
    5.07464213e-03 5.31370332e-03 1.76144969e-02 4.50986577e-03
    2.11059162e-03 -4.63274773e-03 -1.47363986e-04 1.33252982e-02
    6.07476057e-03 9.25002526e-03 -2.91069364e-03 -5.87000884e-03
    -8.34034872e-04 1.57590806e-02 -1.19067375e-02 -1.80570350e-03
    1.93936005e-03 -9.71385278e-03 -5.95774082e-03 -9.53626446e-03
    -3.05165560e-03 -1.80636775e-02 9.77129396e-03 -3.92574677e-03
    2.11300631e-03 8.22329894e-03 9.57870856e-03 -3.92350741e-03
    6.59461925e-03 4.06096270e-03 -2.08679144e-03 4.52634413e-03
    -4.26815590e-03 1.34471981e-02 3.07264999e-02 1.70187606e-03
    1.95041634e-02 -1.01583935e-02 -8.95538181e-03 1.24396407e-03
    1.07988650e-02 -3.29412683e-03 6.10131584e-03 -6.40590815e-03
    -4.84681223e-03 6.66604284e-03 -1.39740612e-02 -4.86054504e-03
    -1.76632442e-02 1.93010978e-02 -2.43581347e-02 4.99097398e-03
    1.71966627e-02 6.62367558e-03 1.59483170e-03 -6.55927975e-03
    -7.02231284e-03 -3.25433947e-02 -3.67323752e-03 1.08436994e-04
    -3.98521870e-03 4.50016931e-03 -6.87167048e-03 -1.58052072e-02
    9.31245275e-03 -8.08117562e-04 -4.36089496e-04 1.58628616e-02
    1.68171916e-02 -9.96824913e-03 -1.12778395e-02 -1.07572302e-02
    7.78935198e-03 -2.01621349e-03 7.34461844e-03 1.62177272e-02
    1.28265209e-02 -5.42051299e-03 1.44703710e-03 4.41634038e-04
    -6.27886038e-03 5.87094110e-03 1.39989648e-02 -4.81609022e-03
    -1.27811534e-02 1.31443539e-03 9.35315248e-03 4.45710914e-03
    1.21305222e-02 9.97642707e-03 4.23897756e-03 -1.12292804e-02
    4.69994871e-03 7.59569183e-03 7.67096924e-03 -4.11266694e-03
    4.20651725e-03 1.51111651e-03 1.22315940e-02 -1.11241015e-02
    -4.63544438e-03 -5.69176814e-03 -6.14129193e-03 -3.73393227e-03
    -1.04711242e-02 -6.09563803e-03 1.08056944e-02 -6.19401876e-03
    -3.76043608e-03 -7.90965743e-03 1.62396189e-02 9.99412965e-03
    -9.21589136e-03 -4.70551616e-03 6.22126693e-03 -7.66912987e-03
    -9.59248003e-03 -8.48398427e-04 -9.61639266e-03 -2.52704276e-03
    -1.20594846e-02 -7.21976161e-04 -3.70058906e-03 1.08958259e-02
    9.07823909e-03 2.00306736e-02 -1.58671625e-02 -1.01294387e-02
    1.84954971e-03 -1.22273155e-02 -4.57860017e-03 -2.66908261e-04
    1.26377642e-02 -4.24624840e-03 1.15435310e-02 -1.40746078e-02
    -1.81583576e-02 1.63967181e-02 1.92802064e-02 5.53200347e-03
    -3.94311734e-03 6.24714233e-03 1.00473426e-02 6.79345988e-03
    -1.45913148e-03 -1.61481823e-03 4.03699605e-03 -1.86284282e-03
    -9.54258256e-04 8.77950992e-03 -5.77367237e-03 1.58670067e-03
    -3.76716210e-03 -6.41094614e-03 -1.43087311e-02 6.45099068e-03
    -1.54206799e-02 -2.13342579e-03 -7.95209594e-03 9.54485498e-03
    5.14085311e-03 2.33805459e-02 -5.22057433e-03 4.65830928e-03
    9.45219304e-03 3.16369766e-03 1.32665820e-02 4.65847878e-03
    2.95589827e-02 5.03952242e-03 7.11746234e-03 2.77936133e-03
    -1.30501622e-02 5.63626084e-03 -5.08234138e-03 1.56043374e-04
    5.28381264e-04 -1.12272473e-02 -4.53011040e-03 -3.84510425e-03
    -7.76294991e-03 8.72463919e-03 7.45866075e-03 -1.47314009e-03
    -1.05159441e-02 1.87691581e-03 -2.32179724e-02 7.55453669e-03
    2.19319062e-03 -7.79244991e-04 -7.28067243e-03 9.11537372e-03
    6.90785144e-03 9.86806303e-03 -3.25104222e-03 1.17835244e-02
    7.70124840e-04 6.89379871e-03 3.33630922e-03 7.20806234e-03
    1.77376065e-02 -4.77604987e-03 -3.98023287e-03 7.81558920e-03
    -5.03833219e-03 1.09167891e-02 1.47380643e-02 1.62395127e-02
    3.26544303e-03 1.70968252e-03 -1.32218245e-02 -2.41292082e-03
    -6.61529833e-03 -1.78174973e-02 -4.85555874e-03 1.77859282e-03
    -1.49317309e-02 -4.67614038e-03 -6.42520795e-03 -6.12342218e-03
    -1.16691710e-02 -5.41805569e-03 -1.96939427e-02 5.17651346e-03
    -1.08190347e-02 5.94200427e-03 -3.04510118e-03 1.06380163e-02
    3.65671120e-03 6.80273399e-04 6.24764664e-03 8.51054559e-04
    9.13632289e-03 8.54009856e-03 9.76302288e-03 -8.15241504e-03
    2.63969210e-04 -1.01955305e-03 2.12102626e-02 1.87789521e-03
    -3.26816551e-03 1.62564199e-02 2.77939043e-03 1.25438478e-02
    -8.14405549e-03 -7.21691782e-03 -1.08465087e-02 1.03123765e-03
    -7.99400173e-03 5.13094303e-04 -9.42899613e-04 -1.17721139e-02
    -7.50780758e-03 -1.70031190e-02 -1.19622219e-02 1.11518348e-04
    2.78061023e-04 -3.74365831e-03 -1.30847069e-02 4.42064629e-04
    -5.92716411e-03 1.80150766e-03 -2.03654431e-02 4.58034081e-03
    -1.47858472e-03 1.86431259e-02 -1.08538300e-03 -2.97718542e-03
    2.01477017e-02 1.39923859e-02 1.04037402e-02 -1.53257763e-02
    -6.69814600e-03 -8.18397943e-03 9.09009483e-03 -2.08285917e-03
    -8.08514748e-03 1.41250277e-02 9.10865725e-04 6.01296406e-03
    -1.90508403e-02 -1.40131209e-02 -1.41936410e-02 1.09082209e-02
    -1.10183517e-02 -1.04530472e-02 5.43987658e-03 -5.09400619e-03
    -4.14333399e-03 1.25181647e-02 -1.98478298e-03 -5.27512922e-04
    3.87623673e-03 -1.78334711e-03 -9.99551453e-03 -4.36837086e-03
    -3.33739771e-03 1.18110599e-02 -1.71675161e-02 -1.38326851e-03
    -4.57365299e-03 -8.69705051e-04 -1.12841288e-02 4.42773709e-03
    1.80266406e-02 3.62302409e-03 -2.42678123e-03 -6.54947362e-04
    -1.29733188e-02 -8.64744559e-03 3.75594152e-03 -3.58122215e-03
    -8.43399670e-04 2.17404007e-03 -6.05565635e-03 1.29663721e-02
    2.14990680e-04 -6.85750600e-03 6.12561358e-04 1.96653046e-02
    5.49385615e-04 1.36744021e-03 -3.47858202e-03 -1.18308910e-03
    8.10658312e-05 -1.15429806e-02 -6.08846918e-03 -7.90119171e-03
    -6.93187909e-03 -5.18310582e-03 4.09811223e-03 -1.19841732e-02
    -1.22411447e-02 -8.67675990e-03 -3.49179399e-03 -1.02680530e-02
    -7.35686766e-03 -3.26390448e-03 -1.44578647e-02 3.68689187e-03
    5.77945868e-03 -3.04963859e-03 3.99361830e-03 -4.58201906e-03
    -5.06383926e-03 1.29454453e-02 -8.35046545e-03 -2.33506671e-05
    -3.14095127e-03 -6.79263147e-03 -4.06759384e-04 -5.45533933e-03
    -8.07190686e-03 -1.10064540e-02 -1.95814227e-03 7.48399459e-03
    -3.65756219e-03 4.41180862e-04 -5.31840650e-03 -1.25110876e-02
    -1.50825698e-02 -1.10827433e-02 9.63395275e-03 -5.40376455e-03
    4.22319258e-03 -1.71128586e-02 -2.15012114e-03 1.20653084e-03
    2.36876239e-03 -6.65655266e-03 -7.01472908e-03 -7.38445017e-03
    1.41763939e-02 -2.29569268e-04 -8.86544120e-03 8.04652274e-03
    -9.68613010e-03 -9.72673806e-05 -5.66065032e-03 -8.51693284e-03
    -3.99212865e-03 1.29839946e-02 -3.86283780e-03 -2.63391784e-03
    4.13959846e-03 1.21401362e-02 1.71055701e-02 -7.37319468e-04
    -1.85749438e-02 -3.06492118e-04 -6.77887443e-03 1.56123638e-02
    -1.11650694e-02 8.73231515e-03 1.05949689e-03 -1.88044528e-03
    -1.69612747e-02 -3.32394755e-03 4.23767371e-03 -1.56904745e-03
    -2.41917116e-03 -1.71828400e-02 1.37235352e-03 6.18182868e-03
    9.09896754e-03 -4.03329963e-03 -1.00939460e-02 -1.00794611e-02
    7.74615444e-03 -4.17876197e-03 -1.21708652e-02 -2.25093798e-03
    6.68234332e-03 3.54376086e-03 -1.56505741e-02 6.26096362e-03
    9.49041918e-04 -2.66520912e-03 1.36024076e-02 2.93791317e-03
    -5.14846016e-03 9.33909137e-03 6.63966686e-03 -5.40770404e-03
    -1.17189521e-02 -5.51253604e-03 -5.74488426e-03 5.67122269e-03
    -1.94550175e-02 6.10105367e-03 -9.41600557e-03 1.55049970e-03
    -9.74091236e-03 -7.61033641e-03 -1.14381667e-02 1.83278113e-03
    -3.08982865e-03 -7.85314012e-03 1.02706086e-02 4.98937489e-03
    -9.19935014e-03 -1.54636102e-02 -2.70266109e-03 -1.00844363e-02
    -8.34356435e-03 1.40167363e-02 -6.83664391e-03 -1.47196942e-03
    9.53815226e-03 -2.47663073e-03 -1.66280959e-02 1.43351126e-02
    6.90257596e-03 1.03104068e-03 7.81162782e-03 1.59472320e-02
    -9.61657264e-04 7.33141089e-03 1.30537562e-02 3.97636183e-03
    -2.38641892e-02 -1.20513737e-02 -3.79638770e-03 5.24984440e-03
    -3.76861775e-03 2.07949188e-02 -9.16256849e-03 -1.47194853e-02
    -1.92429349e-02 -1.24271279e-02 -7.46587850e-03 4.51117335e-03
    1.21912230e-02 -2.49356235e-04 9.34889633e-03 5.42674912e-03
    -1.01939179e-02 -7.92630669e-03 4.34151571e-03 -4.76223679e-04
    -7.94151425e-03 2.44053267e-03 1.00819636e-02 -3.61827854e-03
    5.55794407e-03 2.24460196e-03 -1.10304579e-02 4.74872626e-03
    -2.95968121e-03 2.64720898e-03 4.90396144e-03 1.06882723e-02
    6.89013023e-03 1.14119323e-02 -4.42699576e-03 6.40872493e-03
    -1.53214261e-02 -9.33921989e-03 7.88027421e-03 7.25015998e-03
    -8.83509312e-03 1.32521177e-02 5.29953453e-04 -4.57817875e-03
    -8.56377929e-03 -8.14677682e-03 -1.70357469e-02 -6.02461770e-03
    9.63409140e-04 5.71050588e-03 3.70494265e-04 1.57689967e-03
    -1.34089235e-02 -1.82402309e-03 1.08363796e-02 -3.62160819e-04
    -5.35083062e-04 -2.53217318e-03 4.91018314e-03 4.07004729e-03
    1.52031961e-03 1.65242585e-03 6.54251128e-03 -5.71165606e-03
    -7.48485746e-03 3.21971229e-03 -9.31276474e-04 -9.40707233e-03
    -1.85136068e-05 1.00341556e-03 5.78634790e-04 -1.04135210e-02
    -7.48609286e-03 -9.27664433e-03 -2.62756459e-03 2.90653831e-03
    -2.16102181e-03 -4.23402619e-03 1.47119525e-03 -6.06141333e-03
    -6.71582855e-03 -1.62798278e-02 -5.54492371e-03 -1.34672839e-02
    -7.72658130e-03 3.68762342e-03 -3.99916247e-03 -5.61478315e-03
    -7.15932762e-03 1.29066105e-03 5.34624793e-03 -3.82633717e-03
    1.61092747e-02 5.96178230e-03 -2.26596138e-04 -7.25791976e-03
    -4.67489852e-04 2.01299740e-03 -1.09837658e-03 -1.39197670e-02
    3.86684877e-03 -1.00578442e-02 -3.12556047e-03 6.53182622e-03
    9.81547404e-03 -8.85468815e-03 -9.94274206e-03 -3.61395371e-03
    -1.37258992e-02 -4.63351421e-03 -1.17558399e-02 -7.42200296e-03
    8.30380159e-05 -9.44877509e-03 -5.57010854e-03 -3.53579246e-03
    2.26973742e-03 -2.37344415e-03 1.37578230e-02 -1.50175467e-02
    -1.57663412e-02 1.41511450e-03 -7.79128680e-03 2.32809180e-04
    1.73047325e-03 4.93875239e-03 -2.35553514e-02 7.82151148e-03
    -6.26956439e-03 -6.18365826e-04 -6.41698530e-03 7.29916804e-03
    -1.24799199e-02 -4.83020488e-03 -1.96840800e-03 1.20534319e-02
    -9.45960521e-04 1.12311505e-02 -1.10084629e-02 -8.45151395e-03
    -4.00777813e-03 3.09917796e-03 2.07404676e-03 1.80327217e-03
    -3.74605064e-03 7.24115269e-03 -2.57611591e-02 -1.47934858e-04
    1.34864042e-03 -6.92235120e-03 2.18285108e-03 4.40321211e-03
    -9.81614692e-04 -2.62739533e-03 7.04630278e-03 7.04108505e-03
    -2.00443622e-02 8.06395244e-03 2.01022183e-03 -1.17573487e-02
    1.40378512e-02 -9.67027387e-04 -8.36226810e-03 7.18767988e-04
    5.79583738e-03 2.00259010e-03 -1.31432535e-02 -8.31574784e-04
    -3.83549789e-03 -2.76483013e-03 -3.71279032e-03 -2.20847558e-02
    -8.36645439e-03 1.24101695e-02 -1.24319056e-02 4.75090276e-03
    -7.21085165e-03 -1.80459186e-03 1.11454469e-03 1.95048433e-02
    -1.94747141e-03 7.49631668e-04 -1.09009985e-02 -7.91819207e-03
    -1.11394767e-02 6.25712238e-03 -1.26978084e-02 4.39254381e-03
    -5.12383273e-03 -4.09707986e-03 -1.26401067e-03 1.29843857e-02
    -4.87970002e-03 5.07311895e-03 2.29070224e-02 -6.36335323e-03
    2.06024777e-02 5.41254412e-03 -1.18106436e-02 -8.58577527e-03
    1.11393631e-02 -4.85559693e-04 -9.48624313e-03 -7.41916418e-04
    -6.70449901e-03 1.43212537e-05 2.02526469e-02 -9.40946676e-03
    -7.48981535e-03 9.59382206e-03 -1.00665363e-02 4.01365454e-04
    7.31671043e-03 -7.30186049e-03 -1.24960179e-02 4.46118601e-03
    -7.09083350e-03 -5.93080325e-03 3.39062419e-03 1.15631137e-03
    -8.68169777e-03 2.05866750e-02 1.38231339e-02 1.81496181e-02
    -1.73699646e-03 -6.21688832e-03 -6.77811541e-03 -1.72558222e-02
    -7.20887864e-03 1.93255045e-03 1.40000330e-02 1.54260790e-03
    2.18893611e-03 1.73732158e-04 -2.96430290e-03 -3.88332759e-03
    6.53741648e-03 -3.64631554e-03 -4.81134094e-03 6.86579430e-03
    -1.57904380e-03 -1.36844609e-02 8.00847076e-03 1.50964921e-03
    -4.21490194e-03 3.57506680e-03 -4.20754217e-03 2.00883597e-02
    6.99966867e-03 5.46489330e-03 -2.15011835e-03 -1.42870499e-02
    4.97399736e-03 -5.17021399e-03 1.16122933e-03 -3.49346059e-03
    3.22108809e-03 1.74408332e-02 1.25199612e-02 1.62383169e-02
    7.01600313e-03 -3.76259955e-03 -4.35170281e-04 3.61207686e-03
    7.21663050e-03 -1.62600854e-03 8.99555907e-03 -4.72926674e-03
    4.36862232e-03 -1.27908420e-02 5.36211487e-03 -6.44339481e-03
    1.03103863e-02 3.75017244e-03 6.56738365e-03 6.49119494e-03
    -6.28488045e-03 -1.22536542e-02 -6.54996838e-03 -6.50482625e-03
    5.80988079e-03 9.82444454e-03 7.41084665e-03 1.60294008e-02
    -9.23610106e-03 -9.10200737e-03 -1.36911580e-02 4.46553715e-03
    -6.02272991e-03 6.70618087e-04 -2.90850177e-04 1.38930483e-02
    -6.33937726e-03 3.79183912e-03 2.70126364e-03 -1.45637244e-03
    -1.40274139e-02 3.22500244e-03 -1.42173637e-02 6.27300376e-03
    -8.89352337e-03 1.36602705e-03 4.62301914e-03 1.65602881e-02
    1.46136805e-02 -6.25967793e-03 2.82806368e-03 1.35597086e-03
    4.50549927e-03 -2.02306709e-03 -6.15223325e-05 -2.31263563e-02
    -8.49139132e-03 -1.70895606e-02 3.20539623e-03 -2.62472034e-03
    1.70669096e-04 2.21274681e-02 -2.58234632e-03 -4.10338212e-03
    -1.01514359e-03 3.27483192e-03 1.17685935e-02 3.52875935e-03
    -3.01404879e-03 -1.49399322e-02 8.82117823e-03 -8.69218260e-03
    -3.69369052e-03 1.14530427e-02 1.14469342e-02 1.00272363e-02
    -1.43982796e-02 6.89871842e-03 -5.58589725e-03 -8.04561283e-03
    1.07358629e-02 -1.37755759e-02 1.50916888e-03 -1.50991080e-03
    -1.02333397e-04 -1.09890075e-02 -9.67840850e-03 5.49451960e-03
    2.11140700e-02 1.58466434e-03 -3.74676357e-03 -1.00023970e-02
    -8.81661847e-03 6.49164245e-03 -2.23714393e-03 -7.17047462e-03
    4.10956191e-03 3.11341556e-03 -2.93644634e-03 -2.68197735e-03
    -4.33888566e-03 2.04587099e-03 1.12559891e-03 -6.50664931e-03
    5.91186760e-03 -6.01364579e-03 -1.09144216e-02 1.30996620e-02
    -1.36746475e-02 -4.93837893e-03 3.90038779e-03 2.61225709e-04
    -2.14952952e-03 -1.14402128e-02 -7.20870029e-03 -1.94492526e-02
    1.58931762e-02 -2.38656742e-03 6.74688257e-04 9.95450094e-03
    1.42136328e-02 -1.32137560e-03 -1.07073635e-02 3.43637425e-03
    2.48563290e-03 4.65426827e-04 -1.34212878e-02 3.65117076e-03
    6.95092371e-03 -4.64369729e-03 -3.46799847e-03 -5.19560138e-03
    9.60088614e-03 8.48011486e-03 1.49920918e-02 -1.23716635e-03
    -6.09306851e-03 3.09470436e-03 6.58230783e-06 -1.15075139e-02
    -8.61848425e-03 -1.08360238e-02 -1.47713535e-02 2.08326429e-02
    -1.58724394e-02 1.20577542e-02 2.97801849e-02 9.44084488e-03
    3.17363534e-03 -2.10719742e-02 -1.78432297e-02 -2.96091959e-02
    -5.14964457e-04 5.95674245e-03 8.26689787e-03 1.39051648e-02
    6.29126886e-03 -1.22658508e-02 -1.04003269e-02 2.65639438e-03
    8.70595314e-03 1.05369464e-02 -1.20913489e-02 4.62971535e-03
    6.50849659e-03 2.20174203e-03 -4.21289820e-03 9.83979274e-03
    1.05108665e-02 7.93369953e-03 1.25209857e-02 -2.28573242e-03
    -4.87698754e-03 -2.21734662e-02 -3.16883251e-03 -1.53607428e-02
    5.07208146e-03 -1.55419251e-02 -1.70469917e-02 -6.04560133e-03
    -2.52174534e-04 -6.45699771e-03 8.99776816e-03 5.35002491e-03
    3.31287971e-03 2.24557379e-03 -7.50949432e-04 4.33793012e-03
    2.49192724e-03 -3.28166992e-03 -7.09075807e-03 3.83651303e-03
    5.44310501e-03 -5.59567532e-04 -4.82942630e-03 1.87751546e-03
    8.91533960e-03 3.66340904e-03 4.66904277e-03 -1.22518861e-04
    3.30901559e-04 1.04831746e-02 -6.40324876e-03 -5.01002744e-03
    -1.22218244e-02 -5.64465765e-03 -1.96539126e-02 3.49634863e-03
    9.10657644e-03 2.36558681e-03 1.36258965e-02 1.03979548e-02
    -1.89107726e-03 -1.03290416e-02 -9.83920321e-03 5.21543948e-03
    -1.24506569e-02 -1.63160563e-02 1.95670826e-03 6.78999489e-03
    -1.06545407e-02 -1.91789423e-03 7.94389099e-03 -1.27618639e-02
    2.37662578e-03 -9.21938289e-03 -2.96575273e-03 4.28388081e-03
    1.06064426e-02 -3.93806398e-03 -2.88220309e-03 -5.41246217e-03
    -1.66069309e-03 -3.15093971e-03 -2.69528525e-03 6.55743619e-03
    9.82196303e-04 8.77504423e-03 -8.77872854e-03 5.27361780e-03
    6.01799879e-03 1.53040991e-03 3.32434755e-03 2.95567070e-03
    -6.47511333e-03 -3.51612805e-03 -4.63454891e-03 4.71240189e-03
    -7.53120612e-03 7.08386861e-03 -1.72108598e-02 9.63095762e-03
    -2.32178941e-02 -7.91657437e-03 7.49277137e-03 1.56531110e-03
    -1.48466798e-02 -8.56286031e-04 1.49029801e-02 -4.97256930e-04
    7.86322355e-03 6.41869148e-03 5.13527077e-03 -5.58746932e-03
    -1.84188336e-02 -6.06102357e-03 -2.28370074e-03 1.17323864e-02
    -2.67256633e-04 6.41617505e-03 -1.31461630e-02 4.54249419e-03
    7.44418055e-03 -1.10812462e-03 2.86503858e-03 -2.90041062e-04
    2.17233319e-02 -3.13942740e-03 1.95978000e-03 -3.55005777e-03
    9.81205795e-03 5.57522196e-03 -1.61987206e-03 2.00154819e-03
    -5.69073018e-03 1.36023471e-02 -5.13943890e-03 9.58117284e-03
    -8.95839371e-03 2.86962627e-03 -2.96369521e-03 -6.44701300e-03
    -8.70806817e-03 3.64971301e-03 1.74835864e-02 1.29229492e-02
    -2.05970416e-03 -1.51759852e-02 -2.01890953e-02 5.66835189e-03
    -3.08320043e-03 9.38825775e-03 -8.97040870e-03 1.87936891e-02
    3.69090983e-03 1.43599964e-03 -1.70432292e-02 7.30583211e-03
    -1.05416821e-02 -8.71224049e-03 3.84457107e-03 -5.25516178e-03
