<?xml version="1.0"?>
<opencv_storage>
<SVMmodelV_-_2 type_id="opencv-object-detector-hog">
  <winSize>
    48 56</winSize>
  <blockSize>
    16 16</blockSize>
  <blockStride>
    4 4</blockStride>
  <cellSize>
    8 8</cellSize>
  <nbins>9</nbins>
  <derivAperture>1</derivAperture>
  <winSigma>4.</winSigma>
  <histogramNormType>0</histogramNormType>
  <L2HysThreshold>2.0000000000000001e-01</L2HysThreshold>
  <gammaCorrection>0</gammaCorrection>
  <nlevels>64</nlevels>
  <signedGradient>0</signedGradient>
  <SVMDetector>
    -1.23400642e-02 -3.67045105e-02 -2.20690724e-02 -2.31803134e-02
    5.74135780e-02 -3.17538343e-02 1.46119564e-03 -7.31542334e-02
    -2.99061881e-03 1.28642535e-02 4.21337187e-02 -5.74370958e-02
    -1.51403826e-02 -8.84298701e-04 -8.15958902e-02 2.56218519e-02
    -4.42944374e-03 2.09984761e-02 9.29594098e-04 6.03516065e-02
    7.14664208e-03 6.30795658e-02 4.99313362e-02 7.79795125e-02
    -2.72486382e-03 -6.39099395e-03 2.95445658e-02 -4.85567041e-02
    -2.78621074e-03 3.66891958e-02 4.95959632e-02 1.97999123e-02
    1.10563426e-03 1.72820464e-02 2.74723601e-02 2.96739433e-02
    -1.97689999e-02 3.79798710e-02 -6.65178224e-02 -4.69296090e-02
    1.93933230e-02 -1.21009601e-02 -3.29539017e-03 -3.63655342e-03
    7.04122940e-03 1.72805004e-02 5.02624223e-03 5.53603284e-02
    6.32748529e-02 4.59959544e-02 1.67284012e-02 -9.61065814e-02
    2.87595228e-03 -2.07670294e-02 -4.57500219e-02 -6.20065592e-02
    5.16395085e-02 2.95430254e-02 8.99118744e-03 -3.39385346e-02
    -2.77590677e-02 2.35243589e-02 3.98968980e-02 -1.72729306e-02
    3.31070796e-02 -2.99869385e-03 3.77418823e-03 2.30814908e-02
    2.03911383e-02 -4.15520184e-03 3.58643476e-03 6.21439563e-03
    4.40678932e-03 1.10232299e-02 6.08484857e-02 2.51139514e-02
    5.28035834e-02 1.32253366e-02 -6.03781380e-02 -2.19310145e-03
    -2.53735203e-02 9.89753567e-03 -1.59692764e-02 -2.24558078e-02
    -5.15934937e-02 4.89339307e-02 1.13373790e-02 -1.66050103e-02
    -1.45489024e-02 7.51239154e-03 -4.38452438e-02 -3.69346216e-02
    1.11538684e-02 -1.48312626e-02 1.94301140e-02 3.71053629e-02
    -5.71804754e-02 -2.24747676e-02 -3.69601063e-02 3.26119959e-02
    6.42548427e-02 3.02782729e-02 1.10956654e-03 3.43438238e-02
    -4.13084636e-03 -1.33796741e-04 5.22466749e-03 2.45190952e-02
    -8.81575048e-03 3.19108856e-03 3.33874649e-03 -3.68139558e-02
    5.63894175e-02 3.50766932e-03 -5.87406494e-02 -3.24085914e-02
    2.90630553e-02 1.99325420e-02 -5.81506407e-03 -9.67405830e-03
    1.29691195e-02 4.85311635e-02 -4.14879583e-02 -2.90664379e-02
    8.27511679e-03 2.95826886e-02 5.81260286e-02 4.59881425e-02
    3.60905975e-02 1.65614784e-02 -9.86046437e-03 9.39819962e-04
    6.26900606e-03 1.47059672e-02 2.24681366e-02 -3.68559919e-03
    6.25529513e-02 3.51106860e-02 2.35533770e-02 1.62288919e-02
    -3.03967297e-02 -5.06029539e-02 -2.01373305e-02 -1.43103888e-02
    -1.75388623e-02 1.24659250e-02 -6.14720630e-03 3.71609963e-02
    -8.48001335e-03 -2.30162684e-02 -2.51397341e-02 -3.33576351e-02
    2.58578490e-02 -6.26945775e-03 -2.01060735e-02 -5.95925711e-02
    -1.84417572e-02 7.73582933e-03 -1.71279553e-02 5.97112020e-03
    5.49926832e-02 -5.78785548e-03 -8.48032814e-03 3.36381979e-02
    3.77998091e-02 5.27293012e-02 1.80345997e-02 -1.93794761e-02
    -5.21682501e-02 -6.34199679e-02 -6.44467305e-04 2.22365111e-02
    -2.02775653e-02 5.64154088e-02 -1.29658438e-03 -4.96781990e-03
    -1.69293713e-02 -5.93208522e-03 -2.57243104e-02 1.21341953e-02
    7.42141437e-03 2.22627129e-02 -3.25582176e-02 -1.11493878e-02
    6.36865804e-03 -4.08832356e-02 3.78499329e-02 6.59278855e-02
    1.61229353e-02 1.94542371e-02 -2.26890985e-02 1.60964811e-03
    -1.74042881e-02 4.10217084e-02 1.63854677e-02 -6.14462420e-02
    2.25468772e-03 -4.44335341e-02 -4.91898917e-02 -4.26375540e-03
    1.94683857e-02 2.48519182e-02 1.19709549e-02 -3.93720269e-02
    1.06231365e-02 -5.35166822e-02 -3.24661173e-02 -4.08194922e-02
    1.81813608e-03 3.72771174e-02 -2.14411002e-02 4.01764400e-02
    -4.72784927e-03 7.95237068e-03 -1.60454046e-02 -2.78926399e-02
    6.22502454e-02 3.59507240e-02 -1.74764462e-03 -2.51516830e-02
    1.68056302e-02 -1.82453841e-02 -3.11288368e-02 -1.94940269e-02
    1.10094305e-02 2.54662670e-02 -2.07090992e-02 4.40187613e-03
    4.98822629e-02 -1.61846690e-02 -1.98510978e-02 -2.47627255e-02
    -2.41748262e-02 3.60000655e-02 2.60459855e-02 8.35627392e-02
    -1.32856341e-02 -1.63557213e-02 1.36473402e-02 -1.91603508e-02
    2.52408125e-02 5.08064544e-03 1.11188856e-04 5.65252118e-02
    8.54506902e-03 3.04385014e-02 -2.32421551e-02 -4.28772951e-03
    1.71976909e-02 -4.61693387e-03 1.64179113e-02 3.82200666e-02
    5.01104258e-02 1.38743268e-02 1.77763849e-02 2.65024696e-02
    -4.35601920e-03 -3.02514341e-02 6.01755106e-04 -2.15259790e-02
    5.74442558e-02 -5.07616485e-03 -5.11295423e-02 -3.22736576e-02
    1.67305041e-02 -1.27116777e-03 1.49474405e-02 1.36341415e-02
    3.52406278e-02 3.62909921e-02 1.79286730e-02 4.63754404e-03
    4.73259725e-02 3.47950198e-02 -4.14015166e-02 1.97524857e-02
    5.85080357e-03 2.35949773e-02 5.51960953e-02 -3.55884135e-02
    -1.40168981e-04 3.97039689e-02 -5.45129925e-02 1.33880759e-02
    4.70698066e-03 9.42921080e-03 -4.72494023e-04 -2.66263559e-02
    -8.80809128e-03 2.16872916e-02 2.17289217e-02 -2.93058390e-03
    1.56531879e-03 -4.70121950e-02 4.09135073e-02 -5.19692246e-03
    2.18697712e-02 2.69350223e-02 7.26172049e-03 -3.78860086e-02
    4.13583554e-02 6.71379119e-02 -3.03725284e-02 1.65326558e-02
    5.64352013e-02 -4.14235219e-02 -6.77863928e-03 -1.25633236e-02
    8.70621130e-02 -9.60507430e-03 -3.13068856e-03 -3.27432491e-02
    4.62351851e-02 -2.06368696e-02 -2.96364017e-02 2.99039185e-02
    -5.60812233e-03 1.14634680e-02 -3.99978943e-02 3.66251194e-03
    2.53369729e-03 -5.44554181e-03 2.59513017e-02 1.12229595e-02
    1.19330045e-02 -3.36381793e-03 -1.29539017e-02 1.62336044e-02
    5.39353751e-02 -5.96552975e-02 -4.93649542e-02 2.54240390e-02
    -4.69694883e-02 1.12380320e-02 4.52653132e-02 -8.75050202e-02
    -1.42182568e-02 -4.98757735e-02 4.37094010e-02 3.62641439e-02
    2.73773875e-02 5.10421582e-02 -9.31931287e-03 -2.61068102e-02
    1.22510819e-02 -1.57842450e-02 -1.99339390e-02 -1.99829489e-02
    -2.62817517e-02 5.03336778e-03 -3.88735742e-03 -1.31572615e-02
    1.70753971e-02 9.98762250e-03 -4.90405150e-02 -5.79703078e-02
    -1.55014135e-02 7.05741942e-02 4.06400748e-02 -4.24600281e-02
    4.08978648e-02 5.18253036e-02 -9.76854563e-03 6.69708801e-03
    -3.26069966e-02 6.12993538e-03 -4.29793671e-02 2.03832276e-02
    3.86540666e-02 3.72430347e-02 -5.84490784e-02 -4.78214435e-02
    -2.50980235e-03 4.75086942e-02 8.26881677e-02 -2.36847699e-02
    -5.01297228e-02 7.70600736e-02 -5.26512507e-03 1.94712821e-02
    -3.36763449e-03 3.82482894e-02 -3.63160670e-02 -1.23564405e-02
    1.00564789e-02 -1.35299163e-02 -4.18732613e-02 -3.17732133e-02
    1.36338407e-02 4.87568192e-02 -1.42128449e-02 -1.07619958e-02
    6.71969801e-02 -5.50701749e-03 8.07345137e-02 2.04710360e-03
    8.09539482e-03 4.30887192e-02 1.76331382e-02 7.25510493e-02
    -1.44101763e-02 2.32800432e-02 -2.57911421e-02 -6.73788786e-02
    6.31754287e-03 -3.00480016e-02 -1.66347362e-02 6.32934347e-02
    3.89641747e-02 4.65283208e-02 -3.01237255e-02 -1.94359606e-03
    -2.04447135e-02 3.45655950e-04 -2.61038821e-02 -5.60754864e-03
    3.53734620e-04 1.86310243e-02 1.86802577e-02 7.77724246e-03
    1.46946525e-02 3.59861590e-02 -5.69389574e-03 -5.33541441e-02
    4.92707975e-02 1.84450820e-02 9.31806955e-03 -2.07359307e-02
    -1.68227148e-03 -2.22798111e-03 -1.10241221e-02 7.36797787e-03
    2.94845141e-02 1.03762858e-02 4.19412218e-02 5.83828539e-02
    2.38743611e-02 -4.07494940e-02 1.85216474e-03 -1.66621264e-02
    1.76980887e-02 -4.14213137e-04 2.49672029e-02 -3.04574613e-02
    -3.66394781e-02 9.43922810e-03 -2.43381830e-03 4.91403490e-02
    1.93913486e-02 -4.69330437e-02 -1.09453546e-02 -1.84018221e-02
    -8.31006386e-04 -2.12601144e-02 -1.90320984e-02 -3.66595425e-02
    2.24879943e-03 2.01228932e-02 2.10664533e-02 1.09871645e-02
    4.12169211e-02 -3.66936289e-02 -8.45215097e-03 -1.72957941e-03
    3.11952736e-02 4.64483649e-02 -1.52058816e-02 3.28568146e-02
    1.05038490e-02 -3.05456482e-02 2.44601928e-02 -4.05437127e-02
    6.46563387e-03 2.90127080e-02 8.22937675e-03 7.45719718e-03
    -3.65530625e-02 5.27383648e-02 2.20215637e-02 2.11338582e-03
    -4.18220721e-02 -2.05526557e-02 -8.93532240e-04 7.30020031e-02
    3.11391149e-02 -1.48297474e-03 8.62007868e-03 3.80484723e-02
    -4.38201725e-02 3.55198584e-03 -8.06207303e-03 1.54655939e-02
    6.19237721e-02 -3.89270969e-02 8.09727889e-03 -3.93129769e-04
    -3.32954861e-02 1.33505746e-04 -2.82765981e-02 7.64578721e-03
    1.92936081e-02 -1.88855594e-03 3.61406915e-02 -7.32097253e-02
    2.04440542e-02 2.49685682e-02 -2.76737008e-02 -2.93242633e-02
    -7.70481164e-03 -8.14324338e-03 7.26343179e-03 1.70722473e-02
    -1.29716983e-02 3.88329104e-02 -9.30492394e-03 1.61565915e-02
    -9.10556410e-03 5.11714220e-02 -1.67808367e-03 1.74817275e-02
    -6.90860907e-03 2.32397001e-02 5.88445505e-03 -4.76352870e-02
    3.31396516e-03 2.66469922e-02 -8.41603847e-04 3.30107212e-02
    -2.04950962e-02 2.49719154e-02 -2.51719784e-02 3.56763937e-02
    -1.08130313e-02 4.62274924e-02 -4.39466629e-03 5.62978312e-02
    -4.46533595e-05 -2.25156732e-02 2.92475689e-02 1.28927140e-03
    -5.02631664e-02 1.17320649e-03 2.26803701e-02 4.93576005e-02
    2.21338384e-02 -1.52671868e-02 -1.77618042e-02 -7.14946687e-02
    -2.86860932e-02 -1.79155115e-02 -5.01432233e-02 1.95133071e-02
    -4.79812501e-03 -3.92436534e-02 -1.55732539e-02 2.31262613e-02
    -7.12265354e-03 2.20789630e-02 -1.68532990e-02 -1.55855538e-02
    3.67881730e-02 1.56819429e-02 2.32593194e-02 1.09326863e-03
    -2.88301539e-02 6.50981301e-03 -1.59485824e-02 4.73778322e-02
    -4.95302118e-02 7.54633918e-02 -2.35383380e-02 -9.92385577e-03
    1.29288072e-02 -1.94502790e-02 -8.27922579e-03 3.77558284e-02
    -7.83139467e-02 -1.29018223e-03 -2.23012157e-02 4.35004011e-02
    -2.30347905e-02 -2.59195305e-02 2.03867815e-02 -3.24601941e-02
    -2.10741032e-02 -2.64202151e-02 -5.35422564e-03 -1.49700651e-02
    -2.34089661e-02 2.88181808e-02 2.65705641e-02 1.05561586e-02
    -4.90889279e-03 -2.36006193e-02 6.68676049e-02 -4.89876606e-02
    6.28530513e-03 3.22419852e-02 3.21254730e-02 -3.20703946e-02
    -3.38158943e-02 9.51927714e-03 1.60615202e-02 -5.44993170e-02
    -3.46695585e-03 5.25787398e-02 -1.71837900e-02 -4.71365936e-02
    -2.66249888e-02 -3.21181230e-02 -4.81312461e-02 -3.56592163e-02
    -3.67979612e-03 6.47200122e-02 2.05792696e-03 -8.07950459e-03
    -2.51985658e-02 -2.98409779e-02 3.22291553e-02 -2.14961246e-02
    -3.20407711e-02 2.26409566e-02 -5.43619096e-02 3.69125814e-03
    3.69565450e-02 -1.30291618e-02 1.93658136e-02 -3.69735584e-02
    6.62166625e-03 -1.77677777e-02 8.00154638e-03 7.61818960e-02
    2.89208023e-03 8.87340959e-03 -1.53737878e-02 -3.45422775e-02
    -2.63876170e-02 -4.64891130e-03 -1.35353645e-02 4.48195301e-02
    -7.50260651e-02 -3.25938463e-02 -3.13196075e-03 -7.08511192e-03
    -1.78585183e-02 5.30029228e-03 -4.50211354e-02 4.40138839e-02
    3.03207450e-02 -4.34947610e-02 -1.23513313e-02 1.43462047e-02
    -2.87239291e-02 5.45573086e-02 -1.46279465e-02 1.00101130e-02
    -2.03147195e-02 7.47500313e-03 -4.22464609e-02 5.09194061e-02
    -2.61563566e-02 1.27313370e-02 6.58897758e-02 -9.44020227e-03
    -5.10896929e-02 -4.77575697e-02 7.32536754e-03 -2.00045761e-02
    1.70575660e-02 1.80046621e-03 -2.96656862e-02 -1.32506052e-02
    -7.63390679e-03 -6.65941276e-03 3.53126489e-02 -1.70246116e-03
    1.28960209e-02 -3.09383031e-02 3.92226912e-02 7.85455806e-04
    -1.10179838e-02 1.89676825e-02 2.62861867e-02 1.90200377e-02
    2.24759243e-02 9.08899866e-03 5.15180193e-02 -2.52959132e-02
    -1.74477920e-02 -8.20602663e-03 1.04425773e-02 -6.48957491e-02
    -3.19169648e-02 7.40629388e-04 -1.10878912e-03 -2.64910776e-02
    3.82857281e-03 3.71016338e-02 1.77095439e-02 -4.96392287e-02
    -3.46258208e-02 -9.64260369e-04 1.15890196e-02 1.73162408e-02
    -3.81375626e-02 -1.02052316e-02 4.35117306e-03 -4.12061326e-02
    5.27427755e-02 3.40336971e-02 -1.00766541e-02 1.48575045e-02
    2.93262722e-03 -2.09641792e-02 -4.84833866e-03 3.66225932e-03
    6.66221837e-03 1.87229272e-02 6.72226585e-03 -1.58848912e-02
    -1.16970474e-02 -1.51339844e-02 -3.28708775e-02 -4.05995846e-02
    -1.04475496e-02 3.02564562e-03 -5.72214872e-02 -2.65426990e-02
    2.68395860e-02 -6.89948201e-02 3.25925015e-02 -2.01063100e-02
    2.05722637e-03 -7.30013326e-02 -1.28614390e-03 1.27760656e-02
    6.85784640e-03 -3.50445434e-02 -2.24774200e-02 -4.18379828e-02
    -4.96558882e-02 4.80503496e-03 8.13604519e-03 -5.72219433e-04
    3.86048108e-02 7.20508862e-03 2.39684302e-02 -2.77072191e-02
    2.06705090e-02 4.47965739e-03 -1.01314381e-01 2.66590365e-03
    -4.43100855e-02 -3.20482664e-02 -1.87869817e-02 -5.78254908e-02
    -6.29263464e-04 3.64024453e-02 4.70652245e-03 4.36033681e-02
    -4.27737422e-02 -1.15380166e-02 1.15414448e-02 -1.32233649e-02
    3.83783802e-02 -1.76918916e-02 -3.07546300e-03 9.84647963e-03
    2.58018710e-02 -1.49995666e-02 6.80395365e-02 -1.04052350e-02
    1.09417252e-02 -1.58900097e-02 1.05879381e-02 5.50032733e-03
    -1.58713795e-02 -2.99561247e-02 5.85680362e-03 -5.73219694e-02
    9.82598867e-03 2.14697374e-03 -8.32542032e-03 1.50490850e-02
    3.88860004e-03 7.33370408e-02 1.62633210e-02 3.33812609e-02
    4.50769626e-02 7.98136648e-03 7.44578522e-03 -3.79774198e-02
    -1.62258428e-02 -2.55424120e-02 1.27731198e-02 4.70708907e-02
    -1.03963399e-02 -2.75605489e-02 4.94548306e-02 -7.15106167e-03
    -2.26131175e-02 -2.68701371e-02 2.56373193e-02 4.01869044e-02
    -1.49926898e-04 -3.16435173e-02 -2.33883727e-02 1.95584763e-02
    1.38578285e-02 -6.53465791e-03 -3.85405309e-03 -9.64190066e-03
    1.80579033e-02 6.11458272e-02 -2.43180636e-02 3.10266912e-02
    -4.12371417e-04 1.90082956e-02 -7.61444718e-02 2.25807130e-02
    4.01387885e-02 -4.41513164e-03 -6.95268670e-03 -9.62113775e-03
    4.41403948e-02 -1.78517159e-02 -1.40704848e-02 -3.55735868e-02
    -7.60163134e-03 -2.97758412e-02 7.12220445e-02 -3.95049248e-03
    -1.15536293e-02 -2.32078116e-02 -8.77959747e-03 -3.73540409e-02
    1.43421972e-02 2.04328690e-02 6.40811995e-02 -2.95073967e-02
    8.18778761e-03 1.31227328e-02 6.09528348e-02 3.73923108e-02
    -3.44284251e-02 5.70051931e-03 4.34008874e-02 -2.48916987e-02
    -1.23322178e-02 -2.58291792e-02 -2.97409929e-02 -2.39030570e-02
    5.92140481e-03 -1.79642010e-02 2.03675274e-02 4.33571599e-02
    -2.88319923e-02 1.87552609e-02 -9.71446221e-04 5.34860126e-04
    3.07647437e-02 2.94615272e-02 2.11098157e-02 2.39364989e-02
    -7.65971700e-03 1.29990326e-02 -5.27849533e-02 5.28542744e-03
    -4.09301231e-03 -5.95277268e-03 -1.29237247e-03 -2.59111542e-02
    -4.15624306e-03 1.62012111e-02 -3.57599333e-02 -1.40094431e-02
    -3.26163024e-02 -1.17829321e-02 2.08203029e-02 1.99432597e-02
    9.70231090e-03 -2.38102190e-02 8.94088298e-03 -4.90283147e-02
    -5.05962148e-02 1.87101588e-02 -2.51221638e-02 2.07391940e-02
    3.37724909e-02 2.68799644e-02 -2.38497555e-03 8.74073058e-03
    -2.80502606e-02 3.12076788e-02 -2.63818875e-02 4.35155490e-03
    1.27813797e-02 -2.23581530e-02 3.51776890e-02 -7.24944174e-02
    -1.43643646e-02 -4.38449942e-02 -3.14594209e-02 3.60896066e-02
    2.16522869e-02 4.24392037e-02 -4.59307618e-02 1.24088512e-03
    -6.04603207e-03 2.92642210e-02 -1.46515295e-02 1.36059849e-03
    -5.54655679e-02 1.59272496e-02 -2.71240771e-02 2.69860448e-03
    1.59626026e-02 3.23905647e-02 7.78998481e-03 1.44148264e-02
    1.22134425e-02 -3.95367621e-03 4.37322259e-02 -2.10437775e-02
    4.87316586e-03 -5.85160730e-03 -5.87501526e-02 3.02646663e-02
    1.86053012e-02 1.38963619e-02 1.41719300e-02 -5.15869819e-02
    -3.85614373e-02 -2.11711284e-02 2.72008162e-02 1.22220013e-02
    -4.66414392e-02 -7.16347760e-03 4.35063615e-03 7.68803153e-03
    9.96038597e-03 1.12312669e-02 -1.05808694e-02 1.76747367e-02
    -5.70063526e-03 4.20402475e-02 -2.99980827e-02 -1.43070165e-02
    -1.49145499e-02 -2.52549108e-02 2.39132605e-02 2.70365942e-02
    -7.24422222e-04 -2.27494258e-03 1.04818419e-02 5.83996959e-02
    -1.92562006e-02 4.63309921e-02 -2.68460959e-02 1.24540813e-02
    3.38089745e-03 -9.20307450e-03 -2.73276027e-02 -9.68973804e-03
    -6.19057706e-03 3.57480049e-02 2.48228628e-02 4.92629446e-02
    -2.94689070e-02 2.58298442e-02 -2.21113171e-02 -3.67486328e-02
    1.36433430e-02 -1.75649282e-02 -4.66217734e-02 6.92939982e-02
    -1.44234793e-02 -1.03396876e-03 1.40737835e-02 3.14360671e-02
    -1.11196833e-02 -1.66979190e-02 3.12189069e-02 -8.02568160e-03
    -6.95988163e-02 -5.37814312e-02 7.35688629e-03 1.62570383e-02
    -1.35592073e-02 -3.48555204e-03 5.46773477e-03 -4.26591970e-02
    -3.49942334e-02 2.26502884e-02 -8.74849409e-03 -3.23320515e-02
    1.40125845e-02 5.28707111e-04 -5.03755026e-02 -1.64804198e-02
    -4.26123757e-03 4.66122180e-02 4.65446003e-02 2.00945493e-02
    -2.47788727e-02 4.73524648e-04 -3.68648954e-02 4.28558700e-03
    -2.84119812e-03 8.84245560e-02 -6.89163478e-03 -1.57599468e-02
    -6.82197288e-02 -1.32746967e-02 -1.01414649e-02 -2.50246897e-02
    -4.54114452e-02 -3.32827643e-02 -2.88925432e-02 -1.96790043e-02
    2.93689016e-02 1.65987574e-02 -6.09114068e-03 1.41676664e-02
    -2.50972100e-02 7.99885578e-03 -1.07282950e-02 1.53525863e-02
    2.70262025e-02 6.36799484e-02 5.13196886e-02 -4.26940806e-02
    -2.47358419e-02 -1.71281211e-02 -2.37271953e-02 2.24829838e-02
    -3.76440957e-02 2.32407823e-04 -6.22533113e-02 -1.13994349e-02
    -1.43269142e-02 -2.30600275e-02 -2.21861955e-02 -1.67283360e-02
    -5.02483808e-02 8.24042689e-03 4.84494865e-02 7.43627315e-03
    -1.77538991e-02 4.63188253e-03 -2.83317603e-02 1.04273744e-02
    -1.58053655e-02 -2.38838214e-02 4.03872542e-02 1.56650618e-02
    6.34647384e-02 2.68493388e-02 2.52355114e-02 -1.26321921e-02
    -7.54183391e-03 1.41696364e-03 1.73158012e-02 1.51400920e-02
    4.13678586e-02 -7.48222833e-03 -2.69243605e-02 2.01521199e-02
    1.96000021e-02 2.67127715e-02 -2.16457024e-02 -3.68529931e-02
    3.77948140e-03 5.00015169e-02 -2.80034486e-02 2.24896614e-02
    -2.09508706e-02 -2.73855329e-02 1.25716599e-02 -5.33977933e-02
    1.15938885e-02 3.68019156e-02 4.80550854e-03 5.67059545e-03
    1.41427107e-02 -2.97359899e-02 2.07939954e-03 -1.55247198e-02
    2.13656612e-02 9.60944686e-03 3.90422344e-02 -2.73914239e-03
    5.88491708e-02 1.65827237e-02 3.25114131e-02 -1.79066323e-02
    -9.14762635e-03 -1.51972091e-02 -2.36580577e-02 -1.66249871e-02
    3.00107319e-02 -3.70297171e-02 -5.98591706e-03 -3.51937525e-02
    3.59332412e-02 -1.40104219e-02 -1.45840384e-02 -1.74860172e-02
    2.35363487e-02 -1.17791817e-02 -1.48577255e-03 -2.04062797e-02
    -7.28900032e-03 -2.22458262e-02 3.68040502e-02 -2.61254106e-02
    1.47376722e-02 7.01265177e-03 -2.04342026e-02 1.89428460e-02
    9.59573034e-03 8.87733046e-03 -3.14731896e-02 -2.84170453e-03
    1.44299837e-02 -1.03668543e-02 -1.29547473e-02 -2.26215050e-02
    -1.03298249e-02 -9.21964366e-03 -5.62740080e-02 -1.02245435e-02
    -3.63753992e-03 -2.07602978e-02 -1.86336488e-02 -2.05840711e-02
    -2.49652676e-02 -2.72059161e-02 -4.86391373e-02 4.75175865e-03
    -1.60970930e-02 4.28272970e-02 4.56910580e-03 -5.57762245e-03
    2.34183669e-03 -4.19018121e-04 8.13673344e-03 -1.63554102e-02
    -2.18804064e-03 1.01474207e-03 -2.64943019e-02 -6.66969549e-03
    4.12057489e-02 -1.19211443e-04 -9.66949109e-03 2.51651183e-02
    -2.38655526e-02 -5.53278066e-03 1.81710646e-02 1.01904664e-02
    -1.61712877e-02 3.46734896e-02 3.75577509e-02 4.34554145e-02
    4.30466793e-02 3.82877747e-03 2.87350491e-02 -9.06795543e-03
    2.05680970e-02 -5.94037659e-02 -2.41896370e-03 2.69707516e-02
    1.10140778e-02 4.38677333e-02 -2.93448865e-02 4.35557067e-02
    3.74370851e-02 -1.43173104e-02 -2.01349263e-04 2.19694581e-02
    -3.18242125e-02 3.59412804e-02 3.45051885e-02 6.54911026e-02
    1.16428146e-02 4.61811535e-02 3.24082300e-02 1.18322046e-02
    -8.27828329e-03 2.81004049e-02 6.14808053e-02 7.11644441e-02
    4.11456674e-02 1.75882764e-02 -1.31994113e-02 9.92571656e-03
    -2.95607955e-03 6.26870571e-03 2.43617669e-02 3.84923406e-02
    1.41755096e-04 -1.69547014e-02 2.98387241e-02 -2.40078438e-02
    1.74515396e-02 8.86181660e-04 -2.76359357e-02 1.37561280e-03
    -3.76173221e-02 3.07969972e-02 2.60729678e-02 2.64279786e-02
    5.59080504e-02 -1.42591279e-02 -6.33244589e-02 -1.37548167e-02
    2.23159771e-02 -2.11582594e-02 -4.92068613e-03 1.14060966e-02
    3.85138132e-02 -4.42164205e-02 6.21642405e-03 -7.39324093e-03
    -3.17337438e-02 -2.00820360e-02 1.86247081e-02 -9.83682461e-03
    -3.57312709e-02 -1.32081900e-02 -5.41795269e-02 1.56103559e-02
    -7.88081624e-03 2.83386838e-03 -8.08732677e-03 4.32939716e-02
    1.34414881e-02 2.09656619e-02 2.11302284e-02 2.62287073e-02
    -3.07554816e-04 -5.96430560e-04 4.84242104e-02 3.84313054e-02
    -1.50609566e-02 7.69703742e-03 -6.21783081e-03 1.59233157e-02
    -2.85165980e-02 -1.90479849e-02 5.82302408e-03 -4.36150543e-02
    1.49731543e-02 -2.19336450e-02 -6.54265732e-02 3.82503076e-03
    1.86445937e-02 -7.74012599e-03 -3.05651259e-02 3.06396955e-03
    -1.53298276e-02 1.02534695e-02 -4.25026519e-03 5.11642732e-02
    -1.59282349e-02 -2.59280223e-02 8.36751331e-03 -2.28412319e-02
    -1.26216449e-02 -1.64907873e-02 -1.67716201e-02 4.79569770e-02
    -4.05385010e-02 -7.50580803e-03 -3.51171792e-02 -4.48997058e-02
    1.70450062e-02 -6.14424869e-02 -1.96134131e-02 -8.91413074e-03
    -3.26945186e-02 -4.78543760e-03 -1.58622935e-02 1.49155995e-02
    4.80325557e-02 5.42019121e-03 1.72919072e-02 -3.22989933e-02
    3.56305316e-02 -4.61198054e-02 -1.47882372e-03 4.56189439e-02
    -6.16631620e-02 -2.43348200e-02 3.09379939e-05 2.46509574e-02
    9.50053148e-03 2.91654021e-02 3.67019959e-02 -7.63946585e-03
    4.41165157e-02 -3.24817412e-02 -3.30887549e-02 -4.35739197e-03
    -3.38296965e-03 2.77209422e-03 2.06149369e-02 -3.51543203e-02
    -3.46318297e-02 -4.14046906e-02 -2.20410489e-02 -3.39624807e-02
    1.55156022e-02 5.05704135e-02 -2.72997897e-02 2.00055595e-02
    -7.97040686e-02 -4.22113836e-02 3.94933634e-02 -4.11560573e-02
    1.88302193e-02 -2.31024381e-02 2.06946060e-02 -1.29244858e-02
    -4.90040425e-03 1.40266512e-02 4.13865456e-03 5.99706620e-02
    -5.33294491e-02 1.54072857e-02 -1.81052368e-02 -5.45372628e-02
    1.54660335e-02 2.62201112e-02 -2.65259612e-02 -2.23804582e-02
    -1.45889977e-02 4.34367955e-02 -2.54551731e-02 3.14997844e-02
    4.28372920e-02 7.61728175e-03 -3.14539894e-02 3.02763103e-04
    -1.99576002e-02 4.44979332e-02 -2.26898883e-02 1.73710119e-02
    5.89938485e-04 -4.21189964e-02 -7.45929219e-03 5.11784814e-02
    -1.30599467e-02 1.76383965e-02 4.24780622e-02 -3.14842425e-02
    4.06247415e-02 -1.72297675e-02 -4.12477478e-02 5.34281433e-02
    2.30490398e-02 5.39403260e-02 -7.11729517e-03 -2.68475693e-02
    1.11792581e-02 3.35221514e-02 2.51337308e-02 1.64234301e-03
    5.82239591e-03 -1.82565041e-02 -9.89028439e-03 9.78471432e-03
    -1.27962157e-02 2.62161363e-02 1.82855558e-02 1.28761400e-03
    -4.85920459e-02 2.43344018e-03 5.33234747e-03 1.79297011e-02
    2.02084407e-02 1.12690441e-02 -8.70145764e-03 1.29337674e-02
    -1.21059818e-02 4.16356772e-02 4.30986620e-02 4.63577686e-03
    -1.06237119e-03 2.86641680e-02 -2.63487790e-02 3.15407328e-02
    3.77297252e-02 2.81898826e-02 -8.61966517e-03 9.78656486e-03
    4.95338663e-02 1.69070177e-02 3.39110568e-02 2.02014986e-02
    9.62345861e-03 7.57703977e-03 -6.95122918e-03 5.05796149e-02
    -5.59033069e-04 1.88110713e-02 4.82216477e-03 1.42698176e-02
    -1.25873312e-02 -1.14214979e-02 2.36522015e-02 5.01955487e-03
    2.82706842e-02 5.57646854e-03 -1.10190436e-02 -1.46170435e-02
    -6.03181981e-02 2.88432091e-02 3.13406251e-02 -1.33776963e-02
    3.09887342e-02 2.76328735e-02 -1.30818794e-02 4.62922677e-02
    2.04309430e-02 1.90173252e-03 -3.91839407e-02 -2.89642941e-02
    -1.47412578e-02 -8.91605392e-03 1.49482209e-02 -1.97753459e-02
    2.38824207e-02 -5.53535623e-03 4.10361215e-02 -6.34298194e-03
    4.71313559e-02 -5.73204132e-04 7.84168392e-03 3.76783288e-03
    1.32252807e-02 2.10852232e-02 4.43732999e-02 -2.07771119e-02
    7.31049012e-03 1.91497691e-02 -1.09537812e-02 2.29957700e-02
    3.16767320e-02 -2.64736135e-02 -7.50573410e-04 1.52710557e-03
    -5.12690656e-02 1.11448709e-02 -2.19801106e-02 -3.62579040e-02
    2.03986950e-02 -2.36129910e-02 -3.27011980e-02 5.87742217e-03
    9.21144336e-03 1.21512003e-02 -5.09947464e-02 4.69337702e-02
    3.26607265e-02 2.15123985e-02 1.20608518e-02 5.35707138e-02
    3.92072685e-02 6.13267794e-02 -2.03379672e-02 9.74181015e-03
    -8.70652776e-03 -1.42522724e-02 4.92206104e-02 5.27274720e-02
    -2.75002723e-03 -5.02899382e-03 -2.11846689e-03 -1.83637142e-02
    -3.25802132e-03 -2.26296373e-02 -7.80050131e-03 -7.97097757e-03
    -1.36006409e-02 -3.24585894e-03 2.46432312e-02 1.74934436e-02
    5.30152395e-02 -5.87096214e-02 3.02001499e-02 -1.87937990e-02
    6.34235889e-03 -5.54156303e-03 4.53135632e-02 1.63869299e-02
    5.13590835e-02 -1.02658682e-02 -1.65192373e-02 -2.29516756e-02
    -3.64145427e-03 4.36120629e-02 2.83517689e-02 -4.93467189e-02
    -3.48776728e-02 -1.32513996e-02 -2.41026524e-02 -2.79035233e-02
    -1.23224026e-02 1.55266058e-02 3.14683169e-02 -4.33033779e-02
    1.75569672e-02 2.59400904e-02 3.27365138e-02 -6.26810594e-03
    -6.40285909e-02 2.17265286e-03 -1.45727210e-02 6.44138362e-03
    8.39428976e-03 1.50321890e-02 6.55793492e-03 7.07329810e-03
    -2.14472692e-03 8.82993801e-04 -1.65495649e-03 3.07407640e-02
    -2.07025036e-02 -1.08904680e-02 2.57680006e-03 -3.49401943e-02
    -3.66463815e-03 -4.86865006e-02 2.27468219e-02 -9.01981164e-03
    1.95971839e-02 3.49751934e-02 4.19818098e-03 -3.64042297e-02
    6.05875021e-03 -3.49333175e-02 2.54532136e-03 1.52001344e-02
    -4.13294770e-02 -2.63081118e-02 2.43377984e-02 1.72689569e-03
    3.93715650e-02 4.94219512e-02 4.54389192e-02 2.89606657e-02
    -4.41004150e-03 4.41999435e-02 3.67558673e-02 -2.34217364e-02
    1.20325182e-02 6.68536946e-02 -3.72718610e-02 5.11196144e-02
    4.31570113e-02 6.22374713e-02 9.40154307e-03 2.24789381e-02
    -3.81902372e-03 -3.09211318e-03 -1.94663443e-02 1.00389766e-02
    -3.68544972e-03 4.25816560e-03 1.05206473e-02 -2.94179432e-02
    -1.50020709e-02 2.41214652e-02 3.14702764e-02 -3.09709888e-02
    -2.73456071e-02 -2.77657788e-02 -1.24799497e-02 7.50098825e-02
    3.77344862e-02 6.37048949e-03 3.78541797e-02 -4.97321449e-02
    -3.50926518e-02 3.86249423e-02 4.21067178e-02 2.37638149e-02
    7.20132515e-02 4.26849499e-02 4.48755845e-02 -1.94695871e-02
    -4.12620939e-02 3.23470347e-02 3.15733552e-02 -3.63325290e-02
    5.81690185e-02 -9.87175736e-04 1.97920799e-02 -5.05093038e-02
    1.49166621e-02 -6.50062785e-03 1.81677286e-02 -1.15512963e-02
    -1.41469175e-02 3.26627344e-02 1.75817125e-02 3.63058485e-02
    4.96675074e-03 2.19954662e-02 -5.05085057e-03 4.61558476e-02
    1.20330350e-02 -6.52384479e-03 -4.37319688e-02 4.47498485e-02
    -1.91491917e-02 5.82930334e-02 3.40016335e-02 1.45640532e-02
    3.97634618e-02 3.96299846e-02 -7.05612125e-03 3.28286625e-02
    -3.44875008e-02 7.12672807e-03 -3.46236043e-02 -1.89163312e-02
    -8.57121218e-03 -3.51518728e-02 7.44372001e-03 2.47408934e-02
    -1.37944920e-02 -8.33263155e-03 5.96890636e-02 8.56760517e-03
    3.69553939e-02 2.61619058e-03 1.48479855e-02 -2.89083868e-02
    1.77049022e-02 -3.49687710e-02 1.23348879e-03 -2.48772278e-02
    -2.63570659e-02 2.73559475e-03 6.35506213e-03 -5.05829081e-02
    2.59858668e-02 1.58190895e-02 -1.74992196e-02 3.44317779e-03
    4.88598309e-02 2.19404921e-02 -1.37108192e-03 9.79917124e-03
    -4.96985726e-02 2.66573988e-02 3.09278583e-03 5.60350083e-02
    -2.53433585e-02 2.69843303e-02 2.88238283e-02 -3.79259847e-02
    -1.80979595e-02 -3.33422907e-02 3.07807159e-02 -2.47751214e-02
    3.82788689e-03 3.49907279e-02 -5.89805171e-02 3.67551413e-03
    1.94064248e-02 3.41566168e-02 2.02711392e-03 2.37440020e-02
    1.14651043e-02 -8.55043251e-03 -2.71799415e-02 -5.56251872e-03
    3.03856693e-02 -1.62841287e-02 2.71067545e-02 -2.84554604e-02
    5.82078658e-03 -2.55867466e-02 3.94419059e-02 -1.22627085e-02
    -1.03125763e-04 -2.90098949e-03 1.39144305e-02 3.81320007e-02
    -4.02155742e-02 3.02864462e-02 -1.74511243e-02 2.49477546e-03
    9.65311378e-03 -2.53213514e-02 2.85102539e-02 -4.92256954e-02
    3.35089564e-02 -2.06121635e-02 7.18162162e-03 2.08840389e-02
    1.71448756e-02 1.08434260e-02 -4.08039205e-02 5.92414802e-03
    -1.59809906e-02 2.90649533e-02 -1.92517247e-02 -1.54792070e-02
    -4.68436368e-02 -1.34757645e-02 -6.66076597e-03 3.61873098e-02
    1.78473629e-02 6.62643882e-03 1.63217839e-02 -1.57603901e-02
    1.05571710e-02 4.46090288e-02 -3.64645422e-02 1.39296404e-03
    -1.50093203e-02 -5.71155176e-02 1.46452403e-02 5.37764886e-03
    -2.00101733e-02 2.35850178e-02 1.09615438e-02 7.42275044e-02
    1.74717233e-03 3.09881102e-03 2.64588445e-02 -2.41229124e-02
    3.19413692e-02 2.35740114e-02 -2.14234577e-03 4.18207725e-04
    -1.11560691e-02 -3.53789702e-02 1.04239723e-02 -3.75578515e-02
    6.22474123e-03 4.81133275e-02 2.43119872e-03 2.04438474e-02
    -3.45488042e-02 -4.04069852e-03 -4.20835987e-02 3.49765606e-02
    1.51641676e-02 4.16525118e-02 -9.02764499e-03 3.50633636e-02
    2.87978090e-02 1.47905445e-03 3.39965373e-02 1.94583065e-03
    -2.12689824e-02 8.77157040e-03 -4.07288261e-02 -1.33684399e-02
    1.64440535e-02 2.13449728e-03 -1.74872065e-03 3.97404023e-02
    -4.80001606e-02 2.54711658e-02 -1.30622294e-02 -7.22558983e-03
    1.62735563e-02 -5.28369918e-02 -1.69071034e-02 -3.56957153e-03
    6.59112004e-04 -2.78111044e-02 2.13965584e-04 -2.14754008e-02
    2.42466517e-02 5.95230237e-02 4.95211966e-02 2.34990530e-02
    1.46359224e-02 3.82360909e-03 9.26719513e-03 2.43756846e-02
    -1.31101196e-03 -2.46043596e-02 3.14883096e-03 2.88946759e-02
    -6.60522794e-03 -3.66353616e-02 1.95307415e-02 5.48989587e-02
    8.80694482e-03 -4.07074019e-03 -1.98025629e-02 -2.89332233e-02
    -3.95090356e-02 -9.04660393e-03 3.39494599e-03 -2.63845418e-02
    -3.30859646e-02 -2.83454657e-02 -3.41124311e-02 1.80925000e-02
    2.73120664e-02 -5.11550941e-02 -4.10772972e-02 -2.80265138e-02
    -3.32332845e-03 8.90442356e-03 3.11409887e-02 -4.12130654e-02
    -1.47385327e-02 -2.80120429e-02 4.34211828e-02 -9.57420003e-03
    -1.22028906e-02 -1.98118649e-02 2.43840087e-02 2.72769742e-02
    6.52366260e-04 -4.01920006e-02 9.23309103e-03 2.52513345e-02
    -2.00818852e-02 9.80129559e-03 7.63745978e-03 -1.70675069e-02
    6.38424605e-02 -2.40520313e-02 2.12486950e-03 -2.38390379e-02
    -7.35005662e-02 -3.74129862e-02 -9.37532447e-03 -2.89913993e-02
    -2.40827259e-02 -1.37283979e-02 2.37579755e-02 1.89724024e-02
    -3.39384587e-03 3.31091844e-02 -2.49729790e-02 2.48788670e-02
    -2.23882366e-02 -3.21828783e-03 -3.11800838e-02 -5.36141172e-02
    -9.20432678e-04 6.00695563e-03 3.21395434e-02 -5.36544323e-02
    -1.49440831e-02 2.58806460e-02 -1.79464407e-02 2.01367922e-02
    -1.36303622e-02 -3.32361972e-03 -3.91014814e-02 4.84023150e-03
    4.97719608e-02 -8.66276771e-03 1.72159970e-02 5.49968332e-03
    -3.95331345e-02 1.46943405e-02 3.61920707e-02 2.77995914e-02
    5.12994081e-02 -5.50485216e-02 6.65131491e-03 -1.41492272e-02
    -2.45041717e-02 -3.88582870e-02 -3.33141871e-02 -9.20565613e-03
    -9.41441953e-03 -6.28325567e-02 -4.26497236e-02 1.87567491e-02
    -7.79334828e-03 -1.91075243e-02 2.96441820e-02 2.38900948e-02
    2.73712985e-02 -3.66163850e-02 2.39924472e-02 -1.08608569e-03
    -3.74202733e-03 5.45968227e-02 1.04727026e-03 -3.49009931e-02
    -1.81090292e-02 2.31290106e-02 1.24914832e-02 -3.36568467e-02
    -2.54720100e-04 -1.50290638e-04 5.30507118e-02 1.84470955e-02
    -5.11560403e-03 -5.02445474e-02 3.76631096e-02 -1.24374498e-02
    -7.54873920e-03 -2.74731498e-02 3.79079022e-02 -6.24331720e-02
    -1.62761062e-02 2.54253671e-02 -3.12015843e-02 -2.39338968e-02
    2.58883107e-02 -1.39852520e-02 6.27543917e-03 -5.94820501e-03
    1.80296041e-02 -1.66984536e-02 -3.05388495e-02 -4.22343016e-02
    -5.23300376e-03 1.17968945e-02 1.79151390e-02 1.28276544e-02
    -4.37386110e-02 5.49692921e-02 9.03762504e-03 -5.08349724e-02
    -2.77161282e-02 6.04217825e-03 1.15968427e-02 3.00366879e-02
    1.14425796e-03 -1.42236007e-02 -3.58529501e-02 1.68053210e-02
    -6.19834922e-02 3.70731018e-02 1.83075983e-02 -1.74195636e-02
    -1.88841112e-02 2.80585364e-02 1.81931332e-02 -2.53566392e-02
    -2.99202674e-03 -8.05626530e-03 -5.64382747e-02 -8.69934913e-03
    5.34060225e-03 5.74236177e-03 -4.29310352e-02 4.31214608e-02
    1.50361862e-02 -3.60722444e-03 2.68523842e-02 -2.81538088e-02
    3.75726866e-03 -6.51936531e-02 1.26041416e-02 4.57001738e-02
    -1.08549092e-02 -7.12276110e-03 4.22096103e-02 -2.67774723e-02
    2.18757931e-02 -3.57038993e-03 -5.34885228e-02 -5.60978875e-02
    4.27529961e-02 9.30191763e-03 -1.23496149e-02 -5.04737208e-03
    -2.52334820e-03 4.00743075e-02 1.07529759e-03 1.31876962e-02
    -3.92953586e-03 2.52610650e-02 1.23796221e-02 6.89290538e-02
    2.17714589e-02 8.13068077e-03 -8.17206455e-04 -1.00961225e-02
    -2.37425826e-02 1.94548983e-02 2.30194498e-02 1.35541605e-02
    -1.60231683e-02 1.26480712e-02 -3.27087776e-03 5.12628397e-03
    -1.83129072e-04 -5.21520786e-02 1.67088136e-02 8.00879076e-02
    2.94652358e-02 -3.28372717e-02 2.53142752e-02 2.09190976e-02
    6.29010499e-02 1.34012653e-02 4.78393026e-03 -1.05976397e-02
    2.69704331e-02 1.51447149e-03 -5.58811333e-03 8.34305957e-02
    -2.39607897e-02 5.17915189e-02 1.34834712e-02 -1.96800996e-02
    3.27830054e-02 -6.93944748e-04 8.67077429e-03 -2.22549569e-02
    -2.59866007e-02 -2.23655980e-02 -1.09673217e-02 2.47165412e-02
    7.66877737e-03 -2.64554583e-02 1.85238589e-02 2.58772038e-02
    1.64534468e-02 1.95932621e-03 6.00064136e-02 -2.69237589e-02
    2.83234962e-03 -8.16441141e-03 -3.28250378e-02 -1.51797058e-02
    -1.81519624e-03 -4.58056740e-02 -4.03673761e-03 -2.68969238e-02
    5.56141371e-03 1.94753092e-02 -1.57181788e-02 5.94200566e-02
    -6.01043962e-02 6.05478277e-03 4.38808352e-02 4.11943942e-02
    2.29653399e-02 1.30533949e-02 1.83395797e-03 -1.50727872e-02
    -1.14985472e-02 2.46571973e-02 2.62480713e-02 2.57506594e-02
    -1.63884945e-02 2.99774986e-02 3.14506725e-03 1.78300533e-02
    -1.77462138e-02 -2.79773716e-02 2.60007419e-02 -3.28548695e-03
    4.43175100e-02 -1.10204630e-02 -1.71143115e-02 -3.70802134e-02
    -1.46191483e-02 1.27532147e-02 4.64032516e-02 -4.16390374e-02
    9.04963817e-03 5.42356120e-03 3.66849713e-02 1.72348265e-02
    -3.31942141e-02 2.30515227e-02 -6.99602300e-03 -1.31341200e-02
    9.17373970e-03 -3.21978889e-02 9.38192289e-03 4.05545942e-02
    2.95990463e-02 2.44772397e-02 2.10530199e-02 -3.29422690e-02
    2.13526282e-02 1.82543565e-02 -4.01574513e-03 1.19753331e-02
    -2.74031349e-02 5.20282164e-02 1.66788287e-02 -2.55480595e-02
    -6.40080357e-03 3.02341823e-02 1.18555343e-02 2.93424390e-02
    5.67523437e-03 -1.62290502e-02 -3.99745815e-02 -3.02640144e-02
    3.12456712e-02 3.51151228e-02 -3.07861976e-02 5.24107367e-03
    -4.39464264e-02 -2.38117110e-02 2.20295619e-02 -6.37876941e-03
    5.39383925e-02 -1.04279825e-02 -1.44276284e-02 3.99887376e-03
    -8.67149327e-03 -1.33615322e-02 -1.95797929e-03 1.90345701e-02
    -1.44671125e-03 -2.65476499e-02 -1.77815352e-02 -6.56035263e-03
    3.42095234e-02 -2.14884849e-03 -1.00989006e-02 3.20924558e-02
    -4.91800793e-02 6.91646338e-03 -1.88767109e-02 1.25753814e-02
    -6.98788883e-03 1.28286863e-02 4.45769541e-02 4.38333303e-02
    -1.49727054e-02 -5.06790169e-02 9.82568972e-03 8.26290529e-03
    -3.03616486e-02 1.52813718e-02 -2.47873459e-02 -1.32366698e-02
    -4.92855608e-02 3.28927301e-02 1.30765829e-02 2.27958988e-02
    5.12883905e-03 -3.39955576e-02 -2.62347646e-02 1.15282349e-02
    3.35603347e-03 -1.21505531e-02 6.48077228e-04 -9.88677982e-03
    -2.79953834e-02 2.60362830e-02 -4.18113209e-02 -9.64054186e-03
    1.67156234e-02 1.66430790e-02 1.56825222e-02 4.27544164e-03
    -3.23867314e-02 3.25028710e-02 1.48809468e-02 -3.64342444e-02
    -9.02994256e-03 -3.37444767e-02 -3.90071468e-03 -9.56424233e-03
    -2.38317344e-02 6.22542091e-02 9.35412291e-03 -3.80243026e-02
    -4.56770100e-02 -3.35566513e-02 -3.18718292e-02 -3.15373614e-02
    -2.86673126e-03 2.07500905e-02 -4.65847664e-02 2.46476103e-03
    -1.09209202e-03 -2.41914131e-02 -3.45109291e-02 1.01551265e-02
    3.53421643e-02 -2.70999409e-02 4.78368737e-02 1.18693924e-02
    -6.73559355e-03 1.96485482e-02 -8.48518219e-03 -1.69516485e-02
    -4.47772769e-03 9.93572921e-03 5.83973946e-03 -4.76007760e-02
    -1.40685970e-02 -1.09582804e-02 -3.53135429e-02 -6.06420003e-02
    1.47340102e-02 -1.54413218e-02 -3.81408334e-02 5.87002467e-03
    8.42765998e-03 -1.13030290e-02 2.12258007e-02 -9.34883133e-02
    -1.90650560e-02 -1.19388457e-02 -3.18576284e-02 -1.48018552e-02
    -9.82809905e-03 4.51576263e-02 2.29554474e-02 -9.66450199e-03
    2.69506928e-02 1.53412791e-02 -3.81481415e-03 5.75230680e-02
    3.13270427e-02 -2.91506685e-02 6.54536262e-02 -6.37290105e-02
    2.44134571e-03 1.08937211e-02 -1.88492481e-02 -1.87027864e-02
    -1.35727385e-02 -3.95420082e-02 1.34677095e-02 1.38966376e-02
    -6.46555144e-03 2.69565661e-03 -5.48859537e-02 1.33548966e-02
    5.31524071e-04 4.44267131e-03 -5.35571156e-03 1.52376294e-02
    1.57913733e-02 2.87622716e-02 -4.11180779e-02 -5.79888299e-02
    -1.75029784e-02 -4.51096892e-02 1.95226744e-02 -2.72986088e-02
    -3.07463985e-02 4.91804667e-02 -6.58221841e-02 6.59050094e-03
    -8.10263096e-04 -1.04388187e-03 -3.03278640e-02 -2.64836382e-02
    -1.43112997e-02 -5.00865914e-02 1.68732349e-02 2.51263380e-02
    1.27784517e-02 2.64712702e-02 2.34151259e-02 -1.76471304e-02
    -2.46546115e-03 -2.69382689e-02 2.71093156e-02 -4.65650018e-03
    -1.07134730e-02 -4.50388566e-02 -3.42834294e-02 6.58888649e-03
    -3.41727212e-02 -2.91794781e-02 1.01137543e-02 -3.27059347e-03
    -1.53202610e-02 1.59405377e-02 2.34604012e-02 -2.58576497e-02
    2.27056462e-02 -1.72728300e-02 -4.11177911e-02 -2.09473562e-03
    -2.60144961e-03 4.44827899e-02 -3.25544737e-02 5.53887617e-03
    -8.26949347e-03 8.41121003e-03 6.91552972e-03 -2.63823643e-02
    -3.38536501e-02 -1.17156617e-02 4.56458777e-02 -2.82541988e-03
    2.73325499e-02 -7.94974901e-03 2.68503334e-02 1.28081068e-02
    -1.23323416e-02 2.22521070e-02 2.02510186e-04 -1.50212245e-02
    2.37862132e-02 1.15398373e-02 -3.68527137e-02 -3.91075271e-04
    3.10288509e-03 -1.06296586e-02 3.51923332e-02 -7.03275716e-03
    -3.02721281e-02 4.33405526e-02 -2.81118341e-02 2.69051511e-02
    5.07305749e-03 1.13952151e-02 3.59173468e-03 2.00177263e-02
    -9.26245563e-03 3.97323929e-02 -5.40731922e-02 1.87922746e-03
    -1.35037513e-03 6.84618158e-03 5.82925603e-03 1.60659675e-03
    -4.74072620e-02 5.21229282e-02 8.03125184e-03 -2.63551902e-02
    -4.10119779e-02 1.19552463e-02 2.56033894e-02 -1.86980404e-02
    -2.88622524e-03 5.97940981e-02 1.38466503e-03 -2.87558022e-03
    6.95839152e-02 2.30412614e-02 -3.48112895e-03 7.24150846e-03
    1.82459429e-02 -4.51577231e-02 4.02125642e-02 3.24345357e-03
    1.63511802e-02 -3.18590961e-02 -1.08384173e-02 3.04534356e-03
    -2.34639719e-02 -8.17020983e-03 3.88695970e-02 1.66807920e-02
    3.71080004e-02 -4.46004001e-03 3.77698392e-02 -5.78078851e-02
    1.37451885e-03 -2.78389151e-03 -2.40938980e-02 -2.28711683e-02
    3.05054896e-02 1.20297447e-02 -2.04910859e-02 2.52345633e-02
    2.09096763e-02 -8.31019506e-03 -1.28509905e-02 9.19081420e-02
    1.43012591e-02 6.53310716e-02 4.79439162e-02 -3.08319815e-02
    6.19650632e-02 2.66293716e-02 5.43657281e-02 -3.97581160e-02
    -1.55234255e-03 -1.75206866e-02 -6.76410459e-03 -2.73100031e-03
    6.89067994e-04 1.99094620e-02 -4.42623086e-02 2.21036170e-02
    -6.53146803e-02 -7.56798079e-03 -1.74390990e-02 1.18192863e-02
    2.11243331e-03 3.89210582e-02 -2.44579334e-02 -2.32553221e-02
    2.76087411e-02 -2.55970322e-02 -6.42570760e-03 -9.75194795e-04
    6.15146197e-02 4.88860086e-02 3.06934528e-02 -7.59337330e-03
    4.27758247e-02 -8.15521553e-03 8.98309350e-02 -6.15803041e-02
    -2.88554374e-02 -3.21410485e-02 -1.05044534e-02 -3.19520719e-02
    -4.00530733e-02 -2.15255581e-02 2.59776991e-02 -2.26216763e-02
    5.38086332e-03 3.43324617e-02 -7.04663619e-02 9.26395878e-03
    5.25496416e-02 -1.60027631e-02 1.66525878e-02 -2.93970127e-02
    -4.63024303e-02 5.61248511e-03 -3.29733565e-02 -3.92069593e-02
    1.16863530e-02 1.19809322e-02 -4.49735820e-02 -5.92800044e-03
    -5.38344793e-02 6.47351565e-03 -4.93610501e-02 -2.00339537e-02
    -1.78508591e-02 -4.27628867e-02 1.91264041e-02 1.17148086e-02
    -2.42164079e-02 1.08152591e-02 6.98025003e-02 -4.61432412e-02
    4.93297800e-02 -7.46461842e-03 3.35426442e-02 1.10043203e-02
    -1.70185380e-02 7.43890507e-03 -7.66661018e-03 -2.12687552e-02
    -2.53175981e-02 -4.14560810e-02 -2.43948167e-03 -1.87349655e-02
    2.25225016e-02 2.82526091e-02 6.85179746e-03 -4.51643690e-02
    -4.50657913e-03 2.50347494e-03 1.88306756e-02 2.45835483e-02
    -5.61793242e-03 -2.87735276e-02 -2.37966701e-02 3.21986265e-02
    2.32866425e-02 1.58821587e-02 1.92060340e-02 -5.51591814e-02
    1.84073839e-02 2.44580433e-02 -3.88401025e-03 -4.98827845e-02
    -6.11259714e-02 2.27633286e-02 -2.85077351e-03 -1.99304279e-02
    -1.81543399e-02 3.01530566e-02 9.58986674e-03 1.56100895e-02
    4.41453978e-02 -1.84875652e-02 2.13339534e-02 -8.60022660e-03
    5.15711866e-03 -1.11372489e-02 2.37561688e-02 7.60967145e-03
    -2.42942083e-03 -2.32584048e-02 -1.68364644e-02 -3.32547501e-02
    2.73664519e-02 -3.21999453e-02 -5.93275204e-02 1.35513060e-02
    -1.20303323e-02 -2.64832191e-02 -3.26354057e-02 -4.71782237e-02
    3.98119073e-03 -1.56629998e-02 5.59163140e-03 -2.82584727e-02
    4.64091077e-03 1.79817881e-02 2.09673103e-02 -2.07132827e-02
    6.00969121e-02 6.10009693e-02 2.56607216e-02 -4.34293374e-02
    1.67286266e-02 3.17120142e-02 -7.34300120e-03 2.05935352e-02
    7.85755739e-03 -2.21516062e-02 1.20763024e-02 -1.44110003e-03
    1.85360778e-02 -2.01112237e-02 1.28029194e-02 -1.09586921e-02
    -1.80593394e-02 -3.96032929e-02 4.37896280e-03 2.98286900e-02
    -4.25925255e-02 -3.23345251e-02 -4.69249077e-02 -9.38805752e-03
    -1.18801957e-02 2.94518303e-02 3.88114527e-02 2.51007965e-03
    6.48945272e-02 3.17771267e-03 -4.97214906e-02 4.94554415e-02
    1.39176361e-02 -3.33177671e-03 2.03645024e-02 9.65640415e-03
    4.32994924e-02 1.27120549e-02 -7.02709379e-03 -7.86433648e-03
    -3.92467938e-02 9.81670246e-03 5.98328281e-03 -8.16616323e-03
    -4.25107554e-02 1.56586487e-02 2.33307835e-02 -9.69509783e-05
    -1.49117941e-02 -2.55317017e-02 5.67170531e-02 -3.34281400e-02
    2.56261602e-02 -6.56853151e-03 -7.58509105e-03 1.16561586e-02
    3.40536386e-02 -3.86966690e-02 -3.00664897e-03 -7.49247754e-03
    -9.01845656e-03 2.10202560e-02 -2.36237496e-02 2.54146867e-02
    3.39464401e-03 4.15596776e-02 -2.38317368e-03 -7.69629655e-03
    -2.51244102e-02 8.97456519e-03 3.42432819e-02 1.27617922e-02
    1.06011080e-02 1.82092171e-02 8.14572442e-03 2.76637375e-02
    -1.59762055e-02 3.02208606e-02 1.74781345e-02 1.31281577e-02
    -1.78729016e-02 -1.68797746e-02 3.11459545e-02 2.62703598e-02
    1.21283568e-02 2.85474062e-02 -1.32442545e-02 -5.56262722e-03
    2.76673213e-02 -4.70180959e-02 -2.56400257e-02 -1.95374917e-02
    1.80705227e-02 -3.49202827e-02 -5.83280623e-03 -1.45524861e-02
    3.21028456e-02 2.08348166e-02 2.10687984e-02 -1.53379433e-03
    -1.15821026e-02 -1.43158976e-02 1.94766074e-02 1.62518993e-02
    2.65447535e-02 -2.44209953e-02 5.24593256e-02 4.01305929e-02
    -1.71680637e-02 7.98288547e-03 -2.25677025e-02 3.03273629e-02
    3.68473269e-02 -2.42388714e-02 -2.93183047e-02 -1.17468927e-02
    -4.12750207e-02 1.81537848e-02 -2.30150186e-02 2.54499279e-02
    -1.07306316e-02 -2.17747521e-02 -4.40731160e-02 -3.32699753e-02
    -1.35154184e-02 7.35887734e-04 3.65875401e-02 -6.92122011e-03
    1.35901934e-02 7.89507851e-03 2.18066201e-02 3.19833569e-02
    -5.79620572e-03 -5.06900391e-03 -2.65891384e-02 1.52919618e-02
    2.53819395e-03 -3.89786363e-02 1.08367633e-02 1.26754791e-02
    2.87741534e-02 1.74331125e-02 -5.68949617e-03 2.31236536e-02
    -4.33630943e-02 4.87940535e-02 1.03637697e-02 -3.12158582e-03
    -2.91159414e-02 -3.46135385e-02 -3.16592021e-04 -1.25550805e-02
    -1.48061747e-02 6.45823404e-03 -2.03843899e-02 3.05824522e-02
    9.16699134e-03 -5.62746190e-02 -1.51267648e-02 -2.37167887e-02
    -9.08210501e-03 2.46603764e-03 5.73563948e-02 -1.16853593e-02
    -6.43045688e-03 -2.19957740e-03 1.03216723e-03 5.01928516e-02
    -1.04399128e-02 -1.04171792e-02 2.38404870e-02 -2.01656092e-02
    3.93252112e-02 -2.67372262e-02 -1.12825958e-02 -8.31975508e-03
    -1.46876266e-02 4.39012423e-02 2.62141619e-02 6.55143103e-03
    -1.79794803e-02 -2.21473668e-02 5.25607169e-03 -2.24966425e-02
    -3.43053900e-02 3.52863558e-02 -5.60888136e-03 -2.81176735e-02
    -5.13637513e-02 4.63065580e-02 5.71913645e-03 3.35017289e-03
    -8.52891896e-03 -9.73995309e-03 -1.76322050e-02 7.13406280e-02
    -1.90860089e-02 -3.86128239e-02 -1.45004718e-02 -1.16795078e-02
    -2.81205103e-02 7.73758511e-04 1.51955439e-02 7.06832409e-02
    5.50501309e-02 -1.53735811e-02 1.36862230e-02 3.67156379e-02
    -4.22530025e-02 3.45871635e-02 4.82583046e-03 -2.64813676e-02
    1.39237959e-02 2.97893938e-02 -2.34494358e-02 -1.47310644e-02
    -3.54087837e-02 3.33273187e-02 1.16994409e-02 1.30957374e-02
    8.51284806e-03 -3.64744999e-02 2.04122458e-02 -5.29259350e-03
    7.47922529e-03 -3.88662964e-02 -1.09145744e-02 -1.69929303e-02
    1.43265650e-02 -2.33695172e-02 8.24207906e-03 1.72662064e-02
    6.01938441e-02 7.32505694e-03 -1.58614591e-02 -4.02358100e-02
    -3.02314665e-02 1.51137421e-02 -1.80742126e-02 1.03446878e-02
    1.53305633e-02 1.24480966e-02 2.80811191e-02 -2.79361848e-02
    3.93075831e-02 -1.27017032e-02 3.52702998e-02 -2.29377989e-02
    1.59345232e-02 -1.03362855e-02 2.05145795e-02 -9.24791209e-03
    4.08077352e-02 5.16976528e-02 4.33817059e-02 -5.26865106e-03
    1.27608737e-03 -2.86112428e-02 4.63582501e-02 -1.49658248e-02
    4.73070666e-02 -1.95293706e-02 1.62148252e-02 -4.39747935e-03
    -9.15234070e-03 -8.57686717e-03 -9.88134556e-03 1.13007510e-02
    -2.43412075e-03 1.38792535e-02 -1.05222790e-02 1.85929593e-02
    3.79122607e-02 -1.50591014e-02 1.08415289e-02 -2.51536109e-02
    -3.32413577e-02 6.86588809e-02 3.85888331e-02 -2.00310517e-02
    1.59620605e-02 6.29479485e-03 -1.65884178e-02 -5.94510660e-02
    8.41394886e-02 9.42625012e-03 2.92526186e-02 -1.36934062e-02
    6.94704950e-02 -3.66811687e-03 1.06150527e-02 -1.90588366e-02
    -1.93940066e-02 -8.05754736e-02 4.79194056e-03 7.76448054e-03
    -3.50458547e-02 1.81511242e-03 -3.43000442e-02 -1.01146009e-02
    2.11112071e-02 1.60184037e-02 -1.98561363e-02 -4.28607985e-02
    -1.10719753e-02 2.76678465e-02 -3.41645069e-03 -4.14020680e-02
    -9.52055119e-03 1.93388283e-03 -5.76609671e-02 4.23364937e-02
    -1.45749943e-02 -2.94706933e-02 -5.34145683e-02 -1.94309768e-03
    -1.96282268e-02 -1.37738325e-02 1.41791534e-02 -3.99220251e-02
    -1.36710256e-02 -1.25768008e-02 4.29713167e-02 -1.15292789e-02
    3.85726765e-02 3.08217555e-02 1.44671742e-03 -3.01631875e-02
    1.61541521e-03 1.26378294e-02 -9.51057766e-03 -8.47894140e-03
    6.23049261e-03 6.88627660e-02 -2.65731178e-02 -2.39668656e-02
    4.98763248e-02 -3.65150459e-02 1.76640060e-02 3.68506601e-03
    1.36020768e-03 2.11087265e-03 -1.19065428e-02 -2.89405528e-02
    -4.68172431e-02 2.08857991e-02 -3.07216998e-02 -2.91384608e-02
    1.31259626e-02 5.31876227e-03 -8.96655694e-02 5.29364124e-03
    2.96435654e-02 -3.57722864e-02 2.28037760e-02 6.45568967e-03
    1.62759349e-02 -7.69393845e-03 1.91110820e-02 -4.99178804e-02
    1.67276226e-02 -3.99581939e-02 2.44619437e-02 -1.66850388e-02
    -4.39943112e-02 1.64340623e-02 1.36098228e-02 -4.68541496e-02
    1.48960762e-02 -4.13629552e-03 -2.55693123e-02 -3.83637659e-02
    4.88911830e-02 -4.61321250e-02 -9.38298181e-03 -1.47676701e-02
    -3.17888185e-02 -1.54529104e-03 4.25233133e-02 -5.13641164e-02
    2.80138738e-02 1.06899207e-02 -4.02083970e-04 -7.76819512e-03
    -3.60129867e-03 -8.31937976e-03 -4.44140360e-02 -1.15682669e-02
    -2.45385077e-02 1.10802036e-02 3.22217005e-03 1.29466578e-02
    8.61536711e-03 -1.40962321e-02 4.28101271e-02 -4.39124368e-02
    5.09863794e-02 -1.14312032e-02 -1.77824106e-02 -2.26337072e-02
    -1.59075279e-02 1.11731626e-02 1.92603830e-03 -2.41388455e-02
    5.82616143e-02 1.99012663e-02 7.07050739e-03 -6.40222803e-03
    3.13406922e-02 3.19183022e-02 3.48696634e-02 3.11117079e-02
    -1.98750347e-02 2.72269528e-02 -3.06625273e-02 -2.95049846e-02
    -6.04564790e-03 2.79509090e-02 -1.79774559e-03 8.11575446e-03
    7.06185540e-03 2.79661790e-02 -3.14821340e-02 3.68577577e-02
    -2.21131146e-02 -4.70130630e-02 1.10275969e-02 5.36197685e-02
    -1.93717740e-02 2.14370545e-02 4.97959033e-02 8.11629370e-03
    2.29907185e-02 -3.13720331e-02 -6.18489347e-02 -4.99692187e-03
    6.83143036e-03 -5.71640022e-03 1.97443608e-02 -5.55161722e-02
    -2.57812683e-02 8.09735060e-03 -7.44883716e-02 3.51565070e-02
    3.85183431e-02 -2.91105974e-02 1.26904333e-02 5.02199680e-02
    -5.79459220e-03 -1.98810920e-02 1.54333292e-02 4.81592119e-03
    8.67306348e-03 4.82857712e-02 -2.82565560e-02 -3.41561288e-02
    -1.51689285e-02 1.10254828e-02 -4.45474964e-03 2.47402545e-02
    -3.62485498e-02 -2.65697856e-02 -1.33467317e-02 5.00231646e-02
    -4.55521755e-02 -3.40639614e-02 5.46642505e-02 -2.92138197e-03
    2.69327890e-02 3.53816040e-02 -4.54733968e-02 2.12456677e-02
    -3.49614024e-02 -2.37883218e-02 3.95602472e-02 -5.48241027e-02
    2.58248858e-02 -2.50877105e-02 -3.19229849e-02 2.12028325e-02
    2.41104569e-02 -1.64744910e-02 -4.53903480e-03 3.77038261e-03
    -1.98072754e-03 3.92868668e-02 -2.29592547e-02 3.55278030e-02
    -1.28526958e-02 5.54163866e-02 7.49242539e-03 -4.81475666e-02
    -4.70235897e-03 6.79351948e-03 -2.55581420e-02 -7.43791182e-03
    1.37018990e-02 6.14970131e-03 -1.14825927e-02 4.13508229e-02
    -3.14217843e-02 -1.26559827e-02 7.00789839e-02 1.31721497e-02
    -3.73827294e-03 -3.11682373e-02 2.55767144e-02 2.96121817e-02
    -6.44560624e-03 1.90463215e-02 -9.69799235e-03 -4.47659120e-02
    -3.95964161e-02 -1.15332091e-02 5.59028843e-03 -2.92802081e-02
    4.26031053e-02 3.14093009e-02 -2.41406187e-02 -3.98146622e-02
    -4.28624973e-02 1.40013341e-02 1.69342209e-03 3.86918820e-02
    -2.73919050e-02 4.69126888e-02 1.92582775e-02 2.40789577e-02
    -4.30339668e-03 1.72600355e-02 -2.99099125e-02 -1.69689786e-02
    -4.48283833e-03 -3.67168151e-03 3.43759581e-02 -2.62413491e-02
    -1.14123495e-02 1.17898767e-03 -5.20980731e-03 -5.83777130e-02
    2.90030893e-02 2.18973979e-02 1.19457906e-02 -6.26131594e-02
    1.80827249e-02 -9.72485542e-03 -4.67796326e-02 -2.94482913e-02
    -2.08647549e-02 -2.46192776e-02 1.41523788e-02 -2.99927797e-02
    3.00947614e-02 4.11945581e-02 -2.31253169e-02 9.18592513e-03
    1.09342346e-02 1.88851636e-02 4.62213531e-02 -1.93847883e-02
    -1.44299455e-02 1.14391814e-03 -2.23897770e-02 6.33007381e-04
    -1.66350715e-02 1.56779320e-03 4.34789658e-02 2.63160318e-02
    -1.03710918e-02 5.83477900e-04 -5.99027611e-03 -3.14317085e-02
    -1.34508125e-02 1.15387691e-02 -2.24187825e-04 -3.88964899e-02
    -1.65364053e-02 2.97729205e-03 -7.09776417e-04 -4.36379947e-02
    -5.75139700e-03 7.12233316e-03 -1.58412401e-02 -8.73992499e-03
    -1.07840700e-02 4.38448042e-02 -4.41082269e-02 -1.66707151e-02
    1.25060752e-02 -4.40296903e-03 1.00594712e-02 2.31260303e-02
    -9.17675626e-03 1.54067939e-02 -2.08921637e-02 3.46758775e-02
    -1.01152295e-02 6.50365744e-03 -1.52951209e-02 4.59190160e-02
    2.74184849e-02 -1.60853639e-02 -1.97912436e-02 -2.84080431e-02
    -3.58145288e-03 -3.22669819e-02 -8.89657531e-03 2.33664606e-02
    4.36343485e-03 -7.39753097e-02 4.29305993e-02 -2.11253129e-02
    2.77855247e-02 -5.33130858e-03 6.08819351e-03 1.47680873e-02
    -3.04493196e-02 -1.85486092e-03 -4.52769510e-02 5.52032003e-03
    -2.22308617e-02 -2.64311694e-02 9.95518360e-03 -2.34622993e-02
    8.38497560e-03 -9.20973718e-02 -6.38530357e-03 4.60714940e-03
    5.48713543e-02 -3.57814394e-02 -2.24890821e-02 2.11369172e-02
    2.65691448e-02 -2.80415062e-02 -2.94102868e-03 3.38643976e-03
    -4.63739038e-02 5.29743284e-02 1.29483631e-02 2.58357842e-02
    -1.22611644e-02 5.14517631e-03 1.85877141e-02 -3.38875875e-02
    1.79706682e-02 4.08381000e-02 1.95560921e-02 2.12052632e-02
    1.23550063e-02 -2.69903708e-02 -3.35128568e-02 -3.10994331e-02
    5.41090444e-02 -4.29851674e-02 -2.64807586e-02 7.23686069e-02
    7.45812878e-02 -2.24812925e-02 1.80266183e-02 -1.41588962e-02
    5.84729295e-03 -7.72849470e-03 5.39870895e-02 1.79129583e-03
    3.09819076e-02 -4.67076758e-03 2.29724105e-02 -3.28860879e-02
    -1.75875910e-02 -3.69428447e-03 -5.95699586e-02 -2.35339310e-02
    -1.04348641e-02 7.93791190e-03 2.84737851e-02 2.00756919e-02
    -2.28207372e-02 -2.56926212e-02 3.81079949e-02 6.28729016e-02
    -2.44318526e-02 6.29784018e-02 2.41107680e-02 3.75601687e-02
    5.94391022e-03 4.24070545e-02 8.95096064e-02 -2.17190739e-02
    -8.43751058e-03 1.72346868e-02 3.26799303e-02 -7.83624779e-03
    -4.86408435e-02 -4.22289036e-02 -3.09541319e-02 9.92338610e-05
    1.96515420e-03 -6.28681574e-03 6.99783815e-03 -1.73647131e-03
    2.60190163e-02 8.20000470e-03 -6.06267992e-03 5.11677787e-02
    3.59123200e-02 6.59165264e-04 5.87149151e-02 2.72840913e-02
    1.06003806e-02 -1.00740567e-02 4.05342542e-02 -1.12338215e-02
    1.31747825e-02 2.00837813e-02 -3.19383889e-02 -1.92851759e-02
    4.26221862e-02 7.34728714e-03 4.80830930e-02 -3.25287157e-03
    1.47430161e-02 1.32638803e-02 3.53619158e-02 4.64633061e-03
    -3.69079225e-02 1.29947234e-02 5.16899601e-02 5.03092771e-03
    -2.04713587e-02 4.78358902e-02 2.40896940e-02 2.14382298e-02
    1.03622861e-02 3.09962165e-02 -7.10610009e-04 -1.20556625e-02
    6.85649514e-02 -2.54569780e-02 -8.33262317e-03 -2.06242129e-02
    3.52649502e-02 -3.65783758e-02 -1.41077098e-02 6.07264135e-03
    -3.24675883e-03 -1.00353407e-03 4.04493278e-03 -8.79723057e-02
    -4.23390605e-02 -2.86171306e-02 1.87905356e-02 4.13586088e-02
    -1.46007137e-02 -5.53602651e-02 -1.18001346e-02 1.90544222e-02
    -4.54528257e-03 6.50328621e-02 9.01429728e-02 -1.91072505e-02
    -2.49489415e-02 5.55303926e-03 1.75769329e-02 -1.03880214e-02
    -1.73255540e-02 7.56318076e-03 -4.44682837e-02 3.89767103e-02
    -1.53988879e-03 3.82998586e-02 1.34981303e-02 -5.48620848e-03
    1.27777429e-02 -1.32751847e-02 1.97576825e-02 4.01480217e-03
    6.75435588e-02 -2.41590962e-02 6.44534448e-05 -2.83390004e-02
    -3.57559882e-02 -6.57310486e-02 -3.02349799e-04 -7.61419609e-02
    -9.51155927e-03 5.89345954e-02 1.44327553e-02 3.43607403e-02
    -2.98349485e-02 1.39977960e-02 -6.07538372e-02 1.40388478e-02
    -3.68871121e-03 2.74121552e-03 2.94702612e-02 7.93556217e-03
    -2.45700758e-02 -1.00484034e-02 2.14865329e-04 3.02805491e-02
    3.20168771e-02 3.22067253e-02 1.75852124e-02 3.63752320e-02
    1.28994265e-03 6.98137432e-02 9.07539856e-03 4.24246415e-02
    9.07067675e-03 4.61144112e-02 4.22618054e-02 -7.46847615e-02
    -2.35759690e-02 2.90753879e-02 -2.50932854e-02 -1.48375286e-02
    -5.30603691e-04 -5.42480759e-02 2.82224678e-02 -3.64944222e-03
    -3.04862093e-02 7.40443775e-03 -1.71802156e-02 4.80943508e-02
    5.34897000e-02 -5.23965731e-02 -1.50082936e-03 4.47734781e-02
    3.57375620e-03 6.44388050e-02 6.78203404e-02 5.98867461e-02
    1.93712190e-02 -7.29119778e-03 -1.18731838e-02 -6.51911572e-02
    9.25483648e-03 -9.90219787e-03 -3.40423658e-02 1.73099265e-02
    -2.25553904e-02 -2.01465599e-02 -4.55028117e-02 6.81341335e-04
    6.64467399e-04 -1.49699710e-02 -4.67573851e-03 9.20979027e-03
    -1.99676007e-02 -5.36316866e-03 1.58385709e-02 6.72545508e-02
    -6.28865266e-04 -2.14077299e-03 -2.76158117e-02 -9.95445345e-03
    5.24063259e-02 4.51339148e-02 5.92665263e-02 -3.85248140e-02
    -1.25332642e-02 -3.84035148e-02 5.47695579e-03 4.46688533e-02
    -1.59223285e-02 1.44120054e-02 1.40593462e-02 3.44981477e-02
    -3.72095034e-02 -8.09007976e-03 1.83383226e-02 -6.40277565e-02
    -7.11559085e-03 -2.32890397e-02 -1.91559140e-02 1.91282537e-02
    -4.52024043e-02 8.61324370e-03 -9.79010132e-04 3.56829278e-02
    -1.18080750e-02 4.67363372e-03 5.32708503e-03 -4.40755635e-02
    -2.63826712e-03 -4.73874249e-03 -6.25100434e-02 1.64378230e-02
    -2.43961997e-02 -2.85122581e-02 3.62064727e-02 2.51562847e-03
    -7.05553917e-04 -1.39307296e-02 -1.93822682e-02 9.60623287e-03
    7.89460167e-02 -5.81399687e-02 -1.77055653e-02 -2.45206896e-03
    -5.56801781e-02 4.99626398e-02 1.70344319e-02 4.04392667e-02
    -2.49012858e-02 2.08859816e-02 2.58554518e-02 -5.02168350e-02
    -2.88786273e-02 -3.44789214e-02 4.73323325e-03 -3.43090631e-02
    -4.00209278e-02 -3.40178497e-02 3.80016933e-03 -2.18833727e-03
    -5.82950749e-03 -1.13509558e-02 1.93200186e-02 2.51441803e-02
    1.12550834e-03 -3.86627130e-02 -1.45007046e-02 6.19759709e-02
    -3.67180221e-02 -3.15527283e-02 -2.37893183e-02 -1.78176742e-02
    7.37877190e-02 -2.36956235e-02 8.68608151e-03 -1.25265354e-02
    1.15893064e-02 -3.58682424e-02 -1.17801107e-03 -2.23812703e-02
    -8.54451209e-03 -2.18627695e-03 3.30031402e-02 -3.29867029e-03
    -1.88516509e-02 1.58405285e-02 -2.54309289e-02 8.11661687e-03
    3.41445543e-02 -2.61338949e-02 -2.48606000e-02 -1.18138024e-03
    -1.15772162e-03 -3.11940685e-02 2.99350042e-02 7.37708062e-04
    1.69126131e-02 -1.89543720e-02 -3.51352664e-03 -1.76398046e-02
    -1.41755063e-02 -2.50168480e-02 9.11886571e-04 1.60172973e-02
    -5.76596595e-02 2.32801698e-02 8.40922445e-03 1.63477822e-03
    -2.65020262e-02 4.07848135e-03 1.89310894e-03 -1.99940056e-02
    1.73312444e-02 8.35345592e-03 -2.63496526e-02 2.60315537e-02
    -7.81066529e-03 2.31349934e-02 4.15981710e-02 6.86093494e-02
    6.95084734e-03 4.70752418e-02 -1.05907035e-03 3.19016376e-03
    -4.64917682e-02 -1.31933428e-02 -1.84666626e-02 -2.87951306e-02
    7.89940823e-03 -4.94050840e-03 9.84368101e-03 1.04227532e-02
    2.04052683e-02 5.95140345e-02 2.56839059e-02 3.59225497e-02
    3.14341784e-02 7.19767995e-03 9.70147643e-03 1.96865816e-02
    5.22130094e-02 -3.89075093e-02 3.13721746e-02 -1.64735615e-02
    -1.52427508e-02 -2.26042774e-02 1.22820392e-01 3.54427844e-02
    4.72895522e-03 -5.16620949e-02 -5.50904591e-03 1.62471160e-02
    8.81845132e-03 1.75068211e-02 4.25084941e-02 -5.36068119e-02
    -2.09294353e-02 4.71921032e-03 -2.49100346e-02 2.15250460e-04
    -1.42454077e-02 -1.88477188e-02 1.72053464e-02 2.21485030e-02
    1.83057729e-02 -3.68017145e-02 2.78200060e-02 4.45667356e-02
    1.10173561e-02 3.24600153e-02 2.28289738e-02 1.32759027e-02
    -1.40482010e-02 -2.09602956e-02 4.21523415e-02 1.16237495e-02
    -2.53313594e-02 -8.48322175e-03 -3.13493237e-02 6.20787814e-02
    1.71127487e-02 1.28744012e-02 3.53819894e-04 5.00862934e-02
    5.68160787e-02 -7.87525028e-02 2.12913901e-02 3.85910794e-02
    -1.59633346e-02 -5.57213984e-02 -2.63068248e-02 -1.37811601e-01
    -3.31098258e-01</SVMDetector></SVMmodelV_-_2>
</opencv_storage>
